<?xml version="1.0"?>
<opencv_storage>
<my_svm type_id="opencv-ml-svm">
  <svm_type>C_SVC</svm_type>
  <kernel><type>LINEAR</type></kernel>
  <C>5.0000000000000000e-001</C>
  <term_criteria><epsilon>1.1920928955078125e-007</epsilon>
    <iterations>1000</iterations></term_criteria>
  <var_all>7524</var_all>
  <var_count>7524</var_count>
  <class_count>2</class_count>
  <class_labels type_id="opencv-matrix">
    <rows>1</rows>
    <cols>2</cols>
    <dt>i</dt>
    <data>
      0 1</data></class_labels>
  <sv_total>1</sv_total>
  <support_vectors>
    <_>
      1.33446949e-002 4.22100462e-002 -2.42654281e-003 -8.35100934e-002
      -2.57412493e-002 1.28878085e-002 3.59702297e-002 -9.35461298e-002
      -3.51698399e-002 -3.42671461e-002 -1.61847379e-002
      -2.81207785e-002 -3.66460942e-002 -3.97973470e-002 6.14968594e-003
      3.69624607e-002 -7.25174472e-002 -4.08417955e-002 -1.16638094e-002
      1.15072608e-001 9.06647146e-002 6.40446832e-003 -1.73998717e-002
      -4.94220667e-002 -2.31802296e-002 -4.75789011e-002
      -5.86714521e-002 -5.79148792e-002 -3.62195191e-003 3.00070997e-002
      1.02218799e-002 2.59278473e-002 2.50478345e-003 5.82933947e-002
      -2.13340633e-002 -1.12897068e-001 -5.60722500e-002 4.52071009e-003
      -4.30661812e-002 -3.23311724e-002 -5.30548431e-002
      -4.48521636e-002 1.97925773e-002 -7.70819858e-002 -5.75442426e-002
      -5.54630458e-002 6.23032413e-002 -9.63530689e-003 -5.36929816e-002
      -5.77187575e-002 -7.75886467e-003 -1.66894402e-002
      -7.79590243e-003 1.44188935e-002 -4.40447144e-002 1.24630914e-003
      2.10437849e-002 -3.36675383e-002 2.79873447e-003 -3.40728611e-002
      5.34279235e-002 -1.65521391e-002 -3.47255282e-002 -8.06746818e-003
      1.05196916e-001 3.39456983e-002 -4.50721122e-002 -7.36179110e-003
      -5.47921658e-002 6.41559586e-002 2.30248589e-002 -4.53969352e-002
      -6.04949072e-002 5.47966268e-003 3.34377587e-002 -3.55007611e-002
      -3.00762951e-002 -4.30911779e-002 -1.59620252e-002 4.43399651e-003
      1.97430365e-002 -4.46748734e-003 -2.78577302e-002 -8.09881743e-003
      -4.63838503e-002 -4.86997850e-002 -6.03245646e-002
      -7.84795359e-003 6.12494908e-002 7.53107890e-002 -3.17587107e-002
      2.73609981e-002 8.03202763e-002 -3.26453969e-002 -2.07661502e-002
      -2.16041170e-002 3.07629053e-002 3.41027714e-002 -2.04930138e-002
      -5.53118661e-002 -2.70440672e-002 1.08382236e-002 -2.47455575e-002
      2.19165422e-002 -4.99274321e-002 1.42839830e-002 2.42200568e-002
      1.68150421e-002 2.73101926e-002 1.35211283e-002 1.59114145e-003
      -2.57123113e-002 -3.04099452e-003 -6.64682873e-003 4.29480523e-002
      7.50986189e-002 7.90657327e-002 -1.10880129e-001 -5.29072955e-002
      1.16333868e-002 -2.14704685e-002 1.00486667e-003 4.02861554e-003
      3.20606604e-002 6.04306310e-002 -4.06195484e-002 -5.43249846e-002
      -2.62453370e-002 -6.90471753e-003 1.79175958e-002 4.97981757e-002
      1.48864184e-002 5.49654365e-002 5.84164895e-002 7.16313394e-003
      -1.04769528e-001 -4.35454659e-002 -3.14586051e-003 2.42328942e-002
      3.25026400e-002 1.10324146e-002 5.96943349e-002 6.00115433e-002
      -5.74621633e-002 -9.36638713e-002 -1.51045239e-002
      -1.59011539e-002 1.74734462e-002 2.97363251e-002 4.66922903e-003
      -3.57918218e-002 1.93226151e-003 -5.82978353e-002 -3.98530066e-002
      -3.24396417e-002 -5.12229800e-002 -5.46035729e-002 2.28190590e-002
      5.64406514e-002 2.33684238e-002 1.46653131e-002 1.06616253e-002
      -1.16318185e-003 7.05283973e-003 1.89606901e-002 1.01777734e-002
      1.80491880e-002 -2.43961103e-002 2.36036088e-002 4.92166802e-002
      -1.77427381e-003 1.28952814e-002 6.12751720e-003 -6.45464286e-002
      -8.07201043e-002 2.09120680e-002 -4.36478574e-003 5.38430959e-002
      5.37982993e-002 4.36641984e-002 -4.63211723e-002 -4.98977527e-002
      -3.59809659e-002 -3.57431397e-002 1.75063480e-002 2.17125639e-002
      3.71563844e-002 4.40352373e-002 1.40480446e-002 -5.58639970e-003
      4.83917585e-003 4.47573029e-002 4.05827314e-002 2.79909689e-002
      -2.03426741e-002 2.79247072e-002 6.00821562e-002 6.29929677e-002
      -1.12002520e-002 2.08412167e-002 -1.78607851e-002 -6.04511276e-002
      -1.38356425e-002 -1.50546187e-003 4.89439070e-002 2.65240036e-002
      3.09353750e-002 5.47732972e-002 4.93406504e-002 4.77530919e-002
      -4.42593805e-002 -2.72757895e-002 2.34104623e-003 6.95610791e-002
      1.03668785e-002 6.86848611e-002 2.97745578e-002 -3.59514020e-002
      -2.79844011e-004 2.04890613e-002 -2.13186461e-002 -6.19728565e-002
      -1.78596452e-002 1.64318625e-002 3.98349389e-002 3.05547472e-002
      -4.61663604e-002 5.46332300e-002 -3.62681113e-002 2.88020447e-003
      -2.74108015e-002 6.62556365e-002 7.71072507e-002 7.36740530e-002
      1.67909414e-002 -4.69771214e-002 -4.57082354e-002 -1.78763922e-002
      2.64682919e-002 -3.55901606e-002 -1.66048314e-002 -2.50833053e-002
      2.22044997e-002 -8.46617389e-003 -2.07730290e-002 3.78837138e-002
      1.15036136e-002 3.02737877e-002 1.20739313e-002 1.83324609e-002
      9.79305524e-003 6.32952377e-002 -4.34714817e-002 -7.09414706e-002
      1.44201948e-003 -4.59118932e-002 -1.68862417e-002 -2.22717226e-002
      7.31614903e-002 4.74814624e-002 3.33870649e-002 -2.35799002e-003
      -4.03006598e-002 2.38894112e-003 5.64836059e-003 3.45680900e-002
      1.08827703e-001 1.16912715e-001 5.57299592e-002 -5.87360747e-003
      -2.14493629e-002 -1.11089163e-002 1.08070280e-002 -1.57923009e-002
      5.43962568e-002 -1.53694488e-002 -1.61479916e-002 -7.89157674e-002
      5.36428718e-003 1.35795968e-002 -2.96972673e-002 2.52379924e-002
      3.07211224e-002 3.52006927e-002 1.66254006e-002 4.94349003e-002
      1.07975695e-002 2.26142574e-002 5.55606410e-002 2.81046936e-003
      3.08641829e-002 -1.45067843e-002 4.35557552e-002 5.00342026e-002
      3.07301320e-002 1.28581673e-002 -5.06943930e-003 4.92994860e-002
      -1.46523220e-002 5.61180562e-002 -1.75011735e-002 2.71509308e-003
      -1.47821177e-002 -1.34645049e-002 -5.27694006e-004 2.46157050e-002
      2.82133073e-002 -6.08142614e-002 1.30942361e-002 -4.51816954e-002
      3.22782211e-002 5.49599305e-002 1.39209637e-002 -2.23979522e-002
      2.12004688e-003 3.96494754e-002 -1.24874653e-003 6.34945035e-002
      -1.54325049e-002 4.71344465e-005 6.46864101e-002 4.65700701e-002
      -7.88309053e-003 1.75368413e-002 3.87503416e-003 -2.71149743e-002
      1.07839704e-003 -3.48715112e-002 -4.27871458e-002 -2.88155023e-002
      -1.81807373e-002 -2.41174959e-002 -7.83363730e-003 4.10486087e-002
      2.26048380e-002 5.40685887e-003 8.23947974e-003 8.31060577e-003
      -1.63851921e-002 -8.34821630e-003 -9.61371325e-003 3.20474207e-002
      -9.42458864e-003 -4.60662530e-004 4.80966978e-002 7.78954476e-003
      1.90898664e-002 2.35392768e-002 3.36477607e-002 -5.08594476e-002
      -1.16681801e-002 2.72745304e-002 2.68811323e-002 6.11498505e-002
      7.62289912e-002 7.36449659e-002 3.45876031e-002 2.95269117e-002
      -2.26922743e-002 -6.78276969e-003 7.54708797e-002 6.48683384e-002
      3.15224677e-002 2.42750645e-002 -3.61798629e-002 -6.34293780e-002
      -1.93652827e-002 -1.07240807e-002 3.08591574e-002 8.10727403e-002
      9.33080390e-002 2.95349024e-002 -5.50398901e-002 -2.65109241e-002
      -5.61202206e-002 -3.51235271e-002 -3.20404954e-002 2.42874250e-002
      4.27354351e-002 3.75129990e-002 6.25135796e-003 -2.59036273e-002
      4.63050827e-002 -3.03028375e-002 1.26817254e-002 -4.05400097e-002
      -1.53037105e-002 4.21786681e-002 6.16967529e-002 -4.91535999e-002
      -9.44153965e-002 -2.09733681e-003 -9.01565581e-005 7.14811077e-003
      8.25955253e-003 1.36260036e-002 4.44794856e-002 6.92882389e-002
      4.10365276e-002 6.40969537e-003 4.18124385e-002 4.27718833e-002
      3.49898674e-002 2.28952132e-002 1.91707965e-002 3.95531096e-002
      4.38627638e-002 4.74694045e-003 -3.17641050e-002 -6.24214634e-002
      5.86457662e-002 1.36942640e-002 -4.93126165e-004 -4.12338506e-003
      6.81387633e-002 5.01563549e-002 -1.39131313e-004 2.44467217e-003
      -1.37290626e-003 5.94423227e-002 4.12230864e-002 3.01762461e-003
      2.84534059e-002 2.44099405e-002 4.21378575e-002 -1.68662716e-003
      2.51455456e-002 3.82866301e-002 2.92285495e-002 -3.05222385e-002
      -2.92253364e-002 -7.95099325e-003 1.50078805e-002 -8.23924690e-003
      1.41224274e-002 9.10187513e-003 -6.59389272e-002 5.42347692e-003
      1.48701388e-002 -2.01242659e-002 -3.61827202e-002 3.51252705e-002
      4.59139235e-002 4.30154391e-002 1.19423307e-002 -4.43255566e-002
      -1.80375185e-002 1.18921660e-002 -5.79123907e-002 2.72034239e-002
      -1.96778178e-002 1.35851474e-002 -2.15170197e-002 4.77349795e-002
      4.50811349e-002 1.95376743e-002 2.63904966e-003 -5.87749407e-002
      -3.79723944e-002 5.76378778e-002 6.46974891e-002 5.99844605e-002
      4.51633036e-002 3.43795568e-002 2.69340128e-002 5.94467446e-002
      1.23871602e-002 2.13295985e-002 8.14871415e-002 2.61666961e-002
      1.43234925e-002 -8.82484019e-003 -7.09475800e-002 5.31017222e-003
      -3.18098604e-003 -3.86346951e-002 3.84407938e-002 3.75596471e-002
      3.84483673e-002 -1.36060058e-003 -2.97917565e-003 -3.76281366e-002
      7.47342110e-002 4.79048453e-002 2.49680039e-003 3.44525394e-003
      1.62812918e-002 4.22254379e-004 3.58088911e-002 6.13349862e-002
      4.48680297e-002 5.28268032e-002 5.89859933e-002 4.38848138e-003
      1.61215793e-002 1.39240669e-002 -1.27039980e-002 5.07207587e-002
      5.10419011e-002 4.53154445e-002 5.33730276e-002 1.92451268e-003
      -2.42233314e-002 5.01994081e-002 2.84631755e-002 3.73051688e-002
      9.01376922e-003 -2.72854082e-002 -8.64199176e-002 5.38053736e-002
      9.26383436e-002 -5.29290736e-003 2.24359427e-002 1.07098602e-001
      5.01918085e-002 4.00002301e-002 9.87612531e-002 -1.88819747e-002
      -6.42379164e-004 2.39233505e-002 -3.61254029e-002 2.30475031e-002
      3.40935960e-002 3.20231915e-002 2.11742036e-002 7.91445561e-003
      -2.46647280e-003 4.50144224e-002 1.17877210e-002 -3.02647129e-002
      6.30455017e-002 7.80822486e-002 1.66423377e-002 2.23685503e-002
      5.42567894e-002 -6.94401097e-003 2.26324797e-002 -2.71599507e-003
      -2.79700533e-002 4.53671850e-002 1.99167766e-002 2.89091039e-002
      6.34257942e-002 8.50059763e-002 -2.00398080e-002 -2.33079176e-002
      3.48573811e-002 -2.12641601e-002 -3.29878889e-002 -4.66747954e-003
      3.12087238e-002 3.88509668e-002 2.07262877e-002 -2.59999670e-002
      -2.35552192e-002 4.66173030e-002 8.29641055e-003 -3.98355909e-002
      6.70112818e-002 -2.59208009e-002 -1.87128093e-002 4.68903445e-002
      4.91970181e-002 -1.01930927e-003 2.44287141e-002 -2.06617545e-002
      4.88138460e-002 3.05873182e-005 -2.44991301e-004 -1.83831267e-002
      6.78651258e-002 -4.75926418e-003 -3.84393632e-002 4.16646153e-002
      -4.90284190e-002 -3.54976230e-003 -2.43110266e-002
      -6.93220925e-003 -3.26963663e-002 -8.01412854e-003
      -2.47605927e-002 1.61938556e-002 7.10377693e-002 5.04021756e-002
      -3.15559581e-002 3.09574567e-002 6.38232827e-002 1.30057037e-002
      -3.60919572e-002 4.12968062e-002 4.79602627e-003 3.59629393e-002
      3.77409793e-002 -4.80384715e-002 -3.41758840e-002 -4.77288337e-003
      -4.56190156e-003 1.48290293e-002 -3.22451396e-003 2.53790189e-002
      3.90598997e-002 -5.85547201e-002 -6.80012181e-002 -5.62989712e-002
      3.93479168e-002 1.71452966e-002 -2.57960781e-002 5.25673144e-002
      4.31265868e-002 1.26366345e-002 -5.42221498e-003 -9.20059308e-002
      2.51745414e-002 7.49454945e-002 2.03919299e-002 -4.51566912e-002
      4.36188951e-002 -1.76554974e-002 2.48953514e-002 -1.76033285e-002
      -4.03938331e-002 1.34680849e-002 3.03964596e-002 5.45534631e-003
      1.71169881e-002 5.09398580e-002 3.89654413e-002 -6.68070000e-003
      -2.05030944e-002 -1.74839534e-002 3.58924794e-004 2.62832642e-002
      -3.42713632e-002 -6.84531704e-002 8.04658141e-003 -1.21062342e-002
      4.59367856e-002 6.72176108e-002 -2.54079252e-002 2.93688904e-002
      -7.41249509e-003 -6.82116002e-002 -4.49408926e-002 1.96559746e-002
      1.19116586e-002 5.42339385e-002 3.22355069e-002 2.20938828e-002
      -3.36023830e-002 2.57005566e-003 -2.79921237e-002 5.43378592e-002
      1.18649676e-002 5.11006415e-002 4.70093116e-002 -1.08504447e-003
      -2.83655897e-002 -8.61229450e-002 4.15560976e-002 1.25877373e-002
      3.73726375e-002 6.09057322e-002 1.70302056e-002 3.72894369e-002
      1.68985035e-002 -5.02270944e-002 -2.80860215e-002 9.99279320e-003
      -2.40781363e-002 -4.41130400e-002 -2.93999761e-002 4.67960583e-003
      7.23131448e-002 -1.54079316e-004 1.48567548e-002 -3.24509814e-002
      8.76625627e-002 2.11467240e-002 -2.73944717e-002 2.77887154e-002
      -2.49786731e-002 9.24576148e-002 2.02240329e-002 -3.63073535e-002
      -1.32043157e-002 7.82968923e-002 4.80986424e-002 -3.43616530e-002
      -1.97090916e-002 1.40412373e-003 8.92937742e-003 1.26313996e-002
      -4.60530147e-002 -2.89736595e-002 1.08133592e-002 2.81334445e-002
      -4.35123742e-002 -4.76470329e-002 -1.12224827e-002 3.89080793e-002
      1.90852489e-002 -6.49998039e-002 -5.85458018e-002 6.11643940e-002
      4.59402101e-003 -5.72679602e-002 3.47362086e-002 1.95050109e-002
      7.13218153e-002 3.11607383e-002 -8.68476480e-002 -1.54731935e-002
      2.59789024e-002 6.66576810e-003 -5.09602018e-002 1.07300030e-002
      -6.80512190e-002 -5.11661312e-003 -2.95410473e-002
      -7.23111853e-002 -2.33922824e-002 -1.91285107e-002 4.57034912e-003
      -5.52299730e-002 3.89998290e-003 -8.08967277e-002 3.57490964e-002
      2.03087926e-002 1.97911193e-003 2.85784453e-002 7.27576315e-002
      1.61888357e-002 -1.31755099e-002 1.82117592e-003 -4.66048233e-002
      8.44860822e-002 4.27152663e-002 2.79325563e-002 -2.30148956e-002
      -1.66286360e-002 -4.82236817e-002 -4.60950509e-002 1.17728887e-002
      -9.01619270e-002 -2.61263102e-002 -2.85771657e-002
      -6.09051250e-002 -1.39231803e-002 -1.23336837e-002
      -1.02285063e-002 -4.46416363e-002 -4.86312509e-002
      -6.26491532e-002 3.60314772e-002 -1.80778224e-002 -5.09141311e-002
      3.64116058e-002 4.27481160e-002 1.07794674e-003 -1.77063011e-002
      -3.86073440e-002 -3.93598527e-002 1.99486278e-002 -6.69565238e-003
      2.09483802e-002 -5.28181866e-002 -1.03153391e-002 -3.57137099e-002
      -3.42144594e-002 9.51393321e-003 -7.38308430e-002 -3.11648156e-002
      -4.62217368e-002 -4.56192493e-002 -4.61544190e-003
      -4.01453935e-002 -1.29222600e-002 -1.52381035e-002 3.68523374e-002
      -7.37714255e-003 1.16920192e-002 -4.12530303e-002 -5.69430785e-003
      -2.97023524e-002 -6.20287545e-002 -3.70472111e-002 1.90202501e-002
      -2.08234135e-003 -4.33147773e-002 -2.15778742e-002
      -3.99894640e-002 -3.64326499e-002 -3.77088115e-002 2.91768126e-002
      1.27821555e-002 1.70726534e-002 -3.81536745e-002 -4.15346958e-002
      -2.94140913e-002 -4.45700586e-002 -4.18327339e-002 3.87936272e-002
      1.90476310e-002 1.17916279e-002 3.59949321e-002 -2.42695492e-003
      9.56141949e-003 8.20411090e-003 -3.57630588e-002 -1.89182926e-002
      -2.35598302e-003 -1.50575675e-002 1.78808384e-002 -2.37065144e-002
      -3.71096507e-002 -4.65900674e-002 -2.21554525e-002
      -5.60703762e-002 -3.77886035e-002 7.37460405e-002 2.43908260e-002
      3.01425103e-002 -3.26956925e-003 -8.36516079e-003 -2.34934874e-002
      -2.10098717e-002 -2.96105333e-002 5.73445931e-002 2.86029186e-002
      2.30682306e-002 -2.53024064e-002 7.61029869e-003 7.13899452e-003
      -4.70344850e-004 4.47617471e-002 2.88267694e-002 4.48552892e-003
      -1.01762470e-002 -3.94790955e-002 -8.35693348e-003
      -5.15993349e-002 2.00959109e-002 1.91696770e-002 3.57735604e-002
      1.31235030e-002 3.56827900e-002 -1.36427032e-002 3.45855542e-002
      2.72268690e-002 4.18189578e-002 1.10400924e-002 -1.63587939e-003
      4.44604171e-004 -6.07444020e-003 -6.79107523e-003 -4.07250039e-002
      -9.81966220e-003 4.89376411e-002 6.40004501e-003 2.08162982e-002
      -4.40968713e-003 -6.72261342e-002 -4.75419499e-002
      -4.34187241e-002 -7.30317645e-003 -6.39484916e-003 6.61772415e-002
      -9.55452095e-004 1.41088758e-003 2.14417446e-002 4.23507951e-003
      -4.19630259e-002 -9.54414345e-003 3.31979766e-002 2.63349060e-002
      6.71545267e-002 1.47280116e-002 -6.06754329e-003 -1.91708747e-002
      5.06125428e-002 -1.78428758e-002 1.34439273e-002 -1.14874514e-002
      -1.52636291e-002 9.56453010e-002 5.89129888e-002 -8.18035193e-003
      7.86899403e-003 -4.02660854e-002 -5.17650768e-002 -4.06951690e-003
      1.61212943e-002 -1.75142533e-003 6.76985309e-002 7.36205727e-002
      3.03951763e-002 6.04497176e-003 3.58351953e-002 -1.21069979e-002
      4.15578298e-002 -3.04464791e-002 -4.28489447e-002 -6.14948459e-002
      -5.48489988e-002 -4.01577959e-003 -3.32623534e-002
      -3.44009101e-002 -1.00573100e-001 -2.29118075e-002
      -1.34149389e-002 4.54623550e-002 2.79009379e-002 1.00474739e-002
      2.63571218e-002 3.06642633e-002 4.40466143e-002 -5.31162359e-002
      -1.90360043e-002 -1.75379645e-002 -6.38305843e-002 2.85639875e-002
      -1.24274790e-002 1.63635276e-002 -5.36324680e-002 2.41327994e-002
      -3.93181778e-002 2.53077485e-002 4.67322730e-002 6.44912720e-002
      4.17763516e-002 3.58784907e-002 3.22071672e-003 3.61509062e-002
      3.19281742e-002 1.10344533e-002 5.53354844e-002 6.23959377e-002
      7.22336471e-002 1.16474545e-002 -1.68493465e-002 2.25000512e-002
      -3.63763347e-002 -5.22034522e-003 -9.71314833e-002
      -1.95029806e-002 1.06481992e-001 2.87349541e-002 2.92309970e-002
      -2.86877137e-002 -2.69930810e-002 -2.61339955e-002
      -1.90145243e-002 -9.97687504e-002 -5.31407259e-003 8.66349116e-002
      5.02760299e-002 -7.76367681e-003 -3.19567360e-002 -4.03830335e-002
      -1.43578649e-002 4.27043671e-003 -3.77825722e-002 1.39289349e-002
      8.82372856e-002 6.10252358e-002 1.34507706e-002 -6.18951358e-002
      -4.19039801e-002 -4.23213467e-002 -4.00798731e-002
      -7.51654282e-002 -3.00075356e-002 6.01108111e-002 -4.09890488e-002
      -8.36816896e-003 -5.00980578e-002 -6.05238341e-002 1.78400818e-002
      4.45218235e-002 -6.43026531e-002 -2.49806289e-002 1.39665948e-002
      -3.73482151e-004 4.68966737e-002 1.15658399e-002 3.28114582e-003
      9.97776240e-002 1.12185031e-001 6.30614348e-004 -5.22897951e-003
      4.18096110e-002 -8.67753476e-003 -3.50301675e-002 -5.71928658e-002
      -2.25632880e-002 -4.22943719e-002 1.87723413e-002 -5.87562136e-002
      -4.21094187e-002 3.81147005e-002 -9.02601704e-003 -3.80609185e-003
      -1.18356654e-002 9.01947264e-003 4.69576046e-002 7.51707107e-002
      9.55281686e-003 9.14216693e-003 2.00825650e-002 8.90105404e-003
      2.56698802e-002 -2.68140733e-002 4.37693782e-002 1.89430767e-003
      6.69288263e-002 1.00781275e-002 -7.88123906e-003 5.14742360e-002
      1.95047483e-002 2.05086451e-002 -8.74240696e-003 3.18624191e-002
      6.18572021e-003 5.69602102e-002 1.48022501e-002 -2.12415699e-002
      -1.73151102e-002 -8.12477153e-003 -1.85529212e-003
      -9.93612260e-002 -4.45274785e-002 -6.25784919e-002 2.52034031e-002
      1.55104382e-004 -4.86503951e-002 2.10564975e-002 7.12387729e-003
      8.77013709e-003 -6.52165711e-002 -4.79671173e-002 2.00007716e-003
      3.42179202e-002 1.27315335e-002 -3.74304652e-002 1.48094118e-001
      5.35841659e-002 -1.43811852e-002 -6.42001107e-002 2.53555663e-002
      -3.62157598e-002 1.26089491e-002 -7.12071359e-002 -2.99876998e-003
      1.06906995e-001 7.09043741e-002 -3.64954285e-002 -7.08697438e-002
      5.66845760e-003 -2.01577377e-002 1.31257689e-002 8.29915330e-003
      -2.60493066e-002 8.71020555e-002 4.20253240e-002 -2.07667258e-002
      -1.10889122e-001 -5.08091971e-002 -3.49519984e-003 4.27824333e-002
      -6.36208802e-002 -4.19205092e-002 2.08308548e-002 9.06393863e-003
      -1.48739284e-002 -5.48211150e-002 -7.58588454e-003
      -5.64097799e-003 4.69928980e-002 -1.13903861e-002 -1.98567044e-002
      2.28384119e-002 3.43033262e-002 2.22244561e-002 6.78346306e-003
      -1.78716350e-002 4.37161177e-002 2.45408993e-002 -8.53660982e-003
      -2.27490962e-002 -3.15079838e-002 3.13589871e-002 4.56083678e-002
      2.74428744e-002 -4.82345000e-002 -2.34953277e-002 -5.62980361e-002
      -6.89705089e-002 -1.07042082e-002 -6.81935772e-002
      -2.91345231e-002 4.68611903e-002 4.81694676e-002 3.41656245e-002
      6.70107827e-002 1.08968824e-001 5.15464181e-003 -5.23354188e-002
      -1.90729294e-002 7.32222386e-003 6.25383779e-002 1.57639310e-002
      -3.48878093e-002 -2.68037170e-002 1.35080433e-002 -6.85667573e-003
      1.51694892e-003 -8.60473327e-003 2.20579933e-002 3.30595463e-003
      -6.03339076e-003 -1.70595609e-002 -1.31012630e-002
      -5.34862652e-002 -7.81645402e-002 -6.64823949e-002 1.14490893e-002
      4.21943180e-002 2.52525099e-002 9.79243685e-003 3.15512717e-002
      8.98797140e-002 3.31020355e-002 2.95545353e-004 -5.10033853e-002
      3.58562432e-002 2.95820995e-003 -4.08937149e-002 -1.65498853e-002
      -3.15654129e-002 -1.95578691e-002 -2.65641026e-002
      -1.93821695e-002 2.96662990e-002 3.71762998e-002 5.97233325e-002
      -9.45050362e-003 1.47655583e-003 4.22349051e-002 -8.86934716e-003
      -3.58028114e-002 -3.31270173e-002 4.95468602e-002 -4.71358709e-002
      -1.72047894e-002 2.97139538e-003 9.53790359e-003 7.51835108e-002
      8.52310359e-002 4.69665416e-002 1.05982088e-002 -4.85320995e-003
      2.31657387e-003 -5.52330948e-002 2.64348499e-002 6.02184273e-002
      1.19774297e-001 3.70610654e-002 1.93053223e-002 -3.31975073e-002
      6.39009774e-002 -2.39975527e-002 2.79898793e-002 -3.79376486e-002
      -1.86762773e-002 8.86793584e-002 8.96589737e-003 -2.37026159e-002
      -7.64641017e-002 8.91887583e-003 1.02688409e-002 -3.56071256e-002
      -1.76349431e-002 5.00804447e-002 5.55971190e-002 -7.22009409e-003
      6.26720861e-002 -3.63453329e-002 1.83129665e-002 3.72363292e-002
      3.40414457e-002 6.00996837e-002 2.61340700e-002 4.93879765e-002
      1.80779640e-002 -2.51898193e-004 -1.39329210e-002 4.59069312e-002
      1.00857086e-001 6.86126873e-002 6.53991699e-002 1.00453794e-002
      1.53133189e-002 3.43078077e-002 -2.04976816e-002 -1.05931042e-002
      3.61493044e-002 6.54452369e-002 1.52333630e-002 5.48156258e-003
      -2.13265661e-002 -9.31874663e-003 -5.80281205e-002 6.78273588e-002
      1.32957648e-003 3.94115634e-002 4.67401184e-002 2.10533757e-002
      2.82874871e-002 -3.47293653e-002 -4.02293839e-002 5.58019010e-003
      1.10296272e-002 -2.51545943e-002 1.51751861e-002 1.84221994e-002
      -1.87397599e-002 -2.59339195e-002 1.34364434e-003 3.23512182e-002
      3.34425084e-002 -4.92818356e-002 -7.20324442e-002 -6.01071538e-003
      -4.39198129e-002 -3.03581469e-002 -1.14524532e-002 2.75311954e-002
      -5.34573337e-004 2.04603914e-002 8.56070407e-003 -8.61002579e-002
      -2.54070945e-002 3.46765853e-002 -4.57880786e-003 6.28092280e-003
      -3.36394683e-002 -4.69798259e-002 6.81340136e-003 -2.56175976e-002
      -6.61285445e-002 1.14074508e-002 1.17022945e-002 7.07630534e-003
      1.25177335e-002 2.20690835e-002 4.37997078e-004 7.76727274e-002
      2.26955526e-002 -2.69741677e-002 5.93919940e-002 -1.68394092e-002
      -1.61209609e-002 -2.75585316e-002 1.25894379e-002 2.77208909e-002
      3.62288319e-002 1.09829502e-002 -5.00018038e-002 -6.73637018e-002
      -4.26373929e-002 9.96350311e-003 -4.75889966e-002 -1.81915946e-002
      3.80729474e-002 5.02169207e-002 1.65112726e-002 1.01917982e-002
      -3.83542180e-002 -6.47559855e-003 -4.32366971e-003
      -2.39565093e-002 -1.28557589e-002 3.44185205e-003 7.91456103e-002
      5.09292223e-002 4.51672124e-003 -4.52952981e-002 2.07302310e-002
      -1.20861689e-002 -1.67620648e-002 3.20788729e-003 2.78719459e-002
      4.33232896e-002 5.06037809e-002 -4.76269703e-003 -3.58717106e-002
      1.90030012e-004 -1.53736444e-002 -1.02145486e-001 -6.63135424e-002
      -3.79815809e-002 -2.17960924e-002 4.07841802e-002 3.65651250e-002
      -1.45107005e-002 5.23327999e-002 -7.11708516e-003 -8.38699117e-002
      -1.82076357e-003 -2.22234726e-002 -3.70184816e-002
      -3.17874067e-002 1.78526882e-002 1.38288978e-002 2.68900078e-002
      1.67688560e-002 -4.37665582e-002 7.40530621e-003 1.62064992e-002
      -4.75552492e-002 -1.79534201e-002 -1.61938313e-002
      -1.97910462e-002 5.41424938e-002 4.02477235e-002 -9.22148209e-003
      3.29920929e-003 7.11971754e-003 -2.37971134e-002 -6.64371699e-002
      -2.04089633e-003 -9.28270631e-003 5.22978231e-003 -8.65061302e-003
      -1.91308651e-002 -1.49723226e-002 -6.56283498e-002
      -4.81692851e-002 -1.16538126e-002 -1.72790053e-004 4.14689025e-003
      -2.89506149e-002 1.56548340e-003 -5.05684204e-002 -5.80832697e-002
      -2.83547994e-002 -8.69173408e-002 6.00100011e-002 3.74062136e-002
      -1.87779814e-002 9.99801233e-003 1.43672731e-002 1.51305031e-002
      -1.19693503e-002 -4.50266749e-002 -3.73907536e-002
      -4.30775573e-003 1.91100445e-002 -6.72536995e-003 4.17516986e-003
      5.91208301e-002 -2.89141890e-002 -1.93532817e-002 1.41669745e-002
      -3.86836343e-002 8.14934596e-002 9.66285691e-002 1.89153068e-002
      -2.89545897e-002 5.73459007e-002 -2.68485844e-002 -6.41302541e-002
      6.11609640e-003 -1.39012877e-002 3.37949805e-002 1.61749069e-002
      -8.39567184e-002 -3.01390607e-002 3.72521952e-002 -6.31775428e-003
      -5.86169809e-002 -1.48751307e-002 -1.77047141e-002 1.01496251e-002
      -2.10799146e-002 -1.08346060e-001 1.40317855e-003 9.55935046e-002
      2.89746933e-002 -8.36107060e-002 -3.01336143e-002 -4.25318033e-002
      1.17963534e-002 -9.25325602e-003 -7.28184655e-002 -4.38751467e-003
      8.06112140e-002 2.65513305e-002 -5.76403625e-002 -4.49597556e-003
      3.82549614e-002 2.07842272e-002 3.71458358e-003 -2.63073035e-002
      2.11215895e-002 3.24237384e-002 -9.27062705e-003 -5.12366705e-002
      4.01331931e-002 -9.02887061e-003 1.44301318e-002 1.93061400e-002
      -3.31895389e-002 -5.18447079e-004 -9.52795427e-003 1.77207217e-002
      -7.07172751e-002 -3.63715701e-002 1.07624764e-002 5.90239130e-002
      1.42146451e-002 -4.92645279e-002 2.65030246e-002 2.65352670e-002
      3.20625841e-003 -1.04401469e-001 2.93974858e-002 2.35813502e-002
      5.65263852e-002 -5.48001472e-003 1.22698583e-003 -1.00336606e-002
      -2.86907540e-003 1.80344209e-002 -3.73412855e-002 -4.80787717e-002
      9.68009233e-003 8.67507309e-002 -2.30999812e-002 -1.66420173e-002
      -3.16947252e-002 -4.84926626e-002 -2.89807469e-002
      -2.61793081e-002 2.92450003e-002 2.07551531e-002 5.18101975e-002
      2.35815682e-002 -3.83873954e-002 -8.83628055e-002 -3.34662125e-002
      -3.31562422e-002 4.14386094e-002 -3.35887657e-003 -5.65017201e-003
      -1.48670720e-002 -1.95400007e-002 -8.37060660e-002
      -4.60147932e-002 -1.26200756e-002 -8.28202814e-003
      -1.29804835e-002 3.39538343e-002 2.48387251e-002 4.82962690e-002
      -6.07407652e-003 -5.17642274e-002 -2.93545276e-002
      -4.04169597e-003 -2.91993190e-002 -1.62709281e-002
      -3.32174972e-002 3.41339558e-002 2.58031245e-002 -1.92599650e-002
      -6.45263568e-002 2.20299978e-002 -9.74377431e-003 8.37323430e-004
      1.41241420e-002 -1.15359463e-002 -1.83714088e-002 3.35083203e-003
      -1.39131472e-002 -2.22800691e-002 1.46906255e-002 2.24468596e-002
      3.13891321e-002 -4.68228683e-002 -5.56909218e-002 -1.69853121e-002
      1.18043590e-002 -2.27557924e-002 2.32601408e-002 -1.30221369e-002
      7.95108303e-002 -1.02133537e-002 -3.24080102e-002 -2.93546375e-002
      7.02190970e-004 -1.40437363e-002 -3.06898914e-003 1.66597255e-002
      1.55666359e-002 1.53423054e-002 1.45457573e-002 -2.72387788e-002
      -8.47966373e-002 -4.59624976e-002 -3.73748876e-002
      -3.33917961e-002 -3.35992053e-002 -4.79694270e-002 5.86089902e-002
      4.84668985e-002 -4.43896092e-002 -4.12434712e-002 -2.32574213e-002
      1.57140456e-002 -5.65597182e-003 -3.78420204e-002 -5.88389076e-002
      5.75036071e-002 2.39429530e-002 2.94217244e-002 1.87789230e-003
      -2.34233811e-002 -4.63070199e-002 -2.71349046e-002
      -5.98923974e-002 1.65163085e-003 2.30069607e-002 6.33917153e-002
      -1.71322487e-002 -1.94906536e-002 -6.86043799e-002
      -1.04970215e-002 -4.15583625e-002 -3.99167798e-002 1.57354902e-002
      3.35658826e-002 2.53322273e-002 1.38822831e-002 3.50951664e-002
      7.35527230e-003 -1.87656991e-002 -4.37243422e-003 3.31346057e-002
      -1.15159135e-002 -9.68030747e-003 3.57822068e-002 4.94479528e-003
      -1.43941361e-002 -2.24762633e-002 -4.18132246e-002 8.18271283e-003
      -2.19352487e-002 2.02481169e-002 1.97769031e-002 6.70214742e-002
      5.51292747e-002 -1.16903381e-002 -2.53539328e-002 6.32738601e-003
      1.16425985e-002 5.42508811e-003 2.54957061e-002 1.39793362e-002
      3.40575986e-002 3.86169963e-002 -1.30381528e-002 1.02991657e-002
      7.36444630e-003 6.08483190e-003 7.25295320e-002 2.52974033e-002
      -1.09491881e-003 8.17507729e-002 4.67056781e-002 -2.24595354e-003
      -4.57430333e-002 -3.25810574e-002 -1.42349470e-002 2.08546724e-002
      5.40077547e-003 -8.40590373e-002 1.69394817e-003 -2.39559468e-002
      -7.20557384e-003 -5.21867797e-002 5.33774449e-003 -4.13850602e-003
      8.64213426e-003 3.43193747e-002 -3.37920003e-002 1.03650065e-002
      4.11556028e-002 2.15477813e-002 5.90696186e-002 5.92073090e-002
      5.78280389e-002 5.25294952e-002 -4.59337384e-002 -9.82851908e-002
      -7.37357419e-003 -1.34224109e-002 8.44630133e-003 -3.92953940e-002
      -2.13263873e-002 -8.34681615e-002 9.08557978e-003 -4.29587401e-002
      -1.01644076e-001 -3.00097335e-002 6.92859218e-002 5.34213930e-002
      3.74897495e-002 4.98249382e-002 -2.88973339e-002 2.93776346e-003
      4.76134531e-002 7.12637277e-003 6.56255579e-004 -8.43073614e-003
      -4.30736355e-002 -1.17450266e-003 1.77888405e-002 3.51282040e-004
      4.22128588e-002 5.27686104e-002 1.81417707e-002 3.05117425e-002
      -2.05665193e-002 -2.57309321e-002 -5.64356800e-003
      -9.07141622e-003 -1.11808106e-002 1.20093254e-003 -7.20520392e-002
      -7.84868300e-002 6.24930719e-003 6.35535866e-002 -2.76807183e-003
      -2.62569878e-002 8.27943236e-002 -2.07550526e-002 2.61497814e-002
      -6.46824911e-002 -8.44617262e-002 1.09797753e-002 -4.96097188e-003
      -2.34953035e-002 -5.49311191e-002 2.31559053e-002 -4.56036208e-003
      -2.56247382e-004 5.60079478e-002 4.19557169e-002 1.87646765e-002
      -4.21776548e-002 2.63055544e-002 8.78134090e-003 1.73013620e-002
      -2.18545762e-003 -1.75661836e-002 7.18874410e-002 2.41957493e-002
      2.57416274e-002 -3.31079289e-002 3.92149668e-003 9.20434948e-003
      6.35015592e-002 2.12590434e-002 1.86212249e-002 -2.44287178e-002
      -1.61284730e-002 8.36738106e-003 -4.92110178e-002 -2.74654012e-002
      -6.33804873e-003 -1.12153944e-002 -6.54020607e-002
      -8.19743145e-003 -9.51730367e-003 -2.66113952e-002 1.56386495e-002
      -6.30299700e-003 1.06057646e-002 -1.82237234e-002 4.84757684e-002
      3.22625861e-002 -3.02913766e-002 7.77264312e-002 9.16807167e-003
      1.97969396e-002 -4.42449152e-002 -2.90472861e-002 -4.97954674e-002
      7.31671751e-002 1.79556198e-002 3.21270190e-002 5.15437536e-002
      3.67940925e-002 1.00342207e-001 2.04727240e-002 3.20391171e-002
      8.57867394e-003 7.98553005e-002 3.36797908e-002 5.59465513e-002
      -3.42426710e-002 -5.19152917e-002 -3.76810916e-002
      -4.22668904e-002 -1.34662203e-002 -3.47435027e-002 2.95671336e-002
      9.12587252e-003 -5.66599295e-002 2.20575444e-002 -1.86426956e-002
      2.84342654e-002 2.03930624e-002 -9.80059803e-003 -2.45073880e-003
      2.11765454e-003 -2.36643720e-002 -8.86946078e-003 3.92850004e-002
      4.07171296e-003 2.31865030e-002 9.05304495e-003 7.23970458e-002
      7.24873692e-002 3.18770893e-002 -1.29346494e-002 2.41331961e-002
      4.72613275e-002 -1.73613690e-002 3.11767180e-002 -4.04886417e-002
      3.56545821e-002 4.94001396e-002 4.38129500e-004 5.11069689e-003
      7.52703846e-002 -3.23953703e-002 -4.47257794e-002 -3.53643298e-002
      2.83148680e-002 2.05421797e-003 1.70282274e-002 -7.70794749e-002
      -4.88730296e-002 -2.41375752e-002 8.46655145e-002 1.16186123e-002
      -4.34087813e-002 -5.18028811e-002 -2.28263848e-002
      -9.52424109e-003 -5.82534559e-002 -1.13178119e-002 4.14566360e-002
      -1.58322547e-002 -1.95956770e-002 3.92700955e-002 -8.68095178e-003
      7.28597492e-002 9.86452177e-002 7.57495835e-002 7.54314288e-003
      -2.22782008e-002 -4.57807370e-002 2.61155069e-002 8.53359178e-002
      5.46053238e-002 2.65669823e-002 -1.93873215e-002 3.67228352e-002
      -3.76782054e-003 -1.75198801e-002 4.10134196e-002 -1.81179214e-002
      -5.38313342e-003 -8.91003981e-002 2.82167294e-003 1.51113411e-002
      -1.85623311e-003 -2.49200501e-002 3.10158879e-002 -2.25543580e-003
      -1.86288487e-002 5.32663949e-002 -3.90929207e-002 -4.22582874e-004
      -3.90427448e-002 1.52239883e-002 -6.14444055e-002 -5.76970028e-003
      3.81915160e-002 2.59885527e-002 1.84752047e-002 8.68034270e-003
      7.64444005e-003 -2.86957063e-002 4.96528111e-002 1.74568519e-002
      4.68969941e-002 3.06708440e-002 3.85101587e-002 6.32118667e-003
      1.01222126e-002 2.14838311e-002 -1.34259071e-002 1.54323839e-002
      -1.40826730e-002 6.64549842e-002 3.98619287e-002 6.77789422e-003
      2.31865682e-002 -1.41894771e-002 1.66831422e-003 -5.34017533e-002
      1.99969597e-002 -6.79414123e-002 4.55009080e-002 2.83219889e-002
      -1.93646494e-002 1.96005870e-002 -2.81241052e-002 1.28464196e-002
      -9.40510537e-003 4.49953265e-002 -1.22996969e-002 5.89333996e-002
      4.14347984e-002 6.32621124e-002 1.59981735e-002 -1.57076642e-002
      6.19007871e-002 5.87182082e-002 3.03125456e-002 -1.72706600e-002
      2.95523219e-002 4.34809066e-002 7.31949210e-002 5.88416345e-002
      -1.39950886e-002 2.80282218e-002 9.60017648e-003 6.76477030e-002
      6.64557740e-002 6.85319752e-002 -1.22284098e-002 -4.30329740e-002
      3.79360048e-003 -1.11427177e-002 3.75794023e-002 5.81461377e-002
      8.01104084e-002 1.01370234e-002 1.66645013e-002 1.05847083e-002
      2.54011750e-002 3.97810452e-002 -3.98334078e-002 -1.91184878e-002
      1.43338824e-002 2.84270402e-002 1.78553984e-002 2.93988548e-002
      5.70421144e-002 4.18830104e-002 7.22476607e-003 -5.38113266e-002
      -1.42531628e-002 -2.30724365e-002 2.99229044e-002 5.10292090e-002
      5.10380641e-002 5.54121174e-002 6.55586496e-002 1.29503896e-003
      -1.32793831e-002 -3.80505994e-002 -3.52713605e-003
      -1.13667203e-002 1.87131483e-002 1.33640980e-002 2.27944390e-003
      1.57481264e-002 2.22744327e-002 -4.23050933e-002 -3.96282300e-002
      -6.52876720e-002 -7.20305741e-003 -1.08879181e-002 1.59301981e-002
      6.10953383e-002 4.98021953e-002 -7.03336729e-004 4.49744705e-003
      -2.74960008e-002 2.39044633e-002 2.07058098e-002 1.10839037e-002
      4.53381017e-002 7.77976494e-003 1.98670160e-002 -4.57012206e-002
      -3.32237557e-002 -2.57433318e-002 -8.81023519e-003 4.13937494e-003
      -1.81308296e-002 1.01492424e-002 4.42171246e-002 6.71037883e-002
      9.17383563e-003 1.00617076e-003 -1.54012553e-002 2.78421324e-002
      5.66669218e-002 1.53574590e-002 6.77792877e-002 -1.36702871e-002
      5.45370765e-003 -6.41490817e-002 -1.30105522e-002 -2.86782254e-002
      1.21003538e-002 6.76673464e-003 1.19327791e-002 -3.10544595e-002
      2.75099948e-002 6.92965090e-002 2.31622756e-002 6.96066208e-003
      3.45378648e-003 3.34935822e-002 5.30420467e-002 2.14870702e-002
      -1.46304090e-002 -1.13061294e-002 3.26778777e-002 1.00935884e-002
      -2.55139861e-002 3.66286607e-003 2.02537272e-002 2.93431710e-002
      6.85660308e-003 -1.79706849e-002 2.11486612e-002 -6.22641668e-003
      5.38938902e-002 1.50533421e-002 6.70041293e-002 -2.55284682e-002
      5.80707705e-003 -3.25979330e-002 -1.17327292e-002 3.34125431e-003
      6.01346046e-002 5.37345139e-003 -5.89356087e-002 1.55817689e-002
      -4.38018702e-003 -2.72100940e-002 2.09596683e-003 1.28812194e-002
      -3.15420050e-003 3.44209298e-002 2.44526006e-002 -1.06746871e-002
      3.70071232e-002 2.58940905e-002 -1.55065237e-002 5.91200078e-003
      8.54937080e-003 -9.30586271e-003 -1.23855369e-002 1.34055940e-002
      2.61509269e-002 6.45096824e-002 -6.36361539e-002 -7.94212427e-003
      -4.21859026e-002 -2.55819857e-002 1.21102193e-002 1.54070770e-002
      -1.62297282e-002 -2.03375891e-002 1.18984487e-002 -1.89327467e-002
      -2.64076199e-002 -1.92975588e-002 -7.51703903e-002
      -2.64337473e-002 -2.30962541e-002 1.60371978e-002 6.45419164e-003
      7.29998425e-002 -4.30846922e-002 2.24145558e-002 -1.64403040e-002
      -2.72245263e-003 -2.50048228e-002 9.54301376e-003 2.85388622e-003
      8.11124966e-003 2.23982409e-002 -1.21535193e-002 -5.85723086e-004
      1.02434345e-002 -2.29776669e-002 -2.29726620e-002 4.62043509e-002
      2.18198877e-002 -7.63408793e-003 -8.83321464e-002 -3.39036025e-002
      7.66417608e-002 5.62415160e-002 -2.40569655e-002 1.39253289e-002
      1.04822673e-001 -5.96209290e-003 -2.64856033e-003 -5.46723641e-002
      -8.34540650e-002 6.66613579e-002 8.48115906e-002 -1.26812626e-002
      -6.20216243e-002 7.67637715e-002 4.44531813e-002 7.97009468e-003
      -4.33633886e-002 -4.01893258e-002 5.67509420e-002 5.86545952e-002
      -2.16536671e-002 -6.38632551e-002 7.82953277e-002 1.88365001e-002
      -1.04468483e-002 -1.22311674e-002 -4.62505370e-002 6.60359263e-002
      8.60309973e-002 -2.99305469e-002 -5.07994741e-002 -5.76515170e-003
      1.33766932e-003 -1.00810677e-001 -3.37611139e-002 -5.12503944e-002
      -9.56736039e-003 3.57352458e-002 -7.23963380e-002 -6.58955798e-003
      1.96429361e-002 1.08737377e-002 -7.45682269e-002 -3.28664668e-002
      7.31337001e-004 4.80909757e-002 6.39138520e-002 -3.26715261e-002
      -4.42693643e-002 -8.23681951e-002 -6.37358949e-002
      -5.87410182e-002 5.42878918e-003 -3.63835841e-002 -1.00662392e-002
      5.66643430e-003 -6.11747950e-002 7.89679121e-003 -6.68469220e-002
      1.72320439e-003 -1.79656763e-002 -4.69071306e-002 -2.71938276e-002
      -7.31813908e-003 2.61563226e-004 -3.19043547e-002 -6.09905319e-003
      2.93710679e-002 3.80455628e-002 -6.34390637e-002 -1.86562315e-002
      -2.74937302e-002 2.66404878e-002 1.95822064e-002 -2.33332943e-002
      1.21397488e-002 3.29513960e-002 8.25289190e-002 -3.60760242e-002
      -1.96967572e-002 -2.92514320e-002 5.63272499e-002 4.88310307e-003
      -7.28514511e-003 -2.99821645e-002 -2.73069851e-002 9.61918011e-003
      -6.57764748e-002 -9.40143913e-002 -9.67060477e-002
      -5.26166409e-002 1.26682371e-002 -2.18439233e-002 -2.24700402e-002
      1.79458421e-003 -2.38385685e-002 -6.39029667e-002 -4.70432118e-002
      -3.35608236e-002 2.22373568e-002 2.56177038e-002 -2.20732410e-002
      -1.36771705e-002 7.13951932e-003 2.35457886e-002 -1.83861256e-002
      3.09013557e-002 9.07642208e-003 1.70992911e-002 -4.17873450e-003
      -5.07111326e-002 -3.29810642e-002 -4.57481779e-002
      -6.85079172e-002 -1.71033330e-002 4.12500538e-002 7.03978390e-002
      5.01611643e-003 1.94648746e-002 -3.47512849e-002 -6.15423471e-002
      -3.48578915e-002 -2.16084886e-002 -4.61420640e-002 5.59821501e-002
      -1.03798453e-002 3.32471617e-002 2.19596848e-002 -5.71233183e-002
      -9.25213248e-002 -8.18805322e-002 -5.97101003e-002
      -4.48070606e-003 3.42977680e-002 6.17112080e-003 1.05821751e-002
      2.45863162e-002 -5.22641987e-002 -1.42689869e-002 5.99517934e-002
      -2.59907749e-002 -1.43598625e-002 2.53170589e-003 4.18933369e-002
      1.52425515e-002 5.61878905e-002 -5.22107817e-003 4.03036587e-002
      3.57104167e-002 2.65045576e-002 4.89056036e-002 3.92110134e-003
      -1.11077726e-002 -6.58448040e-002 8.49890243e-003 -9.52487811e-003
      -8.90501216e-002 -1.12148440e-002 -6.76334947e-002 5.12910867e-003
      1.34633621e-002 8.24320689e-003 4.73306365e-002 6.98480681e-002
      -7.41711911e-003 -1.60440966e-001 -3.67710716e-003
      -4.59593832e-002 1.70847252e-002 -1.78948380e-002 1.94414090e-002
      3.20128575e-002 5.21393828e-002 -1.47821814e-001 4.88953851e-003
      8.51970538e-003 4.39697504e-002 1.15705123e-002 3.90003771e-002
      -5.05680442e-002 -4.73936610e-002 7.93555658e-003 3.24854665e-002
      5.01528941e-002 2.15534726e-003 1.63794756e-002 1.51255243e-002
      4.58387248e-002 1.09989326e-002 -1.17012532e-002 -1.80824157e-002
      4.09197025e-002 -3.32543068e-002 1.64490584e-002 -4.24305163e-002
      -2.61686817e-002 1.89610422e-002 -2.02923510e-002 3.07833664e-002
      4.69854474e-003 -5.66566922e-002 5.99487275e-002 -4.64533130e-003
      -9.24363509e-002 -1.10908911e-001 -4.22632620e-002 5.73301641e-003
      -7.15867663e-003 6.43554889e-003 4.13849875e-002 5.77033348e-002
      -2.03219913e-002 3.03637702e-002 5.37448265e-002 1.77975148e-002
      -8.93340167e-003 1.89846270e-002 -2.34096410e-006 3.87299284e-002
      3.89896370e-002 -7.98105523e-002 6.52839914e-002 7.06879199e-002
      8.22619051e-002 2.75513832e-003 4.03545350e-002 6.37316257e-002
      8.97675455e-002 1.93357263e-002 -5.06812222e-002 -1.34806082e-001
      -1.00761510e-001 -6.72965944e-002 -3.73213589e-002
      -2.89522950e-002 3.11845611e-003 1.43144012e-003 2.43533533e-002
      -1.48685023e-001 -4.66633812e-002 7.18843751e-003 5.67712002e-002
      1.86306834e-002 2.68520825e-002 4.00282219e-002 3.41503061e-002
      -5.28062955e-002 -1.03977457e-001 2.36638300e-002 5.74979857e-002
      4.01557609e-002 -5.11338282e-003 -1.92069802e-002 -8.94801226e-003
      2.95211393e-002 6.06968906e-003 -4.33275960e-002 7.47968853e-002
      1.21763468e-001 5.97365573e-002 4.78868894e-002 5.71523942e-002
      -3.85360233e-002 2.03015897e-002 -7.06522986e-002 -1.52636290e-001
      -4.41482924e-002 2.86281798e-002 -8.49942118e-003 -1.26193063e-002
      1.36250975e-002 1.01384462e-003 6.14073947e-002 -2.30473783e-002
      -4.06657197e-002 7.43480921e-002 3.96970026e-002 -1.72764026e-002
      -2.60690823e-002 5.52220969e-003 -4.16731928e-003 5.07745259e-002
      -1.98884718e-002 -8.44188780e-002 5.26064448e-002 1.10997781e-001
      -4.51038359e-003 -4.11061943e-002 6.77139536e-002 -5.64015694e-002
      -5.00199907e-002 -3.32027599e-002 -5.02347164e-002 4.79967296e-002
      8.00256729e-002 7.20808422e-003 -3.52261215e-002 4.46639284e-002
      2.01555360e-002 -6.96145929e-003 -2.69066971e-002 -7.69766197e-002
      4.05949056e-002 -1.46077562e-003 -2.82192766e-003 -3.58925350e-002
      -1.83554664e-002 -2.10913084e-002 7.73019019e-006 -2.74286307e-002
      -4.88957241e-002 1.89793427e-002 3.37172672e-002 4.30117287e-002
      1.67078264e-002 -3.57656670e-003 -1.06935704e-003 -2.31709685e-002
      -1.64908264e-002 -1.48056289e-002 5.52902967e-002 -1.16242925e-002
      -2.43374370e-002 -3.12340055e-002 -2.85049044e-002
      -2.21905820e-002 -9.88326780e-003 1.45063596e-002 -5.92878833e-002
      8.07596743e-003 1.70230567e-002 -4.54324251e-003 -2.02298369e-002
      -2.85781696e-002 -1.83443017e-002 -1.52220717e-002
      -5.03025129e-002 -5.36637194e-002 1.29244346e-002 5.67602366e-002
      2.71363035e-002 1.95734128e-002 -2.18966249e-002 1.06217414e-002
      -1.03275022e-002 -6.40990138e-002 -9.00277421e-002
      -1.76990908e-002 1.10045793e-002 9.23303142e-003 1.20103247e-002
      -2.72225868e-002 -1.46794803e-002 -2.96674948e-003 6.65557012e-003
      -8.05278271e-002 -3.70349619e-003 3.36720385e-002 4.24686112e-002
      1.14179272e-002 3.22590098e-002 -1.01832775e-002 -3.53523307e-002
      3.38647189e-003 -2.75164209e-002 5.45932837e-002 6.75305501e-002
      5.55331372e-002 2.72096992e-002 1.94322895e-002 -2.42175646e-002
      8.91537499e-003 -3.98270376e-002 -8.22548494e-002 -8.51243362e-003
      2.44876221e-002 3.34593351e-003 -2.58141141e-002 1.44599900e-002
      -1.73310109e-003 3.27876434e-002 -3.91526707e-002 -7.37968758e-002
      -1.23121599e-002 7.62528554e-002 2.66151074e-002 -4.30692546e-002
      2.37847352e-003 -5.08917272e-002 -9.09674391e-002 7.35568721e-003
      -2.06639487e-002 2.25449223e-002 6.62005842e-002 4.36707139e-002
      3.40257101e-002 1.42650830e-003 -2.25388426e-002 3.81413475e-002
      2.08213292e-002 -1.38025293e-002 2.21550688e-002 -3.01591028e-003
      2.63632070e-002 8.13800748e-003 2.54593790e-002 2.45481357e-002
      7.11756721e-002 -2.34405622e-002 -5.89290969e-002 2.65679229e-002
      -1.01819178e-002 -3.18106823e-002 -2.68089082e-002 1.08891390e-002
      -4.60974090e-002 -1.58786066e-002 -5.06291464e-002
      -3.77116054e-002 3.25180665e-002 -3.82758230e-002 2.07583085e-002
      8.08285270e-003 3.55349407e-002 5.44011453e-003 3.17766257e-002
      -2.09112489e-003 -2.01773886e-002 5.48415706e-002 -1.26095312e-002
      5.45152724e-002 1.09498370e-002 9.50877555e-003 1.76558997e-002
      1.01749860e-001 5.53870248e-003 -4.83615883e-002 1.99039355e-002
      -4.50073257e-002 3.39261629e-002 -1.57798342e-002 -6.75758207e-003
      1.75160971e-002 7.64437020e-002 -9.13514122e-002 -1.10496573e-001
      6.72548115e-002 -1.74523436e-003 2.62641609e-002 -3.05815209e-002
      -2.08686013e-003 -2.60095159e-003 7.98257813e-003 -3.74059789e-002
      -5.40501587e-002 1.20646413e-002 -5.68656251e-002 -1.93392225e-002
      -5.95355965e-003 -2.58829277e-002 -2.61896849e-002
      -2.21798997e-002 7.60751367e-002 -4.76434268e-002 2.33969535e-003
      -2.35731322e-002 -6.45215809e-003 -4.87801544e-002
      -3.03913187e-002 -5.53007424e-002 1.06679320e-001 8.73732790e-002
      -3.99019606e-002 -6.95285015e-003 -1.49500929e-002 3.56995128e-002
      4.40359972e-002 3.14917490e-002 2.15443354e-002 9.43179876e-002
      9.06661153e-003 -1.80811062e-002 -2.73259003e-002 -7.18192458e-002
      -3.20307841e-003 2.30432255e-003 -4.55392860e-002 -4.10659164e-002
      -1.94811518e-003 1.36706624e-002 -2.40703765e-002 -3.23021896e-002
      -6.23367503e-002 -3.64942513e-002 3.95482443e-002 3.42462212e-002
      4.73792031e-002 3.95646393e-002 4.81424853e-003 -5.00806272e-002
      -1.75169613e-002 1.39973743e-003 3.58780809e-002 9.03526545e-002
      1.09112367e-001 5.71062602e-002 6.97443485e-002 -9.22183506e-003
      -4.04650271e-002 -2.53449380e-002 -3.03638028e-003
      -3.56809013e-002 2.92856563e-002 9.27848965e-002 4.27713357e-002
      8.07609409e-002 -6.77379742e-002 -5.01200184e-002 -2.92592738e-002
      2.51591159e-003 2.39076279e-003 4.01125140e-002 1.14765570e-001
      6.74279928e-002 4.94716056e-002 -5.86398989e-002 -5.79093806e-002
      -6.38987720e-002 -1.44548584e-002 -3.99993807e-002
      -4.27149013e-002 1.30810160e-002 -1.43664489e-002 2.08340380e-002
      1.35313161e-002 4.87485109e-003 1.51782641e-002 3.43397027e-003
      -5.97164873e-003 5.24325110e-003 5.95334210e-002 1.26090075e-003
      4.79841009e-002 7.08955377e-002 7.75983781e-002 4.69617769e-002
      6.54384866e-002 6.44022822e-002 6.37363791e-002 2.82295570e-002
      -6.48335321e-003 4.14329432e-002 -1.57744763e-003 -1.73903927e-002
      -5.12907803e-002 -9.07414705e-002 -2.97597963e-002
      -4.64181267e-002 -1.34743741e-002 -4.16417560e-003 1.99227817e-002
      -1.22378767e-002 4.31976393e-002 -1.21386058e-003 -1.45201320e-002
      1.14772320e-002 -5.32324798e-003 -3.85229364e-002 -8.46708715e-002
      1.44597366e-002 1.74397100e-002 3.88923809e-002 -3.04342359e-002
      2.41521113e-002 5.49332127e-002 8.79800413e-003 -7.12548569e-002
      -2.93087699e-002 -1.41319996e-002 3.60897258e-002 4.61442098e-002
      1.13618057e-002 2.75455043e-002 6.56834915e-002 4.34801504e-002
      2.14161687e-002 7.22751906e-003 -6.37983624e-003 -2.31940746e-002
      1.33072278e-002 -2.44363043e-002 -7.25729167e-002 -2.65342742e-002
      -7.85605833e-002 -8.14938918e-002 -4.20124419e-002
      -4.88698035e-002 3.81281413e-002 3.42921540e-002 5.29792123e-002
      2.45598946e-002 -3.79104540e-002 -2.77938806e-002 -1.27653461e-002
      5.06154308e-003 2.68293004e-002 6.88339956e-003 1.86021104e-002
      -1.04109822e-002 -3.37123796e-002 2.01063026e-002 -4.78647314e-002
      -3.11080012e-002 -3.49285454e-002 -4.50609103e-002 1.34022962e-002
      2.29683742e-002 -5.77703770e-003 -4.03084680e-002 1.65808089e-002
      -6.75910898e-003 -3.55503224e-002 -3.50001305e-002 7.56299915e-003
      1.12436842e-002 4.92461771e-003 -3.28813866e-003 -8.65825824e-003
      -1.88792571e-002 -3.02134417e-002 -2.11437140e-002
      -1.22813380e-003 1.27313323e-002 5.57031967e-002 2.58308053e-002
      1.66446250e-002 -4.30490216e-003 9.58472840e-004 2.92510130e-002
      1.87967997e-002 1.16524594e-002 6.31111264e-002 -7.72129325e-003
      -1.17934551e-002 -8.80939187e-004 -3.17992866e-002 5.17473519e-002
      -1.93139557e-002 3.71507853e-002 -1.73032340e-002 1.96580682e-002
      -3.45681910e-003 -1.13630733e-002 -3.92435230e-002
      -7.85622075e-002 -3.47007960e-002 -6.66255057e-002 2.32927501e-002
      9.79110319e-003 2.39852350e-002 5.27318232e-002 2.43206439e-003
      2.46054679e-002 -1.35735027e-003 9.32520349e-003 1.93531998e-002
      1.09612150e-002 1.94671322e-002 8.03782567e-002 2.58342307e-002
      -4.63799480e-003 7.11156195e-003 -5.49979694e-002 -1.87677015e-002
      -2.50599906e-003 -5.14047744e-004 4.08544801e-002 8.81058648e-002
      -6.62187040e-002 5.57616949e-002 3.12023573e-002 -2.14486104e-003
      1.28286080e-002 -4.24494520e-002 4.90362346e-002 3.26838754e-002
      -2.93566100e-002 -1.18489698e-001 3.54290158e-002 3.31765674e-002
      2.28216723e-002 4.18590494e-002 -4.68906239e-002 7.08510652e-002
      3.27579714e-002 -6.80886284e-002 -3.10880151e-002 4.53753956e-002
      1.19739259e-002 -4.51164693e-002 2.42209854e-003 2.18474455e-002
      9.31067206e-003 5.43260425e-002 2.74114106e-002 -1.08243696e-001
      5.95722161e-002 4.27533649e-002 -1.29101109e-002 7.48192221e-002
      -1.03866833e-003 6.23102486e-002 5.91284037e-002 -4.17466089e-002
      -2.36765929e-002 -3.95603403e-002 -1.82746984e-002
      -3.83735225e-002 -3.76022910e-003 -3.31024900e-002
      -2.54887752e-002 -4.81269322e-003 4.34366846e-003 -2.76518017e-002
      -4.71211523e-002 2.81807239e-004 -3.02992798e-002 -1.04866602e-001
      -6.76749051e-002 -4.39345352e-002 -2.34626085e-002 1.85983174e-003
      -9.42198560e-003 1.92283466e-003 4.45116498e-002 -2.94055883e-002
      -5.17977849e-002 -8.74586776e-002 -1.49553698e-002
      -8.43899697e-003 -3.85951735e-002 -3.80115211e-002 1.48096699e-002
      4.41736951e-002 2.63373852e-002 -8.83615389e-002 -9.75686535e-002
      8.31706449e-003 -1.55990915e-002 -7.18178460e-003 -1.92328449e-002
      -2.04621721e-002 3.33894193e-002 -8.00603721e-003 -6.45114556e-002
      -9.08825472e-002 -6.81718215e-002 -2.01379694e-003 1.86679494e-002
      -2.29888558e-002 -2.48709545e-002 -3.25506441e-002
      -3.84723581e-002 -6.08683042e-002 -7.19651356e-002
      -4.25255112e-003 1.78494602e-002 3.21607040e-005 -5.25315478e-002
      -5.30061219e-003 3.74871083e-002 8.09334293e-002 5.97246215e-002
      -2.84155961e-002 9.43667546e-004 -9.33369063e-003 -1.87560990e-002
      -3.48200202e-002 -1.78187471e-002 -2.25956421e-002 3.02018132e-002
      4.95762713e-002 -2.87423134e-002 8.23070854e-003 -1.20168570e-002
      -3.07836905e-002 3.19904042e-003 -3.22024748e-002 -4.63074334e-002
      -5.58923595e-002 1.64533593e-002 -2.07257755e-002 4.70462143e-002
      6.08227327e-002 2.75319926e-002 -5.44001088e-002 -3.18496721e-003
      -7.32180849e-002 -7.27721974e-002 -3.94700766e-002
      -6.29098415e-002 3.14552896e-002 2.13129129e-002 -1.42645501e-002
      -4.61362898e-002 3.91700119e-002 -5.81891881e-003 -8.66176281e-003
      -2.11650487e-002 -4.36900966e-002 1.53228333e-002 2.22671497e-005
      -1.42944241e-002 5.29850535e-002 3.64265069e-002 1.24010490e-002
      -4.20541428e-002 -1.16187938e-001 -1.71917509e-002 2.44726874e-002
      4.26267367e-003 1.84828769e-002 4.32257280e-002 8.31311792e-002
      1.28459930e-002 1.36280693e-002 1.74726769e-002 4.84248064e-002
      7.77240023e-002 8.88784081e-002 9.99897271e-002 -8.11007097e-002
      -2.68341489e-002 -3.75921987e-002 -1.66554842e-002 2.32369658e-002
      3.95878330e-002 8.41109529e-002 7.58479461e-002 -3.16543579e-002
      1.10694900e-001 -2.72271801e-002 -1.12669051e-001 -1.52278095e-001
      -8.57496783e-002 3.60997133e-002 6.11127988e-002 1.13653883e-001
      1.20818123e-001 -8.91371816e-002 -1.77184612e-001 -2.08967790e-001
      -2.29778558e-001 -6.99357912e-002 -3.03371679e-002 3.94412428e-002
      4.56628725e-002 -3.99230160e-002 -3.04274745e-002 4.04472137e-003
      1.63851250e-002 2.90292930e-002 7.88882449e-002 7.50831440e-002
      6.71873763e-002 1.65707036e-003 -2.55041327e-002 1.00438803e-001
      -6.41670916e-003 -1.01564445e-001 -3.32691893e-002 2.44931150e-002
      5.17243631e-002 4.42945138e-002 1.08297849e-002 1.01555370e-001
      -1.07787378e-001 -1.54579505e-001 -8.47053081e-002
      -2.45766845e-002 7.90988561e-003 -2.67473632e-003 -5.17876297e-002
      -9.24288481e-002 -1.08183406e-001 1.16360569e-002 -1.03374980e-001
      -1.39616013e-001 -3.43518294e-002 1.07632931e-002 -4.60622599e-003
      -6.10886551e-002 -8.38842690e-002 -3.47208139e-003 1.84499864e-002
      -1.99925989e-001 -2.40038097e-001 -1.30632296e-001
      -2.57222429e-002 2.54254695e-003 5.06042540e-002 3.40726338e-002
      1.19031280e-001 7.96718430e-003 -1.89369649e-001 -8.80374983e-002
      2.78210640e-002 1.02838166e-001 1.33089945e-001 4.74765748e-002
      6.17510565e-002 6.79019243e-002 2.98905447e-002 -2.08991513e-001
      -2.65292585e-001 -1.35318503e-001 2.83553358e-002 -3.94471735e-002
      -3.44242528e-002 -4.45404761e-002 6.91017732e-002 9.45665911e-002
      -1.07043386e-001 -5.16719669e-002 1.67023018e-002 1.50316969e-001
      6.59363791e-002 -2.95477845e-002 5.19170724e-002 1.54698968e-001
      -1.09955855e-001 -2.08728239e-001 -8.35694820e-002
      -2.19306466e-003 -2.23979144e-003 4.58662137e-002 -4.02817205e-002
      -4.21796069e-002 5.78672392e-003 -3.01127858e-003 -6.13797568e-002
      9.19978023e-002 6.36752471e-002 -6.00492756e-004 1.32475719e-002
      -9.90381278e-003 2.18685530e-002 5.03282696e-002 -6.86044022e-002
      -1.19539805e-001 -3.38080227e-002 5.40000610e-002 7.02092499e-002
      -6.59874815e-004 -7.29393065e-002 -4.44197580e-002 4.19273078e-002
      -8.43734946e-003 -7.98747502e-003 9.73769724e-002 1.00695692e-001
      8.43187645e-002 1.03257425e-001 5.63908815e-002 -1.22485589e-002
      4.55922112e-002 -1.84235908e-002 -1.14237487e-001 5.17263561e-002
      3.59684192e-002 9.36032552e-003 1.13776699e-002 -1.79892443e-002
      -9.98763833e-003 1.45460560e-003 -1.03984915e-001 -9.50232819e-002
      1.27671473e-002 4.99965213e-002 5.55959828e-002 4.83077206e-002
      -2.65272632e-002 -7.05964714e-002 -4.56103198e-002
      -4.44405749e-002 -1.03784077e-001 7.04408139e-002 4.14934009e-002
      4.74605970e-002 8.97882134e-002 5.34850210e-002 -4.88040186e-002
      2.60106213e-002 -1.56204114e-002 -1.46753015e-002 4.15716097e-002
      8.13529938e-002 4.70779315e-002 5.61594367e-002 -2.30169129e-002
      -7.81657025e-002 1.42072821e-002 -8.76286104e-002 -7.40048215e-002
      -8.18730798e-003 2.51240134e-002 3.72476280e-002 6.11424632e-003
      -1.86092425e-002 -2.94110738e-002 -5.26437946e-002
      -1.19579695e-001 -9.05709565e-002 -3.14472355e-002
      -5.44352364e-003 -1.33349653e-002 1.21240225e-003 2.76000388e-002
      -1.33148907e-002 -2.52151154e-002 9.77367535e-003 3.46635804e-002
      3.35758962e-002 3.47064324e-002 1.84047054e-002 -4.00087424e-002
      -7.39703886e-003 -1.79725327e-002 -2.48606298e-002 4.60619330e-002
      2.00446267e-002 3.17347385e-002 6.89806603e-003 -1.73606277e-002
      -2.17762031e-002 8.90891105e-002 2.72591095e-002 3.84677649e-002
      -4.35745753e-002 -6.61580786e-002 -6.42216876e-002
      -1.88810062e-002 -4.81424201e-003 -2.65328940e-002 3.60266790e-002
      -4.63006273e-002 -3.40862609e-002 -9.97216105e-002
      -7.97954500e-002 3.96345854e-002 6.33236170e-002 -2.60507595e-002
      -2.98736766e-002 -2.24080812e-002 -9.69002172e-002
      -6.59507215e-002 1.08060636e-001 -7.66744558e-003 5.50950132e-002
      1.36420196e-002 -6.40339078e-003 -5.52132446e-003 8.89345855e-002
      7.07153277e-003 1.14080280e-001 4.06620465e-002 -5.70944659e-002
      5.78562282e-002 9.48905870e-002 4.73884447e-003 5.21641690e-004
      6.70440421e-002 -1.74591467e-002 5.09222448e-002 -9.41459909e-002
      -1.14762589e-001 6.23936392e-002 9.03091282e-002 4.64793332e-002
      -2.79042441e-002 1.61218178e-002 -3.67389545e-002 -2.60511097e-002
      -4.91151027e-002 -6.49696440e-002 6.04512841e-002 7.12805837e-002
      1.84773467e-002 2.94224825e-002 2.28093639e-002 6.60451304e-004
      2.73564905e-002 -2.55894195e-002 -4.68684770e-002 6.06921688e-002
      1.40695021e-001 4.56480756e-002 9.64102056e-003 5.91545478e-002
      2.10830197e-002 8.78485758e-003 -3.68524566e-002 1.31836487e-002
      9.73305479e-002 7.84333199e-002 4.33099866e-002 4.26910333e-002
      8.28975588e-002 2.62080058e-002 5.82466251e-004 -2.73486953e-002
      -7.85139129e-002 5.17411567e-002 6.01084456e-002 4.65225317e-002
      3.49939428e-002 1.32348109e-002 -2.28113886e-002 -2.82139350e-002
      -1.87723041e-002 -3.78813669e-002 6.14349805e-002 4.95532788e-002
      -6.63188566e-003 4.50035632e-002 6.17721453e-002 3.82977468e-003
      -3.47295217e-002 -3.48035917e-002 1.87775344e-002 5.55125251e-002
      5.86407520e-002 4.37514111e-002 5.52696511e-002 9.28280577e-002
      -1.30624752e-002 -2.19844710e-002 -2.98659764e-002
      -2.81687118e-002 5.15489504e-002 9.82852206e-002 8.67318958e-002
      6.80920705e-002 1.11298211e-001 3.20937224e-002 8.83053429e-003
      2.13992465e-002 -6.98281154e-002 -1.56544168e-002 -6.16465637e-004
      -3.01596592e-003 2.70240828e-002 2.28863209e-002 -4.26514298e-002
      -1.73054766e-002 2.11845778e-004 -3.13524641e-002 -9.58684180e-003
      -7.12491432e-003 -6.30068127e-004 4.87505011e-002 4.24760580e-002
      2.02708691e-002 -2.54155211e-002 9.33633279e-003 -8.19975361e-002
      7.34749204e-003 5.79763986e-002 8.26249793e-002 8.38802978e-002
      4.07355763e-002 -3.52467597e-002 1.34422556e-002 -3.23955417e-002
      -5.72451092e-002 4.28731255e-002 5.28116822e-002 5.96247688e-002
      1.09908588e-001 7.86805153e-002 -6.22954732e-003 -3.97585407e-002
      9.12771095e-003 3.85286026e-002 -9.61241871e-003 1.94239542e-002
      6.04358278e-002 1.00742616e-001 9.61361751e-002 2.64743250e-002
      2.51742788e-002 -2.97608692e-002 2.97556981e-003 -5.43031879e-002
      1.02887442e-003 4.25748974e-002 5.26508801e-002 8.87930300e-003
      -5.17803431e-002 4.71295090e-003 -7.58053362e-002 -2.83347983e-002
      1.85763258e-002 2.47093644e-002 1.09192044e-001 8.98582488e-002
      8.03740621e-002 -9.70248505e-003 -7.46576190e-002 -1.65585130e-001
      -9.46232527e-002 -5.30315563e-002 -1.21986391e-002 7.80245587e-002
      7.96696767e-002 4.04366059e-003 -9.78723392e-002 -1.52691200e-001
      1.26967644e-002 -4.00542244e-002 -4.62724306e-002 -5.47964498e-002
      3.29685844e-002 -2.78331731e-002 -3.01036350e-002 -1.72625817e-002
      3.84475738e-002 2.98426710e-002 1.18606696e-002 1.10818185e-002
      3.05974740e-003 1.36941466e-002 -9.79466271e-003 -1.58529840e-002
      -4.25473824e-002 8.80786330e-002 -1.13564499e-001 -1.30605012e-001
      -7.63495490e-002 -9.75860953e-002 4.56583351e-002 8.96057871e-004
      -3.75122502e-002 -7.38271326e-002 -7.55721703e-002
      -2.41575744e-002 -3.39026265e-002 -8.97532981e-003
      -7.12449616e-003 -4.65507880e-002 -4.99631390e-002
      -4.39267717e-002 -6.28681034e-002 3.55477780e-002 -1.55066038e-002
      -1.88442580e-002 -3.90122645e-002 -6.23116456e-002
      -5.97146861e-002 -1.35508254e-001 -7.25813136e-002
      -5.74097820e-002 -4.18578684e-002 3.22692022e-002 2.26864703e-002
      4.36584726e-002 -1.87113637e-003 -1.90625470e-002 -1.42445927e-002
      2.79596094e-002 3.28563824e-002 4.14076485e-002 8.15612916e-003
      -3.43248583e-002 -8.42001364e-002 -7.59067386e-002
      -8.95192847e-002 -1.11556754e-001 -3.72028612e-002
      -8.30638856e-002 -3.55028734e-002 4.37402129e-002 5.99185079e-002
      4.46583405e-002 4.90516499e-002 -2.43109185e-002 -4.07588854e-003
      6.86812773e-002 4.29040119e-002 5.57666607e-002 -7.85593316e-003
      -1.26421172e-002 3.10802404e-002 -3.94504145e-002 -1.73342619e-002
      -2.80467030e-002 1.41648678e-002 -3.40901688e-003 1.32892095e-002
      1.56256314e-002 -1.48200299e-004 1.22698611e-002 -4.08091657e-002
      3.36121838e-003 4.56042364e-002 1.59397405e-002 4.72688302e-003
      4.33571115e-002 -5.62593155e-003 3.45992073e-002 3.14668231e-002
      2.52094641e-002 -1.63240209e-002 -7.78426975e-002 -6.99695572e-002
      -2.21900288e-002 4.98059988e-002 -4.56945188e-002 1.42161222e-002
      -3.51027362e-002 -1.08432118e-002 2.54790653e-002 -8.94797500e-003
      -9.45814028e-002 -5.76856099e-002 3.90021615e-002 2.40140352e-002
      7.77551066e-003 2.87083946e-002 3.32590006e-002 3.47810946e-002
      6.64599091e-002 -8.26873758e-004 3.78890596e-002 4.69259210e-002
      1.51760597e-002 2.77713332e-002 2.84201149e-002 -1.72393471e-002
      -1.90838694e-003 3.54303084e-002 -1.32007664e-002 3.87562392e-003
      3.59657109e-002 -3.71440090e-002 -2.70903241e-002 -4.58911024e-002
      -5.27247740e-003 3.96551043e-002 1.45115787e-002 -2.95315273e-002
      -1.90887544e-002 -2.06942670e-002 -2.77717970e-002
      -4.51240875e-002 -3.00964843e-002 -8.11595768e-002
      -1.44485692e-002 -2.48245429e-002 -1.32488869e-002 7.42718158e-003
      -6.61258921e-002 4.54105996e-002 4.87723053e-002 1.06684621e-002
      -4.79843281e-002 2.90630013e-002 1.18518928e-002 -8.39385670e-003
      -6.65463333e-004 2.82364283e-002 -2.86357459e-002 5.61515316e-002
      5.65686002e-002 -1.68881025e-002 5.85917346e-002 5.71909584e-002
      5.38476706e-002 3.19865197e-002 -6.19203411e-002 -9.87097248e-003
      -2.48131361e-002 -8.88532121e-003 -3.87453102e-002 2.74084061e-002
      -1.92061868e-002 -2.37287413e-002 -4.58631478e-003
      -4.48329896e-002 -4.18053083e-002 1.48560368e-002 1.55832702e-002
      -1.23266922e-002 6.97495043e-002 3.22389230e-002 2.10635047e-002
      1.49995200e-002 -8.26063827e-002 -1.75036974e-002 2.45545115e-002
      1.83899812e-002 -3.45586031e-003 4.29777652e-002 -4.26937342e-002
      2.28797626e-002 2.53129341e-002 -1.42626725e-002 -9.38420370e-003
      7.05706403e-002 1.47473253e-002 1.73333250e-002 9.39721521e-003
      -5.76510839e-002 4.19191793e-002 5.49749210e-002 2.99385190e-002
      -2.80155223e-002 1.66913345e-002 3.53594609e-002 -2.91705746e-002
      5.09241447e-002 -7.46706650e-002 7.09588900e-002 4.42103408e-002
      -2.57689953e-002 -2.96432152e-002 4.36084792e-002 1.61610898e-002
      -3.88609804e-002 -2.39511239e-004 -4.43938300e-002 6.52659759e-002
      8.67679417e-002 1.68562494e-002 2.78716311e-002 3.76480408e-002
      -2.06282586e-002 -1.22367069e-002 5.04035875e-002 -4.46393229e-002
      1.66565906e-002 5.04121929e-002 2.15102211e-002 -1.17175737e-002
      7.85097852e-002 -9.21264663e-003 -2.64867526e-002 3.17077488e-002
      -3.44150960e-002 1.98180489e-002 4.46275435e-002 -5.74499406e-002
      -3.67041752e-002 3.67979333e-002 -6.15216279e-003 -6.12160787e-002
      3.95812429e-002 -4.48321402e-002 1.65111553e-002 5.24095520e-002
      1.03617110e-003 -4.38359454e-002 8.98294449e-002 3.64064090e-002
      -1.75136011e-002 2.81434506e-002 -5.47368545e-003 6.03963295e-003
      2.72277780e-002 -2.14849021e-002 -7.53016248e-002 1.00877285e-001
      4.51123826e-002 1.35517737e-004 -3.98656540e-002 -6.20677322e-003
      4.39833924e-002 4.12244983e-002 -7.98277855e-002 -1.05080912e-002
      7.46314302e-002 3.02405730e-002 -5.39894253e-002 -8.83407742e-002
      -1.44679341e-002 3.50320265e-002 1.51752960e-002 -3.27572115e-002
      -9.94944945e-002 4.83758785e-002 3.43278758e-002 8.44694488e-003
      -1.76284872e-002 6.03985935e-002 4.49289754e-002 5.33951297e-002
      -8.37997049e-002 -8.27773288e-002 1.10077802e-002 9.27168585e-004
      -2.93633435e-002 -8.61825943e-002 -3.30194719e-002 8.20936114e-002
      1.10796995e-001 -2.27253605e-002 1.28225088e-001 3.77094373e-002
      -2.61905901e-002 -8.40482861e-002 -6.19472489e-002 9.71229933e-003
      9.28796083e-002 1.02068067e-001 1.25388741e-001 -5.32147363e-002
      -1.57264560e-001 -1.58495754e-001 -1.87145784e-001
      -5.29286526e-002 -1.08135991e-001 -2.15124302e-002
      -1.39861451e-002 1.22656645e-002 1.12814106e-001 7.53890947e-002
      4.16435748e-002 2.67992914e-002 -3.70534472e-002 -1.04372934e-001
      6.47805817e-003 1.10776491e-001 1.04129061e-001 -2.11631097e-002
      3.57634202e-003 -4.39306721e-002 -1.04139537e-001 -4.65215407e-002
      -2.00732961e-001 -1.75561234e-001 -1.38549149e-001
      -4.92015332e-002 -7.22600892e-002 -1.34385273e-001
      -9.57294554e-002 -5.59054352e-002 4.34026830e-002 -3.45109776e-002
      -7.67399073e-002 -6.60282448e-002 -2.64542308e-002 4.02670801e-002
      -4.55327109e-002 -1.37599066e-001 -2.66084727e-002 4.41534817e-003
      -3.88514549e-002 -1.27192616e-001 -7.01651797e-002 2.42849533e-002
      -4.13834415e-002 -4.90315780e-002 -8.96940082e-002
      -1.94718614e-002 4.86719199e-002 -3.94621752e-002 -9.89447460e-002
      -1.29267648e-001 -1.91909745e-002 5.38066477e-002 -5.18670492e-002
      -1.31595522e-001 -4.40896936e-002 1.04237841e-002 -3.54234152e-003
      -1.43110961e-001 -4.64630313e-002 7.24698454e-002 6.66119158e-002
      -1.31727621e-001 -2.12825254e-001 -1.70487270e-001
      -3.27883661e-002 -1.55456454e-001 -1.48948878e-001
      -5.99796958e-002 6.43898845e-002 1.75234765e-001 2.78432446e-004
      -1.22375758e-002 -6.54814159e-003 9.91552174e-002 1.99330542e-002
      -4.03306112e-002 1.21349795e-002 1.65006831e-001 7.02044219e-002
      -5.79663627e-002 -1.26015633e-001 -1.02770403e-001
      -2.21126545e-002 -2.09793806e-001 -2.40053967e-001
      -1.52167797e-001 8.00836235e-002 2.00983092e-001 6.57030717e-002
      1.61766373e-002 7.91788697e-002 1.26762852e-001 4.38615456e-002
      -2.07676850e-002 -5.89139434e-003 2.05697462e-001 2.60830186e-002
      -1.07988477e-001 -4.07599658e-002 -1.78730600e-002 4.68940586e-002
      -4.11697924e-002 -8.55440721e-002 -6.22093454e-002 3.82519513e-002
      3.35053541e-002 -1.11789312e-002 4.57642898e-002 9.13267583e-002
      8.50296021e-002 6.21758774e-002 5.20847254e-002 -7.31579168e-003
      2.79170219e-002 8.13108534e-002 -5.16034104e-002 -9.71419588e-002
      -4.61020134e-002 4.33370546e-002 4.71527427e-002 1.03852749e-002
      -7.32308477e-002 9.70121995e-002 6.86824471e-002 -1.50396759e-002
      -5.54946586e-002 4.85377908e-002 8.66463110e-002 8.63482952e-002
      9.89863276e-002 1.31133255e-002 1.17507204e-001 -4.43632761e-003
      -1.42111927e-002 -1.88047122e-002 5.07768877e-002 1.75137483e-002
      -1.31560238e-002 3.15714255e-002 -4.47018631e-002 -3.14114131e-002
      4.46759351e-002 5.33856750e-002 -2.23523118e-002 -1.54094389e-002
      4.54627152e-004 -1.09253712e-002 -4.79310229e-002 -4.76943702e-002
      -1.94759872e-002 -4.06698510e-003 -2.32019145e-002
      -3.34620774e-002 5.29820658e-002 3.41156460e-002 3.15440036e-002
      1.53480433e-002 -7.04564760e-003 3.09791081e-002 1.07412124e-002
      -8.19722377e-003 -4.06310223e-002 2.26632468e-002 1.10580707e-002
      2.21212264e-002 -3.47397327e-002 -3.79788131e-002 -9.13991872e-003
      5.47297187e-002 3.73205729e-002 -1.59657225e-002 -2.66640559e-002
      -3.91534567e-002 -7.75238648e-002 -4.96479832e-002
      -1.01854596e-002 3.61558087e-002 4.84199189e-002 4.62896004e-002
      5.51475622e-002 -5.37976716e-003 -2.81049293e-002 -6.95521683e-002
      7.78535102e-003 1.83780231e-002 7.78432563e-002 2.30733026e-002
      9.55150835e-003 -5.40921502e-002 -3.67150716e-002 -1.63852107e-002
      -3.04845367e-002 -2.51727737e-002 1.73867960e-002 9.73954871e-002
      4.02427129e-002 5.53297512e-002 3.47589552e-002 -6.70434684e-002
      -1.32275978e-002 5.61705849e-004 3.89564037e-002 5.54337949e-002
      1.14083946e-001 1.14996366e-001 2.54223049e-002 3.69332880e-002
      -4.39368635e-002 -6.08863086e-002 -8.74715447e-002 5.85013442e-003
      -1.53570073e-002 8.77420753e-002 4.57092263e-002 -2.19406206e-002
      2.10134741e-002 -5.42804599e-002 -1.07337832e-001 -7.02867582e-002
      -2.39795279e-002 -2.86348909e-002 8.60673189e-002 7.61953294e-002
      1.33948876e-002 1.26560405e-002 -8.26728046e-002 -3.84205729e-002
      4.16315440e-003 1.52059915e-002 5.38919913e-003 1.19997934e-001
      8.60828012e-002 6.12910688e-002 2.19421871e-002 -3.07375323e-002
      -7.16315806e-002 -2.74345204e-002 -1.53383687e-002
      -4.44330722e-002 6.28968626e-002 -1.57166563e-004 -4.14660648e-002
      -1.52893579e-002 5.25479205e-002 2.30478980e-002 3.10992748e-002
      2.10134517e-002 -3.12458705e-002 2.67417114e-002 -3.03910878e-002
      -4.94754612e-002 -1.60298706e-003 2.38252934e-002 -1.52011751e-003
      2.50385739e-002 2.45421547e-002 -2.08504349e-002 -1.20292921e-002
      5.80141917e-002 2.25646906e-002 1.24663077e-002 1.54320272e-002
      -6.26692141e-004 1.00607939e-001 -1.69559121e-002 -5.34456000e-002
      8.04031175e-003 2.49709859e-002 -8.68694019e-003 -2.21898742e-002
      1.50891906e-002 -2.83277687e-003 5.90416752e-002 5.13650551e-002
      -7.14633474e-003 2.64259037e-002 -1.57831702e-002 -4.12929356e-002
      -1.43181300e-002 1.55175598e-002 5.32425120e-002 1.92434341e-002
      6.15820289e-002 -5.04180975e-002 -1.61923859e-002 -4.25151736e-002
      -1.22774072e-001 -5.97467944e-002 4.71418276e-002 9.72961858e-002
      3.61046270e-002 4.62436303e-002 -5.36865517e-002 -1.14161804e-001
      3.38380598e-002 -4.64517139e-002 2.12887730e-002 4.57685664e-002
      3.78720239e-002 6.14275858e-002 4.19146866e-002 -3.58495899e-002
      -7.88130704e-003 -5.36442026e-002 -6.17658161e-002 6.03910387e-002
      4.96295318e-002 9.36823860e-002 8.05880278e-002 -4.32941644e-003
      -1.07772596e-001 -7.77025297e-002 -1.01636825e-002
      -1.02436721e-001 1.62630714e-002 5.20471409e-002 6.15494996e-002
      5.66025861e-002 4.12508249e-002 -7.64022470e-002 -5.70568480e-002
      -5.21370955e-002 -7.66637325e-002 4.43855152e-002 4.79339845e-002
      5.90165667e-002 2.75964346e-002 4.36948873e-002 -7.55113289e-002
      -2.43781116e-002 -1.55547718e-002 -4.61239666e-002 9.83012468e-002
      5.55356406e-002 9.79546234e-002 6.95229247e-002 5.38859107e-002
      -1.03781350e-001 -1.38462568e-002 5.72011713e-003 -4.95508499e-002
      6.19632229e-002 5.23809940e-002 4.67050597e-002 5.02553545e-002
      3.30900140e-002 -1.10462263e-001 -5.84482476e-002 -1.17720030e-002
      -4.81288694e-003 4.63935100e-002 5.56708463e-002 6.91917539e-002
      3.75756882e-002 7.28835315e-002 2.57138330e-002 -3.20590585e-002
      -1.06898770e-001 -5.89793697e-002 -3.97418663e-002 8.48121243e-004
      8.77485648e-002 3.29759642e-002 6.96254987e-003 -3.85708846e-002
      -1.22271121e-001 3.65735218e-002 4.43289876e-002 9.35264528e-002
      6.74714595e-002 7.57772774e-002 8.82742256e-002 3.70863043e-002
      -1.12996381e-002 4.82485257e-002 -4.71859351e-002 -5.12558185e-002
      1.10007133e-002 1.28927184e-002 8.80474001e-002 1.36705963e-002
      2.44261771e-002 -3.65514085e-002 -5.58150038e-002 -8.92021134e-002
      -6.91188201e-002 -3.59789468e-002 -4.68794368e-002 6.99853376e-002
      -3.44425328e-002 -2.57075932e-002 -4.08120193e-002
      -9.51116234e-002 3.97845656e-002 -1.62232257e-002 1.58069702e-003
      -1.82219837e-002 -3.86718400e-002 8.25903565e-003 -2.26860233e-002
      -2.27882396e-002 4.77531813e-002 -7.67429695e-002 -8.34430009e-002
      -5.66248260e-002 -4.38772067e-002 8.39604139e-002 -4.89439666e-002
      1.22562116e-002 -2.34960988e-002 -6.04663044e-002 4.38289680e-002
      6.49219332e-003 -5.37372716e-002 -1.79392155e-002 -4.66068611e-002
      3.73607315e-002 4.26956303e-002 1.99260321e-002 5.40481955e-002
      -4.18169191e-003 -1.91676822e-002 -9.98231322e-002
      -1.47404090e-001 -1.37842730e-001 -8.51801559e-002
      -5.50783947e-002 -3.79583724e-002 3.78176458e-002 1.05255164e-001
      1.03980117e-001 -2.33599562e-002 -1.76826976e-002 -4.95096408e-002
      -3.52293402e-002 -3.24662179e-002 7.81422779e-002 9.83062461e-002
      -5.10342326e-003 -4.29778993e-002 -1.14878662e-001
      -1.40532985e-001 -1.42273694e-001 -1.11308768e-001
      -8.01141486e-002 -2.38528866e-002 9.20231640e-003 1.09040990e-001
      7.05749094e-002 -2.06122715e-002 -4.34752069e-002 -4.49905880e-002
      1.49828820e-002 3.19920853e-002 8.50210041e-002 1.24925442e-001
      2.37467978e-002 7.04803467e-002 -1.05602453e-002 4.37232852e-002
      -5.69857657e-002 -8.75482559e-002 -1.13044061e-001 5.42228343e-003
      1.05542503e-002 -5.25528612e-003 2.03818027e-002 -3.18020284e-002
      2.30845362e-002 -2.57818196e-002 -3.98575887e-002 -5.38122319e-002
      -4.22963202e-002 8.22831783e-003 -1.18815647e-002 1.24931782e-002
      -7.48924837e-002 -7.55693123e-004 -5.07536530e-002
      -7.05050491e-003 -3.40834586e-003 3.00593134e-002 2.97305291e-003
      -1.01412870e-002 -6.34799898e-002 -6.87150881e-002 3.38800177e-002
      -1.36348289e-002 -1.73952710e-003 -1.24797188e-002 8.18709843e-003
      -2.25569215e-003 1.26780784e-002 -2.55257022e-002 -5.11226207e-002
      -8.89392663e-003 4.20009010e-002 9.67932399e-003 2.27870680e-002
      3.08536440e-002 2.87001822e-002 2.27211480e-004 2.97367922e-003
      -3.45511250e-002 -5.36126494e-002 -1.95633881e-002
      -6.13127165e-002 3.01198475e-003 5.13732582e-002 -3.86432111e-002
      -5.42087189e-004 -4.37427610e-002 -3.66315469e-002 1.44757554e-002
      3.78203988e-002 4.24598856e-003 -1.56641472e-002 1.27985869e-002
      2.90107951e-002 -7.12631969e-003 4.84674647e-002 1.94968644e-003
      -3.12241688e-002 -5.78993699e-003 -5.65175824e-002
      -3.13592702e-002 4.26563285e-002 3.77372056e-002 -2.97064893e-002
      1.38421189e-002 -1.58012584e-002 -2.89270352e-003 2.31913123e-002
      -5.37500642e-002 -3.29744187e-003 1.49023710e-002 -3.21943350e-002
      -5.19553572e-002 4.07488532e-002 -1.27314907e-002 1.56674627e-002
      7.24894106e-002 -7.06608035e-003 -5.15272245e-002 1.40346726e-002
      -2.05549877e-002 -9.88939032e-003 8.10473561e-002 -2.14784257e-002
      -4.37007807e-002 8.01412612e-002 3.42530780e-003 -1.32790511e-003
      3.49189378e-002 1.78749338e-002 -5.73053248e-002 4.50767241e-002
      7.13629881e-003 2.89108139e-002 6.97545260e-002 -3.43518215e-003
      -3.01149506e-002 5.45647927e-002 -1.38750244e-002 -2.36509163e-002
      -1.03443405e-002 6.01678097e-004 -5.52557856e-002 -6.40963763e-002
      -9.06866193e-002 5.79501539e-002 -1.98054221e-003 -3.02610407e-003
      -8.01647380e-002 -2.55701989e-002 1.87959988e-002 -2.62577347e-002
      -7.55043477e-002 -3.25476490e-002 5.68728521e-002 4.33811508e-002
      -2.29729731e-002 1.54277068e-002 -1.19548673e-002 -3.42385359e-002
      -7.57106617e-002 -2.65023541e-002 -6.54063746e-002
      -3.11502609e-002 -8.19610991e-003 2.26551909e-002 -4.05210853e-002
      4.96630929e-003 1.20165218e-002 -4.03725542e-002 -3.55439186e-002
      -4.54007508e-003 -3.46386549e-003 4.16159667e-002 9.89131350e-003
      -1.07494071e-001 -1.62916090e-002 1.52756972e-002 -2.86187474e-002
      6.49472773e-002 4.48677596e-003 -1.12470705e-002 1.61554534e-002
      -5.79112396e-002 -7.24163502e-002 4.51043285e-002 1.43048037e-002
      7.85760488e-003 4.61348072e-002 8.10293015e-003 -5.46601005e-002
      -2.60288850e-003 -8.34408309e-003 -6.38903528e-002 3.91907319e-002
      2.62029450e-002 -6.60750568e-002 -8.72455630e-003 -2.58215088e-002
      -4.61344793e-002 2.87771448e-002 -1.26837194e-002 -2.81573161e-002
      6.17347956e-002 2.37924494e-002 -5.66706657e-002 -2.82143392e-002
      -1.92465598e-003 -4.86217253e-002 2.56575644e-002 -1.51275527e-002
      -6.32029027e-002 2.95775644e-002 -1.19362362e-002 -1.58965737e-002
      -2.37200353e-002 3.87870446e-002 -5.22466749e-003 8.04266855e-002
      -9.93116945e-003 -2.53222119e-002 1.20768463e-002 -2.35307757e-002
      -2.89072879e-002 -9.77873877e-002 -2.95946170e-002 1.96541529e-002
      8.94698426e-002 4.01212759e-002 -7.89323077e-003 4.81133312e-002
      8.57237726e-003 -1.99655388e-002 -1.85709028e-003 -2.51701241e-003
      -2.48913700e-003 8.71095583e-002 4.99556065e-002 1.82467571e-003
      2.85655670e-002 -1.67314503e-002 -6.18995950e-002 -9.80365202e-002
      -6.23197407e-002 -7.47773722e-002 4.37600464e-002 1.85171273e-002
      8.50899667e-002 1.07097305e-001 7.38211498e-002 3.69853154e-002
      -4.60299365e-002 -1.58486336e-001 -1.19231269e-001
      -1.63004249e-002 5.29626906e-002 -9.75817293e-002 6.04943745e-002
      7.16414601e-002 -9.81371943e-003 -2.78954692e-002 -2.13245258e-001
      -2.12639123e-001 -2.11406946e-001 -1.52714610e-001 1.20086990e-001
      1.05399817e-001 1.01601563e-001 3.69621888e-002 1.14519456e-002
      -5.22341579e-002 -3.43193784e-002 4.24857438e-002 3.60547230e-002
      -2.89474018e-002 5.44510297e-002 8.92601237e-002 2.39581745e-002
      -4.03957954e-003 -5.73694333e-002 -4.45045494e-002
      -3.87700796e-002 -6.45813271e-002 -1.37501091e-001
      -5.72456904e-002 -3.68118025e-002 5.72773977e-004 6.10186569e-002
      -3.50220166e-002 -7.72825852e-002 -1.68504611e-001
      -1.15593605e-001 -4.99252342e-002 -1.05866194e-001
      -9.67963040e-002 1.56404183e-003 5.47509082e-002 -3.47872041e-002
      -1.14106588e-001 -8.94181281e-002 6.47957576e-003 -3.63075733e-002
      -1.29315874e-003 3.62286083e-002 6.25816435e-002 6.94198310e-002
      -9.91017558e-003 5.15267393e-003 3.92898507e-002 -2.88066417e-002
      5.68617247e-002 1.11505203e-002 3.90625261e-002 5.62778190e-002
      2.62829289e-002 -1.18963625e-002 -9.77977663e-002 -2.02774648e-002
      9.56670791e-002 6.61559105e-002 -2.76727732e-002 -1.27025871e-002
      -2.63993125e-002 2.94551570e-002 -1.31968483e-001 -2.14965045e-001
      -2.16085941e-001 2.00258568e-002 1.46372885e-001 4.94882390e-002
      8.37422013e-002 7.95241073e-002 1.59288272e-001 8.40167403e-002
      -6.63402006e-002 -1.58538878e-001 5.30052520e-002 1.10799372e-001
      2.81507298e-002 1.16556576e-002 -7.83099607e-003 -5.29477298e-002
      -1.28025323e-001 -2.44955689e-001 -1.99898288e-001 5.38517088e-002
      8.11489448e-002 7.62689859e-002 8.73064622e-002 4.86426689e-002
      9.25975144e-002 3.45200375e-002 -9.14464295e-002 -1.53893635e-001
      2.57076658e-002 7.08903000e-002 -3.59314010e-002 -4.29311513e-005
      1.73216518e-002 1.14850082e-001 1.00691848e-001 -3.40460464e-002
      -1.42451689e-001 -3.78723852e-002 6.59297481e-002 -4.15650085e-002
      2.58229617e-002 6.85207248e-002 9.49386731e-002 1.06822751e-001
      1.02869786e-001 -1.87953766e-002 3.28077450e-002 -1.44996326e-002
      -4.55488972e-002 -9.88797750e-003 3.06624807e-002 1.74725335e-002
      3.01066544e-002 -4.94282134e-002 -1.19556330e-001 -2.28934214e-002
      1.14366300e-002 2.16466933e-002 8.45541595e-004 8.18528887e-003
      2.19891500e-002 4.19413596e-002 7.35428631e-002 -5.97501583e-002
      -4.33912165e-002 3.08061577e-002 -6.29417896e-002 6.38119206e-002
      1.04651213e-001 7.31946751e-002 6.09466247e-002 7.59107172e-002
      -8.93121287e-002 1.42197078e-003 2.50038877e-002 -2.21884344e-002
      1.86646506e-002 6.14278801e-002 8.18331838e-002 1.21338464e-001
      2.18511801e-002 -2.63634585e-002 -9.18906834e-003 -1.51537433e-002
      -8.52819011e-002 2.10575620e-003 -6.58969209e-003 1.00446288e-002
      3.34274545e-002 2.30171923e-002 -1.38215646e-001 -5.65476790e-002
      -4.53976579e-002 -4.53270152e-002 -4.06361325e-003 8.73123948e-003
      2.29091253e-002 7.18151778e-002 -2.67118178e-002 -8.67154449e-002
      -6.17200732e-002 -1.19555946e-002 4.09362983e-004 -2.61960402e-002
      -2.90565863e-002 7.89979547e-002 8.44977051e-002 2.03721244e-002
      4.40641707e-005 1.42652402e-002 2.46289745e-002 -1.15387486e-002
      4.26755436e-002 7.58766895e-003 7.21522272e-002 7.91287348e-002
      5.14518954e-002 3.70424390e-002 6.08204715e-002 -1.01095416e-001
      -3.80754285e-002 -2.77555548e-002 1.62407458e-002 3.53958495e-002
      8.66243616e-002 -1.84134636e-002 -6.94674030e-002 -5.83561920e-002
      -5.46371825e-002 -2.75215879e-002 1.57620071e-003 4.12883535e-002
      3.55281122e-002 6.70770779e-002 -9.83759947e-003 -9.91124064e-002
      -1.26007602e-001 8.60764459e-002 -2.23862771e-002 2.68698540e-002
      -2.12636795e-002 1.98874213e-002 3.78953554e-002 2.57059820e-002
      4.15283861e-003 8.67191404e-002 5.26628569e-002 3.78628522e-002
      5.55778556e-002 2.78244726e-002 6.52123541e-002 1.21226683e-001
      5.14440536e-002 -7.46130594e-004 4.91405874e-002 -7.84754083e-002
      -7.13658184e-002 -5.44077950e-003 1.04473066e-002 4.38816845e-003
      4.41731997e-002 -5.31379394e-002 -1.09139711e-001 -1.31366879e-001
      -6.40086979e-002 -1.92641485e-002 -1.01111419e-002
      -2.94336174e-002 -2.82543506e-002 7.88436085e-002 1.85553823e-002
      -6.54243305e-002 -1.57256007e-001 -4.04728064e-003 3.00621968e-002
      7.11704940e-002 3.22298519e-002 8.97239074e-002 1.36716783e-001
      3.32463384e-002 -4.90851924e-002 -3.03525068e-002 -2.16880883e-003
      -2.82224994e-002 7.07508922e-002 1.27533847e-003 4.17409185e-003
      7.39437267e-002 7.66412318e-002 9.27502289e-003 5.37169445e-003
      -5.44542149e-002 1.35380905e-002 1.42809767e-002 -1.39473407e-002
      2.38155629e-002 8.85784775e-002 8.49520862e-002 -4.53870557e-002
      -1.18252032e-001 -2.72555295e-002 -2.69957446e-002 3.61329988e-002
      1.99581049e-002 -2.44421493e-002 6.22156858e-002 1.05304144e-001
      -8.01677257e-003 -8.57355073e-002 -7.21494900e-004
      -4.40065525e-002 7.66427889e-002 4.68960106e-002 3.80692780e-002
      5.38527593e-002 5.04184961e-002 -2.16979533e-002 -3.55098322e-002
      1.45976208e-002 5.05290180e-003 1.72865927e-001 1.21851385e-001
      1.21796742e-001 9.24994051e-002 5.85485511e-002 -7.89264441e-002
      -7.26194531e-002 -3.53054777e-002 2.36055255e-002 2.56363265e-002
      2.60650665e-002 1.53302876e-002 4.30001654e-002 6.97202832e-002
      -5.96886910e-002 -4.39668261e-002 -9.36332196e-002 3.04597635e-002
      1.02834940e-001 1.11909159e-001 2.96343267e-002 7.15451837e-002
      8.25738311e-002 -7.24930242e-002 -4.70382385e-002 2.72880085e-002
      -3.68370041e-002 1.05351791e-001 7.75076598e-002 1.06467590e-001
      9.41398963e-002 7.22291097e-002 -8.25376585e-002 -2.93847080e-002
      -5.38685471e-002 -3.37599106e-002 4.11978848e-002 4.10751365e-002
      1.62978750e-002 4.24740538e-002 4.97485511e-002 -3.70477140e-002
      -3.59760001e-002 -5.61638400e-002 -1.88033842e-002 6.75122291e-002
      5.41181192e-002 1.02604860e-002 3.78044993e-002 5.43863587e-002
      -6.67751729e-002 -4.78211381e-002 -6.83984160e-003 2.82106269e-002
      4.47151847e-002 1.26282712e-002 -4.81203049e-002 -4.32910630e-003
      6.16859570e-002 2.30606329e-002 -1.79625954e-002 -2.33455226e-002
      -3.40849087e-002 3.92564461e-002 4.47223894e-002 7.96496123e-002
      3.61566506e-002 2.85953917e-002 -2.55871937e-002 -4.20213863e-002
      -9.56283808e-002 -8.61885622e-002 1.86538510e-002 1.86226033e-002
      2.69507337e-002 -3.36513706e-002 -3.93547863e-002 -7.02462271e-002
      -8.50298032e-002 6.64473698e-002 4.11594324e-002 4.79969494e-002
      5.77629693e-002 6.49857521e-002 4.35099341e-002 4.82777655e-002
      4.60341126e-002 2.89374348e-002 3.38178575e-002 -3.95804085e-002
      3.17290076e-003 8.20006281e-002 6.28954396e-002 -1.50602628e-002
      -2.30596308e-002 2.94784550e-002 1.07907113e-002 -9.47959200e-002
      -1.26351371e-001 -7.27835521e-002 -4.90481928e-002 4.15966585e-002
      -8.02840963e-002 -8.88758600e-002 -9.74613652e-002
      -8.61968175e-002 2.85446346e-002 -9.63291153e-003 -7.33658150e-002
      -3.22864205e-002 -3.27166505e-002 -4.85760998e-003
      -3.52143012e-002 -3.76120284e-002 1.52830295e-002 2.61040684e-002
      -4.80700508e-002 1.19626801e-002 -3.12877707e-002 7.54120275e-002
      -3.28114741e-002 -6.44427091e-002 -1.90852508e-002 1.89161636e-002
      1.00097269e-001 -2.81436183e-003 1.85958855e-002 2.42856666e-002
      1.31898653e-002 1.25789018e-002 1.96372792e-002 1.87519416e-002
      9.58677530e-002 -1.29490392e-002 -3.01423203e-003 -8.63239095e-002
      -1.22235462e-001 -1.34614334e-001 -1.37060851e-001
      -1.05835445e-001 -5.97434081e-002 -4.07568645e-003 1.19781457e-001
      3.32829691e-002 1.41929016e-002 -3.49427424e-002 -3.32650729e-002
      1.29741877e-002 4.98616770e-002 1.25034461e-002 8.46128389e-002
      6.35752035e-003 -2.14637276e-002 -7.91661516e-002 -8.18106234e-002
      -7.24704489e-002 -5.59129417e-002 -2.32202429e-002
      -2.58745011e-002 3.55746113e-002 7.94922784e-002 1.23008350e-002
      -6.97633764e-003 -3.90595943e-003 -3.21720950e-002 4.95959781e-002
      7.87569135e-002 6.58112690e-002 8.61879587e-002 3.01837157e-002
      -7.44122565e-002 -8.19630623e-002 -9.04654264e-002 1.13431516e-003
      2.87194308e-002 1.22996466e-002 -1.51967595e-003 3.24264839e-002
      9.47992783e-003 -9.11973566e-002 -1.06004015e-001 -2.12674197e-002
      4.00298499e-002 -3.62892225e-002 -5.40862344e-002 4.50739898e-002
      -4.33492445e-004 -3.12415347e-003 -5.46969958e-002
      -3.47227976e-002 -4.03896123e-002 -1.69638239e-004 2.00444013e-002
      3.29846255e-002 -1.09273801e-002 2.27860361e-002 -4.91717365e-003
      -1.70937609e-002 -3.97343785e-002 2.28412002e-002 4.97740060e-002
      -6.50158152e-002 -3.61154936e-002 8.42811447e-003 1.59341171e-002
      -3.75181735e-002 -3.91933993e-002 -3.90983447e-002
      -1.91150010e-002 5.64539395e-002 -3.93978730e-002 -8.36037397e-002
      -3.11996751e-002 -2.55030058e-002 -3.78619647e-003 2.32317066e-003
      4.19560674e-004 -4.52550426e-002 3.65136703e-003 -1.05246045e-001
      -8.17349330e-002 -3.95259298e-002 3.00540533e-002 -1.51531976e-002
      2.94132866e-002 1.11416690e-002 1.48515413e-002 6.04725145e-002
      -4.20675315e-002 -5.21438904e-002 -3.63992676e-002 1.43789481e-002
      5.85584231e-002 3.89454253e-002 -2.08516791e-003 -1.49584739e-002
      2.40707844e-002 -3.19833793e-002 -3.03204153e-002 -2.91554779e-002
      3.19687612e-002 6.27532555e-003 1.74298405e-003 -5.07273339e-002
      -7.67607167e-002 2.83608045e-002 4.13855165e-002 -2.35886835e-002
      -1.20218555e-002 3.42007801e-002 -5.59821352e-002 -2.97827870e-002
      2.17543468e-002 5.39008901e-003 5.47433421e-002 1.50664290e-002
      2.03126390e-002 4.21949141e-002 -2.01279670e-003 4.82068807e-002
      6.95670210e-003 -2.26905500e-003 2.60382472e-003 1.35953375e-003
      -2.03830339e-002 -2.96972208e-002 -9.01663117e-003 4.80896905e-002
      -6.35394603e-002 2.35286634e-003 2.12511588e-002 2.27812137e-002
      2.43182462e-002 6.42257789e-003 4.02273275e-002 -8.63258168e-003
      -2.10582390e-002 -3.67690325e-002 -1.67098511e-002
      -7.15774251e-004 -6.32835031e-002 -1.95391625e-002
      -3.91511656e-002 -1.53049016e-002 -1.14782983e-002
      -4.09364849e-002 -4.16803248e-002 -1.75577179e-002 3.35251950e-002
      -2.68237311e-002 -4.65425886e-002 -1.91620495e-002 1.44699840e-002
      3.85489576e-002 6.64067396e-004 -5.37542216e-002 2.59784237e-002
      2.97231562e-002 -8.65071267e-002 -4.02526334e-002 -4.50688042e-002
      3.27860308e-003 9.13597178e-003 -9.27020535e-002 -1.51436403e-002
      9.90633201e-003 1.48838935e-002 -5.63570932e-002 -5.78579232e-002
      -7.34251514e-002 4.40502103e-004 7.53957033e-002 -8.90622661e-003
      -2.65197009e-002 3.20486433e-004 4.26836610e-002 -2.85749529e-002
      -5.64588234e-003 -1.91619825e-002 -1.64890736e-002 3.93694416e-002
      8.70693568e-003 -5.04386462e-002 3.79940420e-002 5.39425910e-002
      -3.54289934e-002 -4.76844423e-002 7.41178310e-003 -1.13780443e-002
      3.90932634e-002 -3.72339338e-002 2.37593781e-002 -1.74746960e-002
      2.17560045e-002 -5.99557906e-002 -3.42547409e-002 -3.82474363e-002
      -2.76870065e-004 4.43068333e-002 9.34203900e-003 -2.62914808e-003
      -2.21954770e-002 1.98271647e-002 -1.81928772e-004 -6.21086247e-002
      -9.70190112e-003 -3.66009166e-003 -1.65581461e-002
      -2.74268109e-002 -9.05556381e-002 2.61127334e-002 3.22411992e-002
      3.12246885e-002 2.74931360e-002 2.91435001e-003 4.00529206e-002
      8.55911449e-002 -2.63446905e-002 -1.26024354e-002 1.68112554e-002
      -1.98366940e-002 1.27864797e-002 5.12144901e-003 -1.06512047e-002
      -4.96555865e-003 2.38972139e-002 -2.31619123e-002 -2.85815373e-002
      1.94624800e-003 3.03877424e-002 4.04624604e-002 -6.95410073e-002
      -8.38603999e-004 -2.39809882e-002 1.04906587e-002 -3.10968664e-002
      -2.53443397e-003 3.23653105e-003 -4.07922640e-003 1.58283096e-002
      -5.32158017e-002 -4.93165590e-002 -7.16916695e-002
      -5.61714023e-002 -5.24951443e-002 1.55013502e-002 8.28102976e-002
      5.08171208e-002 -5.88961761e-004 5.88159859e-002 -1.47483097e-002
      -4.56363782e-002 1.45937586e-002 -6.28774390e-002 -3.67959887e-002
      6.19942285e-002 4.45392765e-002 2.32530814e-002 1.50753362e-002
      -3.54422443e-003 -8.22231472e-002 -1.58435982e-002
      -9.74756777e-002 2.93260440e-002 5.55567071e-002 3.09769753e-002
      -3.51973181e-003 2.43914165e-002 -1.53252296e-002 -2.17214301e-002
      1.07392995e-002 2.96788700e-002 -7.18950760e-003 8.68953578e-003
      -3.48210186e-002 -1.76473632e-002 -3.56156901e-002 4.79665734e-002
      1.80104915e-002 -4.50905738e-003 5.21569438e-002 -6.73676282e-003
      2.15946347e-003 2.48255543e-002 6.58123009e-003 3.09579149e-002
      -6.64385557e-002 -3.41538526e-002 4.79206219e-002 -3.94328535e-002
      5.52341118e-002 -4.12415806e-003 -8.29675794e-003 6.54438138e-002
      -3.17424759e-002 -8.91351476e-002 -3.82080525e-002 2.11325306e-002
      4.78213616e-002 -9.01185535e-003 1.37940412e-002 -3.22869271e-002
      -4.92252782e-002 6.58569671e-003 -2.03917101e-002 2.59437272e-003
      7.98345637e-003 6.08166307e-003 1.93511788e-002 -1.50363715e-002
      1.98342223e-002 1.60395317e-002 8.72002449e-003 1.89222523e-003
      -2.47750469e-002 -3.01211942e-002 2.23512519e-002 4.14331071e-002
      1.82968646e-003 -7.14053661e-002 -3.00572049e-002 -5.15013263e-002
      -4.46690358e-002 -1.03698507e-001 -5.51125295e-002
      -4.09439392e-003 2.07872186e-002 4.47465107e-002 7.45103974e-003
      -5.52193746e-002 6.53198361e-002 6.30221441e-002 2.27454555e-004
      -8.29684958e-002 1.68728344e-002 4.83893305e-002 1.17448531e-002
      5.38232028e-002 1.79596748e-002 -2.14235038e-002 5.14088348e-002
      -1.19404253e-002 -3.58175337e-002 4.04827818e-002 7.12511912e-002
      2.99089160e-002 6.71682656e-002 1.93834596e-004 5.35194837e-002
      9.11705643e-002 5.39901704e-002 -3.49301212e-002 2.75172573e-002
      4.37571853e-002 -7.11846584e-003 9.26292408e-003 -2.12210231e-002
      3.34321447e-002 7.14307129e-002 6.57026609e-003 -7.48174787e-002
      -2.23751403e-002 -1.63784325e-002 -3.55662289e-003 3.37718464e-002
      5.31276017e-002 4.74554151e-002 4.35092002e-002 3.21788713e-002
      -6.17476404e-002 -4.18072343e-002 3.57246818e-003 -3.76695022e-002
      6.46073371e-003 -7.50968093e-003 4.38518412e-002 7.89785013e-002
      1.00855324e-002 -7.50651732e-002 -6.73400313e-002 2.11911891e-002
      -5.79508990e-002 4.66593318e-002 3.02503724e-002 5.81023172e-002
      1.13468178e-001 4.20972854e-002 -4.30347733e-002 -2.31398605e-002
      -1.94444042e-002 -5.69559708e-002 -7.42125558e-003 1.41469883e-002
      5.01311384e-002 5.16200289e-002 1.83066372e-002 -7.64358416e-002
      -3.87027189e-002 -6.33949693e-003 -1.76898036e-002 8.70116893e-003
      -1.88642577e-003 1.71741862e-002 5.08315600e-002 3.35492343e-002
      -5.77880479e-002 6.76651206e-003 4.35281359e-003 -5.92705868e-002
      3.77422720e-002 2.37438362e-002 7.66206300e-003 8.40921029e-002
      1.37955174e-002 -7.30616972e-002 -2.48587243e-002 4.46246527e-002
      -3.22823669e-003 4.11821231e-002 -1.00260451e-002 5.78968041e-003
      4.71202061e-002 1.90361254e-002 -3.77285220e-002 -7.00437417e-003
      -3.23369121e-003 1.02590807e-002 -1.03189913e-003 -4.74996725e-003
      -4.85004717e-003 2.56478116e-002 2.57711150e-002 -6.18173853e-002
      -1.21480068e-002 -2.11473089e-002 -1.05379429e-002 1.95423141e-002
      5.52137420e-002 5.56634963e-002 2.60975268e-002 1.82673074e-002
      -9.93937999e-002 -4.11294140e-002 3.85656059e-002 -1.52600808e-002
      1.05352877e-002 -3.55354995e-002 4.66113305e-003 -5.62344603e-002
      2.16552857e-002 -6.75294141e-004 -1.39496895e-002 -3.99523508e-003
      -2.52401270e-002 3.30163129e-002 -7.11776875e-003 3.32078198e-003
      -8.14261381e-003 3.92525531e-002 -2.31002849e-002 1.08756581e-002
      6.64532930e-003 -1.00619709e-002 1.29984962e-002 -1.47434529e-002
      3.32303531e-002 8.93552415e-003 9.05538816e-003 -7.08145723e-002
      -8.45152661e-002 -1.33582018e-002 1.02221547e-003 9.34248324e-003
      -5.49339391e-002 -3.11176702e-002 6.18800335e-002 3.57438345e-003
      -2.75178645e-002 -4.90404963e-002 -4.96866703e-002
      -2.84272507e-002 5.50671108e-002 1.83681287e-002 3.06093376e-002
      -1.37043651e-002 4.20216285e-002 1.02033289e-002 2.13447660e-002
      -1.17623312e-002 1.39751909e-002 2.26002615e-002 1.67054497e-002
      -2.65572332e-002 5.20740412e-002 9.92543846e-002 5.18729053e-002
      2.91485768e-002 -2.38546934e-002 -1.23750623e-002 -1.99565478e-002
      -5.67545071e-002 -4.55766879e-002 2.70319656e-002 4.23655361e-002
      -8.86049680e-003 -9.93528287e-004 3.19746472e-002 3.53846438e-002
      3.31994072e-002 -3.29374187e-002 -2.71142963e-002 -3.98021154e-002
      2.67052185e-002 -1.16693219e-002 -3.66893150e-002 -2.67318916e-003
      -8.72942153e-003 -2.96751503e-003 2.94434372e-002 3.02617345e-003
      2.50981245e-002 2.49389950e-002 5.11218086e-002 3.57168242e-002
      3.49240825e-002 1.11302920e-002 3.81716378e-002 2.33089570e-002
      -1.58966631e-002 -6.60295133e-004 1.61043424e-002 -2.04408565e-003
      6.52799830e-002 3.56578417e-002 5.12006842e-002 1.88466981e-002
      -4.52492647e-002 -4.75557409e-002 -5.72650917e-002 2.82693058e-002
      -5.66580258e-002 -4.97241169e-002 -4.16901037e-002 2.76943184e-002
      4.07785922e-002 1.51535226e-002 -3.82716581e-002 -4.89554890e-002
      2.97157224e-002 -3.55954021e-002 -3.41456607e-002 5.73629402e-002
      -1.11033963e-002 -7.66456220e-003 1.77705809e-002 1.18122902e-002
      -1.75551251e-002 5.50435670e-002 -5.54050924e-003 2.95838322e-002
      1.58402454e-002 -4.34796908e-004 -1.94035098e-002 -8.18075426e-003
      -1.37779964e-002 8.60898569e-003 7.48911574e-002 2.22723102e-004
      3.93395275e-002 -3.44280829e-003 -1.97092779e-002 8.98102205e-003
      2.78751869e-002 -1.61899216e-002 -6.90940991e-002 -1.80544313e-002
      -2.00610720e-002 -2.60595717e-002 3.68200727e-002 2.30227858e-002
      2.31561698e-002 1.54894525e-002 -6.68214187e-002 -9.60050896e-002
      -3.99844870e-002 -4.72998582e-002 -2.89281178e-002 7.29376525e-002
      2.65115667e-002 1.75017826e-002 1.89203359e-002 -5.57861151e-003
      4.71159583e-004 -2.41541234e-003 -9.81786475e-003 2.09057773e-003
      8.39136317e-002 8.44880939e-002 2.67550759e-002 4.63476107e-002
      2.06879601e-002 -6.08583689e-002 -1.76315978e-002 1.35105588e-002
      3.58391330e-002 3.71138602e-002 1.82986110e-002 2.40977593e-002
      2.88411696e-002 -2.02178070e-003 -5.28671108e-002 -7.88217634e-002
      -1.02351628e-001 -1.05919696e-001 -2.30047200e-002
      -4.44028825e-002 -1.83079150e-002 -7.28649087e-003 1.27470205e-002
      -5.41489236e-002 -7.51371458e-002 -4.83181141e-002
      -6.21980503e-002 7.26747587e-002 3.60392444e-002 5.52288331e-002
      8.19102898e-002 1.32086016e-002 -7.54588470e-002 -5.85813597e-002
      -6.72124103e-002 -5.42390160e-002 3.48974280e-002 3.32874134e-002
      8.61989260e-002 3.76083665e-002 5.11842268e-003 -3.17018628e-002
      -7.49247447e-002 -9.02400985e-002 -5.31913340e-002
      -1.67571474e-002 -8.75896364e-002 -1.44259790e-002
      -8.54363218e-002 -1.12798652e-002 -7.77993128e-002
      -8.83761942e-002 -2.87607927e-002 1.09161511e-002 5.69548197e-002
      -8.80135223e-002 -7.57041126e-002 -5.16273528e-002 1.53771148e-003
      -3.29131186e-002 -2.38123760e-002 6.05652342e-003 3.54602449e-002
      4.66474071e-002 -3.71683128e-002 1.49695743e-002 -4.50038649e-002
      1.61377795e-003 -1.50406891e-002 -1.85690112e-002 -5.70058189e-002
      2.92604920e-002 1.00928985e-001 2.08457429e-002 1.38734386e-003
      -1.58314258e-002 2.56115068e-002 5.65080729e-004 2.21292600e-002
      6.09439574e-002 7.76119828e-002 2.30877046e-002 -5.67149632e-002
      -1.13717154e-001 -7.62544572e-002 -5.13331033e-003
      -5.46004586e-002 -4.56069037e-002 3.47507396e-003 1.21755879e-002
      7.86707103e-002 -3.28898989e-002 -6.31976128e-002 -2.94232485e-003
      -2.57377531e-002 3.47215682e-004 4.42166328e-002 5.37798814e-002
      5.07820807e-002 1.55292600e-002 5.74564300e-002 -1.63578913e-002
      -2.97277384e-002 4.58491668e-002 1.02061331e-002 -5.07052168e-002
      1.09934425e-002 6.25979202e-003 1.32659543e-002 7.64837041e-002
      3.93763371e-002 4.97738980e-002 -9.83244274e-003 -1.83403287e-002
      -2.67162453e-002 -1.46243465e-003 2.56651156e-002 -3.04713584e-002
      -5.03444001e-002 -4.14734557e-002 2.93075666e-002 -6.83447067e-003
      -2.09296029e-002 3.09826601e-002 1.12925647e-002 -2.52529345e-002
      1.20932488e-002 -8.23778391e-004 -7.17262086e-003 1.50070647e-002
      5.55772521e-003 -6.71634004e-002 -2.22342741e-002 -1.08191613e-002
      2.04106756e-002 -5.10756150e-002 -2.48163529e-002 -1.58744510e-002
      1.04337987e-002 -9.13756713e-003 -5.93299530e-002 -2.41914727e-002
      3.91063355e-002 2.62362454e-002 8.83955788e-003 -7.28181936e-003
      -1.38593530e-002 -1.89646631e-002 -2.58947327e-003
      -5.61589524e-002 -3.58041301e-002 5.61423367e-003 2.86633205e-002
      3.40567641e-002 4.01990116e-002 1.71004366e-002 2.15284731e-002
      4.30914052e-002 -5.15537225e-002 -1.06181176e-002 -1.54580856e-002
      2.23521888e-002 1.10593438e-001 7.30801970e-002 2.33828947e-002
      -3.35632488e-002 8.85297544e-003 -2.76993271e-002 -9.39590565e-004
      -2.44839713e-002 2.24885046e-002 1.71683002e-002 4.86561805e-002
      -6.95734425e-003 -2.57660672e-002 3.09347175e-002 -7.35298619e-002
      -4.01003845e-002 -2.51632128e-002 1.05602909e-002 1.85010489e-002
      3.57245505e-002 2.01810035e-003 -9.99395177e-002 -2.28445213e-002
      -7.51973912e-002 -1.48540307e-002 -6.93874387e-003 1.89233199e-002
      5.71026094e-002 6.05218485e-002 4.45312485e-002 4.99509238e-002
      5.56070264e-003 -4.02231701e-002 -5.59881842e-003 -1.97082926e-002
      -1.51958317e-002 -2.43393127e-002 3.63518931e-002 3.14212404e-002
      1.74317677e-002 7.43025839e-002 -1.54137472e-002 9.08669829e-003
      6.24604942e-003 -8.47816765e-002 1.00912414e-002 4.07256223e-002
      3.27988788e-002 -5.94748631e-002 -4.88762977e-003 1.93616303e-004
      4.38512824e-002 -7.97999837e-003 -4.48861495e-002 -5.73202185e-002
      7.01913983e-002 3.29133049e-002 -3.26132961e-002 5.81591390e-002
      2.44591362e-003 7.70538952e-003 -3.69910151e-002 -1.15826599e-001
      -4.26912121e-002 8.25358555e-002 8.80018771e-002 -1.85699705e-002
      -2.48584449e-002 -1.83811947e-003 4.15775971e-003 9.03671514e-003
      -3.98901589e-002 -3.27701196e-002 2.42974479e-002 4.94305491e-002
      3.65178217e-003 -7.28566106e-003 7.80585408e-003 4.61719744e-002
      3.31582241e-002 -3.00283711e-002 -4.60371114e-002 3.73217314e-002
      7.17991870e-003 -1.49269691e-002 2.17224043e-002 -1.60864424e-002
      -4.20367997e-003 9.75560956e-003 -7.11350068e-002 -5.82756028e-002
      -2.29087435e-002 -3.77236865e-002 -2.26580910e-002
      -1.54806124e-002 -5.06966300e-002 -7.22990790e-003 3.10685253e-003
      -5.49547598e-002 9.55258869e-003 7.08039897e-003 4.04915214e-002
      -1.27131436e-002 6.84950408e-003 -1.95707567e-002 7.03066727e-003
