%YAML:1.0
my_svm: !!opencv-ml-svm
   svm_type: C_SVC
   kernel: { type:LINEAR }
   C: 1.0000000000000001e-01
   term_criteria: { epsilon:2.2204460492503131e-16, iterations:100 }
   var_all: 3780
   var_count: 3780
   class_count: 2
   class_labels: !!opencv-matrix
      rows: 1
      cols: 2
      dt: i
      data: [ -1, 1 ]
   sv_total: 1
   support_vectors:
      - [ -3.52871679e-02, -3.84160649e-06, 3.10761225e-03,
          7.66369794e-03, -2.13081273e-03, -2.56348979e-02,
          -3.91980298e-02, 1.90731045e-02, -2.17599235e-02,
          -3.39380428e-02, -6.13880754e-02, 4.66526067e-03,
          3.60010304e-02, 1.23894308e-02, -3.03109866e-02,
          -1.63325630e-02, 2.07789876e-02, -2.46506603e-03,
          -3.92323434e-02, 2.21435372e-02, 5.37113138e-02,
          6.32868111e-02, 2.30798274e-02, -2.10619736e-02,
          -5.10635739e-03, 5.89630986e-03, -5.69133982e-02,
          -1.87928900e-02, -6.72556413e-03, -5.25551289e-03,
          9.38231964e-03, 4.47003245e-02, -9.98260453e-03,
          2.37296987e-02, 1.58088040e-02, -1.67154893e-02,
          -6.95831096e-03, -2.01539211e-02, 1.71974115e-02,
          3.19102816e-02, 1.86603554e-02, -1.82939861e-02,
          2.92493626e-02, 3.16065624e-02, 1.44428695e-02,
          -2.20074356e-02, -1.87903363e-02, 1.91471297e-02,
          2.25452352e-02, 1.02090873e-02, -3.27129923e-02,
          -1.54773267e-02, -1.61145478e-02, 5.85874096e-02,
          -1.90935712e-02, -4.96632094e-03, 8.30331992e-04,
          -4.26243199e-03, 9.88288503e-03, 9.58774891e-03,
          5.40112667e-02, 5.75792277e-03, 1.79885377e-04,
          -3.95717807e-02, -1.19105577e-02, -1.28587140e-04,
          -1.60294566e-02, 1.08655225e-02, 1.68330595e-02,
          9.63113643e-03, -1.02345217e-02, -3.22596766e-02,
          1.38846189e-02, -1.95033476e-02, 2.64137872e-02,
          9.06911492e-03, 8.52187872e-02, -8.35604500e-03,
          -4.19201106e-02, -1.57389778e-03, 6.54706508e-02,
          5.16747944e-02, 2.11160700e-03, -2.53909267e-02,
          -1.38496170e-02, 3.06367148e-02, -1.15702301e-02,
          -9.30939894e-03, -9.76401847e-03, 2.38465015e-02,
          -3.50159891e-02, 8.98394792e-04, 1.60142779e-02,
          -4.53612534e-03, 5.82572930e-02, 2.57898252e-02,
          -1.25064896e-02, -2.14711707e-02, -1.28488289e-02,
          -9.57685336e-03, 1.53025193e-02, -1.83833446e-02,
          -4.38652933e-02, -7.00912159e-03, -4.05909531e-02,
          -1.69785563e-02, -1.99893694e-02, 5.73735684e-04,
          5.30464612e-02, 2.40265783e-02, 3.91363341e-04, 7.63561297e-03,
          -2.13854499e-02, -1.79564226e-02, 3.07126227e-03,
          -3.97085622e-02, 5.01497695e-03, 2.04237383e-02,
          -1.26697356e-02, 6.24691695e-03, -2.02062204e-02,
          -1.68802887e-02, -3.32599925e-03, 2.97066197e-03,
          -4.01840657e-02, 1.22829909e-02, -1.56546775e-02,
          1.69966128e-02, -1.60149019e-02, 3.66948138e-04,
          -2.08978746e-02, -1.69404615e-02, -4.26227786e-02,
          -2.07208674e-02, 4.28587943e-03, 2.14307718e-02,
          -8.39464483e-04, 2.49663857e-03, 2.71427836e-02,
          2.29752250e-02, 2.49062423e-02, 2.70437752e-03,
          -1.13040321e-02, 1.01333996e-02, -1.41897053e-02,
          -4.41712886e-02, -1.33466125e-02, 6.18979975e-05,
          -1.15086185e-02, 7.29837362e-03, -1.39769120e-02,
          -3.19124497e-02, -1.37820619e-03, -2.10632067e-02,
          -5.76046295e-02, -2.27765250e-03, 2.18118969e-02,
          2.16399524e-02, 2.93322541e-02, -2.77804807e-02,
          -1.55176548e-02, 2.15446502e-02, 3.76351438e-02,
          -4.82290089e-02, -1.40994405e-02, 2.43308954e-02,
          1.84760913e-02, 2.11188383e-03, -1.43593960e-02,
          -1.33824963e-02, 2.83253496e-03, 1.46752018e-02,
          -4.30196375e-02, -1.98994856e-02, 1.43290972e-02,
          3.36407386e-02, 1.92319751e-02, -9.56856064e-04,
          1.19038085e-02, 2.99262144e-02, 1.54339650e-03,
          -3.41412947e-02, 7.45180808e-03, 2.17551365e-02,
          1.75642315e-02, 2.10140590e-02, -1.77362338e-02,
          -1.65446438e-02, 7.71589810e-03, 1.20090749e-02,
          -3.76211200e-03, 1.28256036e-02, 1.15633784e-02,
          2.18427759e-02, 8.24483670e-03, 1.06629301e-02, 1.20122358e-02,
          1.99278742e-02, 6.80950331e-03, -2.11055260e-02,
          -1.79993846e-02, 2.96541005e-02, 2.67197061e-02,
          6.39149919e-03, -2.40673521e-03, 2.81531867e-02,
          2.65391003e-02, 3.65778506e-02, 1.22050447e-02, 2.75215693e-02,
          1.22759901e-02, -3.08900839e-03, -3.35928164e-02,
          -3.15406173e-02, -1.28638214e-02, 5.76277205e-04,
          9.68846492e-04, -1.23730460e-02, -1.09806899e-02,
          -3.30166476e-05, 2.13055802e-03, 2.24609636e-02,
          4.17615362e-02, 1.34690600e-02, 1.48515124e-02, 8.93318001e-03,
          3.26667577e-02, 4.06092219e-02, -3.13432742e-04,
          -3.57658108e-04, 3.12171821e-02, 4.04968448e-02,
          -8.27236753e-03, 1.89613216e-02, 1.27527565e-02,
          7.57065276e-03, -3.09779774e-03, 1.19930254e-02,
          3.99067719e-03, -2.19035316e-02, 4.18735947e-03,
          -1.03313394e-03, -3.23190950e-02, -2.59434199e-03,
          -3.42870830e-04, -2.02788562e-02, -2.10348214e-03,
          -2.48807371e-02, -1.71931705e-03, 2.99037099e-02,
          -3.93333025e-02, -4.61259438e-03, 2.17641685e-02,
          4.24224250e-02, 5.59220873e-02, 1.48381083e-03,
          -6.90107942e-02, -1.39351403e-02, -2.26641707e-02,
          -2.71469615e-02, -1.22785731e-03, 2.19557248e-02,
          2.31993874e-03, 2.22084988e-02, 3.42164710e-02,
          -7.32229790e-04, 2.36719456e-02, -5.01448177e-02,
          -2.25711036e-02, 2.48887613e-02, 8.00787471e-03,
          1.30355880e-02, -8.48984532e-03, -2.93647442e-02,
          -7.45298862e-02, -6.16012421e-03, -5.17908158e-03,
          -3.52193527e-02, 9.68238711e-03, -3.77018645e-04,
          -8.84940568e-03, 1.55849271e-02, 2.32960451e-02,
          1.21350391e-02, 2.04126025e-03, -1.82352513e-02,
          -4.21308726e-02, 2.47192588e-02, 6.05370291e-02,
          -2.83062621e-03, 1.99515857e-02, 1.17206918e-02,
          -9.29228403e-03, -1.91613380e-02, -4.59049530e-02,
          -4.71872948e-02, 2.02738754e-02, 3.67585383e-02,
          -4.31148745e-02, -2.29788255e-02, 4.17540409e-03,
          -5.65194711e-02, -2.33037919e-02, -3.67568200e-03,
          -3.13962325e-02, 3.17514539e-02, -4.99734608e-03,
          -2.09949855e-02, 5.09085972e-03, 4.96656355e-03,
          -9.69872158e-03, -2.57716123e-02, -4.35202904e-02,
          -3.87896411e-02, 1.73077025e-02, -5.45669021e-03,
          -3.15666422e-02, -5.49220573e-03, -4.69489433e-02,
          -4.20544818e-02, 1.16445478e-02, -7.83374812e-03,
          6.02935813e-03, -2.10733525e-03, 1.88842509e-02,
          1.90455019e-02, 8.60934798e-03, 2.75866352e-02, 1.52387582e-02,
          1.22417114e-03, 1.23241590e-03, -2.06640936e-04,
          -2.08060723e-02, 2.03991029e-02, 3.01406235e-02,
          4.09388430e-02, 5.47669549e-03, 3.58729251e-02, 4.40521277e-02,
          -1.75669286e-02, -2.82938825e-03, -5.79532469e-03,
          -1.91946886e-02, -1.90064572e-02, 9.49776452e-03,
          -2.24458203e-02, -1.69195868e-02, 5.29498607e-03,
          3.77598382e-03, -3.24354209e-02, -4.17254157e-02,
          -9.50162578e-03, -3.89568955e-02, 4.32643928e-02,
          -1.24113737e-02, -1.00634145e-02, 4.21909168e-02,
          2.90101059e-02, 5.89990057e-03, -9.78758745e-03,
          2.68984400e-02, -6.54493109e-04, 2.53081564e-02,
          -1.63910892e-02, 3.09355613e-02, 2.09531058e-02,
          -2.84823440e-02, 2.25579385e-02, 2.19437666e-02,
          -2.01262515e-02, -4.07149456e-02, 1.79425497e-02,
          -8.20337795e-04, 2.76299343e-02, 2.24913321e-02,
          3.06167826e-02, 3.01044956e-02, 1.50248576e-02, 1.69176329e-02,
          -1.36169409e-02, 4.78680842e-02, 5.15357312e-03,
          1.40556814e-02, 1.80485155e-02, -4.68798773e-03,
          4.25408594e-02, -9.61929327e-04, 6.56340178e-03,
          -9.52989422e-03, 3.78263220e-02, 3.23760579e-03,
          4.19370048e-02, -8.04425590e-03, 1.69734415e-02,
          1.02409497e-02, -3.72248478e-02, -9.53184790e-04,
          -4.62224782e-02, 3.70295420e-02, 2.49253809e-02,
          1.84980948e-02, 2.82100425e-03, 3.60725001e-02, 1.28238695e-02,
          3.82442698e-02, 2.27664225e-02, -2.71117780e-02,
          5.81296198e-02, 3.29017416e-02, 3.01477294e-02,
          -1.77235436e-02, 1.16306264e-02, 3.15882312e-03,
          6.39214590e-02, 8.93485546e-03, -5.03141545e-02,
          2.97906343e-02, 7.91259389e-03, 2.41891630e-02,
          -2.36564204e-02, 3.72755788e-02, 7.92734046e-03,
          -2.02400517e-02, 4.59644431e-03, -2.10915785e-02,
          8.66029225e-03, 3.60381491e-02, 3.79163139e-02, 1.95282120e-02,
          -2.93983379e-03, 1.55639192e-02, 2.74299714e-03,
          2.95264069e-02, -2.74100751e-02, 1.36061106e-02,
          -1.16255134e-02, -1.13374060e-02, -1.69572663e-02,
          8.53125099e-03, -2.29204148e-02, 1.12252776e-02,
          -2.36742737e-04, 9.22387373e-03, 2.79997326e-02,
          4.51655537e-02, -7.48183485e-03, 1.48809217e-02,
          1.19145447e-02, -1.84527747e-02, -1.35646667e-02,
          -1.83219071e-02, -7.02026440e-03, -1.05480049e-02,
          1.77188162e-02, 2.44282242e-02, -1.11940084e-02,
          5.83691383e-03, -2.74588708e-02, -1.17334938e-02,
          3.30590606e-02, 6.78356271e-03, 3.14504578e-04, 2.13218108e-02,
          -1.92348044e-02, -1.62706487e-02, 2.41396148e-02,
          1.33436890e-02, 3.87402698e-02, -1.94485839e-02,
          -2.90365089e-02, -2.65177358e-02, -1.95043460e-02,
          -8.98734480e-03, -6.84828591e-03, -5.99502120e-04,
          -1.73041038e-02, -1.99244171e-02, 2.92528351e-03,
          -1.25884209e-02, -2.62119267e-02, -2.66610719e-02,
          6.39469270e-03, 4.50329520e-02, -1.67932753e-02,
          -2.77699046e-02, 3.50221526e-03, 9.74204595e-05,
          -2.42232401e-02, -5.43198735e-02, -2.97455601e-02,
          -3.31142209e-02, -4.25975919e-02, 1.43799232e-02,
          3.04957088e-02, 1.07899381e-04, 5.44831306e-02,
          -8.41251388e-03, -2.70451698e-02, -1.52886501e-02,
          6.20507589e-03, 1.94497406e-02, 1.88280642e-02,
          -8.57627951e-03, 5.72843403e-02, -4.78744088e-03,
          6.41444279e-03, 1.04700429e-02, -2.46448517e-02,
          -1.91938560e-02, 5.02737984e-02, 5.71482629e-03,
          1.48657486e-02, -2.06503645e-02, 9.58403666e-03,
          9.18572024e-03, 2.44914610e-02, 2.73874924e-02, 5.39478520e-03,
          6.30859882e-02, -2.15231385e-02, 2.23190282e-02,
          -1.21813426e-02, 4.36582416e-02, 6.83638640e-03,
          9.32550803e-03, -1.33516490e-02, 1.36734415e-02,
          8.30309931e-03, -5.70037728e-03, -2.95726508e-02,
          2.67496873e-02, -1.11420061e-02, -1.05393082e-02,
          4.24713902e-02, 3.76575254e-03, -9.02533066e-03,
          5.26797175e-02, -2.41431203e-02, -6.73931791e-03,
          3.42678861e-03, 1.76902823e-02, 4.59497906e-02, 4.74520661e-02,
          3.47660929e-02, 5.89525653e-03, 1.04909325e-02, 4.15108316e-02,
          8.10522959e-03, -1.61963552e-02, 7.65641977e-04,
          2.33197771e-02, -2.05968670e-03, -3.00222468e-02,
          -3.98814380e-02, 1.42557379e-02, 3.45101617e-02,
          1.27922632e-02, -1.68617852e-02, 2.23565456e-02,
          -2.05582346e-05, 6.85246987e-03, 2.25821212e-02,
          3.26712169e-02, 3.22063174e-03, 2.48564444e-02, 8.58455151e-03,
          1.25713628e-02, 2.12266352e-02, 1.27981473e-02, 7.72554195e-03,
          -3.48161422e-02, -9.04407911e-03, -3.77091789e-03,
          -1.40590370e-02, -2.52925586e-02, 1.01287840e-02,
          1.06017925e-02, 3.47101167e-02, 1.01355435e-02,
          -2.08532680e-02, -3.65960859e-02, 4.99548651e-02,
          3.63049693e-02, 1.94086079e-02, -7.67781958e-03,
          -1.10394498e-02, 2.69655976e-02, -6.40951702e-03,
          -1.23386141e-02, -2.15138774e-02, 1.28389038e-02,
          9.76840965e-03, -4.58143232e-03, -2.50874404e-02,
          1.42927440e-02, 2.98978314e-02, 2.55177729e-03,
          -2.62071043e-02, -7.06273364e-03, 1.90393627e-02,
          8.32252204e-04, 1.12466300e-02, -8.02829210e-03,
          3.08368560e-02, 1.34169599e-02, -1.06043303e-02,
          -1.38215339e-02, 1.76461656e-02, -1.86242640e-03,
          1.30229793e-03, 6.28638221e-03, -1.94775760e-02,
          -1.20679643e-02, 3.22548002e-02, 1.22950589e-02,
          -1.41312471e-02, -1.25879804e-02, 2.01030262e-02,
          5.26711287e-04, -4.45278594e-03, -2.79588867e-02,
          -3.48844901e-02, 2.27564294e-02, -1.58970675e-03,
          2.60679238e-03, -3.59923691e-02, -1.12884231e-02,
          3.24510387e-03, 2.69382428e-02, -1.82468873e-02,
          3.70450155e-03, 1.22843711e-02, -3.19528067e-03,
          -3.97523418e-02, -6.04379270e-03, 7.59641919e-03,
          2.31866613e-02, 2.02651899e-02, 1.94228441e-02,
          -4.64503616e-02, 1.46254990e-02, 1.47526162e-02,
          1.86160952e-02, 1.34592894e-02, -8.20507575e-03,
          2.69289184e-02, 3.19328234e-02, 1.25107681e-02,
          -8.92151240e-03, 8.17837287e-03, -1.21452985e-02,
          1.57329831e-02, -2.79019512e-02, -1.69233012e-03,
          -2.57098321e-02, 4.05224366e-03, -2.98259407e-03,
          3.36891524e-02, 6.70862338e-03, 3.68600176e-03, 7.47119077e-03,
          2.10577697e-02, 3.81621160e-02, 4.68553370e-03, 2.48961933e-02,
          -1.74804181e-02, -1.55644296e-02, -5.52192191e-03,
          6.17862772e-03, 9.51126777e-03, -1.09718153e-02,
          -1.01704253e-02, -1.54475961e-02, -3.20430932e-04,
          -2.20002700e-02, 1.86466780e-02, 1.43064177e-02,
          5.67552522e-02, -1.26594454e-02, -4.16465948e-04,
          1.93881989e-02, 1.16016213e-02, -1.78209729e-02,
          9.42252949e-03, 4.58551757e-02, -5.41996174e-02,
          -1.74467526e-02, -1.04405051e-02, -2.10099090e-02,
          -2.86491611e-03, 1.13952123e-02, -2.06075925e-02,
          3.92780930e-04, 1.31481774e-02, -2.94653568e-02,
          -2.75579165e-03, -2.52134795e-03, 2.65538227e-02,
          7.84119684e-03, 3.56285786e-03, -1.50391208e-02,
          1.37765761e-02, 6.62717922e-03, -2.13554762e-02,
          -3.57187004e-03, -2.57988218e-02, -1.72909405e-02,
          1.72405001e-02, 2.83147618e-02, -4.56509832e-03,
          1.55516593e-02, 2.58647394e-03, -2.49688253e-02,
          6.67085359e-03, -2.62189507e-02, 2.77992487e-02,
          -4.31708712e-03, 1.84243154e-02, -3.41333332e-03,
          3.87873314e-03, -2.31448925e-04, -2.38700453e-02,
          5.30362362e-03, 2.76702605e-02, 2.99878754e-02, 7.43731204e-03,
          1.19682141e-02, -2.81750802e-02, -2.62461435e-02,
          3.31087876e-03, 1.27138942e-03, 2.31466424e-02, 2.43058708e-02,
          4.26542712e-03, -2.10845843e-02, -2.41009356e-03,
          2.91204453e-03, -3.40519324e-02, 2.41234004e-02,
          -1.43663166e-02, 2.30072197e-02, 2.54222415e-02,
          1.61879491e-02, -2.07963516e-03, -2.13622339e-02,
          -1.86894126e-02, -9.03352350e-03, 3.73171680e-02,
          -2.96566468e-02, -5.37916785e-03, 4.34385566e-03,
          5.72689250e-03, -1.45751303e-02, -3.05760466e-02,
          -2.24297009e-02, 3.02958563e-02, -1.43806112e-03,
          -7.55728735e-03, -2.20871828e-02, 1.31379871e-03,
          1.47111621e-03, -3.89622375e-02, -5.54475747e-03,
          -5.48233651e-03, -2.94430759e-02, -2.72227190e-02,
          -1.89421289e-02, -3.85667793e-02, -1.17378775e-02,
          -5.00778742e-02, -1.37597881e-02, -3.00290692e-03,
          -1.62348654e-02, 5.76499104e-03, 3.10912984e-03,
          -1.69061590e-02, -1.11104809e-02, -7.49546196e-03,
          -3.24945338e-02, -4.50041927e-02, -3.49934325e-02,
          -2.82682385e-02, 1.59476902e-02, 8.40890128e-03,
          2.09286599e-03, -2.28543766e-02, -1.73788134e-03,
          -2.23927405e-02, 2.49946117e-02, -3.29525396e-02,
          -1.56132234e-02, 1.61720235e-02, -1.37499208e-02,
          -1.18499459e-03, -2.74110232e-02, -4.39227093e-04,
          -4.46223058e-02, 2.14049220e-03, -6.70647062e-03,
          -1.67324301e-03, 1.34557253e-02, 1.99846411e-03,
          -5.02756913e-04, -1.46536017e-02, 1.91908330e-02,
          -1.44947404e-02, 8.34947079e-03, -2.93794964e-02,
          -1.08158821e-02, 2.06097737e-02, 2.07004286e-02,
          -1.96095724e-02, -2.75706481e-02, -3.20728235e-02,
          -2.09392365e-02, 8.04135017e-03, -1.89097617e-02,
          -9.98318382e-03, 3.25469859e-02, 9.47982259e-03,
          -2.80521940e-02, -2.26700585e-02, -3.80286947e-02,
          -3.43626402e-02, -2.54733246e-02, -4.48006988e-02,
          -3.79447825e-02, -2.44285259e-02, 4.40613478e-02,
          -3.43732932e-03, -5.11819613e-04, -7.51683023e-03,
          9.38540604e-03, -1.67029556e-02, -2.25572642e-02,
          -1.34731466e-02, 2.09563244e-02, 3.56865972e-02,
          -1.26073295e-02, -4.18678625e-03, -3.76848946e-03,
          3.27081867e-02, 5.78141063e-02, 1.70296002e-02, 3.05325687e-02,
          3.46003287e-02, 1.96311274e-03, -3.03049237e-02,
          -1.65551677e-02, -4.55859043e-02, -2.89845001e-02,
          -5.60929067e-02, -3.70427407e-02, -3.87167260e-02,
          -2.35409290e-02, 7.06605008e-03, -2.81050578e-02,
          -3.68080363e-02, 1.01270964e-02, 1.27679799e-02,
          3.40256132e-02, 1.36913797e-02, 1.63516253e-02, 1.11301467e-02,
          2.18616836e-02, -2.03125249e-03, 1.69544667e-02,
          5.14445687e-03, -7.85851944e-03, 5.37375845e-02,
          9.75085702e-03, 2.63853706e-02, 1.87519118e-02, 4.69078198e-02,
          1.81915832e-03, 3.60710360e-02, -3.66289578e-02,
          -2.28513926e-02, 3.65048312e-02, 3.11936755e-02,
          3.81904729e-02, 4.06445041e-02, -2.06866600e-02,
          -3.31914313e-02, 7.28271145e-04, 2.95935702e-02,
          -1.51167903e-03, 3.88261937e-02, 4.93802782e-03,
          4.31914860e-03, -3.65739837e-02, 8.39188974e-03,
          -3.82622704e-02, 4.64414200e-03, -6.60457695e-03,
          -3.91655900e-02, 2.37934961e-04, 1.09945452e-02,
          -9.30620357e-03, -6.74965605e-03, 4.42550033e-02,
          2.36691795e-02, 1.78524088e-02, -3.39265242e-02,
          1.48085998e-02, 7.73160951e-03, 9.88460705e-03, 1.88596938e-02,
          2.44047437e-02, -2.93445541e-03, 1.09143863e-02,
          1.64151434e-02, 1.14922980e-02, 2.30522864e-02,
          -2.20449418e-02, 1.79093014e-02, 9.27228667e-03,
          -1.00594219e-02, 4.15695012e-02, 1.62214711e-02,
          -6.12738077e-03, -4.39613834e-02, -2.85066385e-02,
          -1.86527334e-02, -1.72581319e-02, -3.56115773e-02,
          -3.64552089e-03, 2.99309241e-03, 2.60492647e-03,
          1.88038144e-02, -3.72444615e-02, -1.21044135e-02,
          -4.40571224e-04, -2.21157633e-03, -8.97187646e-03,
          -2.07625180e-02, -2.10264828e-02, -1.09611731e-02,
          4.07658936e-03, -2.36860868e-02, -3.33468983e-04,
          -2.18752008e-02, 2.26550084e-02, 5.27379941e-03,
          -3.47105898e-02, -3.93199474e-02, 1.40827941e-02,
          -1.71053763e-02, 7.58535555e-03, 8.98822490e-03,
          3.33018601e-02, 4.01219539e-03, 2.19220426e-02,
          -5.23134582e-02, -1.92437675e-02, -1.14929071e-02,
          -4.25184192e-03, -6.10367507e-02, 1.41279828e-02,
          -5.70542226e-03, 3.60035861e-04, 2.21598279e-02,
          -1.91026051e-02, -2.81984694e-02, 3.19902636e-02,
          1.35542760e-02, 1.04484996e-02, 3.22881266e-02,
          -1.63982492e-02, -2.68535037e-03, 6.12107757e-03,
          -2.41473485e-02, -3.01477704e-02, -9.80049651e-03,
          -4.00809990e-03, 3.32088135e-02, 1.86331756e-02,
          1.41902110e-02, -8.69905017e-03, -1.59128271e-02,
          -6.12944700e-02, 4.17880975e-02, 3.55783291e-03,
          2.02750415e-03, 1.08883996e-02, -2.60344874e-02,
          -9.75299068e-03, 1.27232112e-02, 5.03224228e-03,
          -5.09016449e-03, -5.40263467e-02, -4.09769230e-02,
          3.09233065e-03, 3.95911224e-02, 2.90294997e-02,
          -4.16666456e-02, 3.86511115e-03, -2.33729053e-02,
          -4.18037251e-02, 1.81174073e-02, -3.19815725e-02,
          1.00766700e-02, 2.97624748e-02, 2.84881536e-02,
          -1.19454022e-02, -1.57908234e-03, -4.82563153e-02,
          8.93884338e-04, 1.32641625e-02, -2.24817749e-02,
          -3.48558240e-02, 2.51708762e-03, -2.47744117e-02,
          -2.61780657e-02, 4.28631566e-02, 1.62619483e-02,
          -2.47381572e-02, 3.60375196e-02, 2.30579339e-02,
          6.26660278e-03, 1.85103100e-02, -1.76480003e-02,
          8.52605794e-03, 3.77183072e-02, 3.73949995e-03, 9.98031721e-03,
          -4.79870196e-03, -3.84845920e-02, -3.35915387e-02,
          1.43185547e-02, -4.40289360e-03, -3.34717482e-02,
          3.37029947e-03, -4.87991199e-02, -4.61254548e-03,
          -3.53880003e-02, -1.45461727e-02, -3.82544938e-03,
          4.00613956e-02, -1.64323151e-02, -3.67880277e-02,
          -9.46729816e-03, -3.72314118e-02, 6.30052947e-03,
          2.53077596e-02, 3.21928672e-02, 1.52970925e-02,
          -1.14059756e-02, 3.03834602e-02, 3.61892730e-02,
          -2.51450809e-03, 2.16822792e-02, 5.76284016e-03,
          -1.63707044e-02, -1.70145463e-03, 1.00906109e-02,
          -6.52270159e-03, 2.93778791e-03, 4.59551923e-02,
          1.81404687e-02, 1.60313826e-02, -3.30336764e-02,
          2.05812454e-02, 2.44541336e-02, 2.18857098e-02, 3.01836003e-02,
          7.92526733e-03, -3.99532449e-03, 4.66379710e-03,
          -3.57819325e-03, 1.10825831e-02, 1.63783245e-02,
          1.33644650e-02, -2.70378906e-02, 8.19085073e-03,
          -1.87033396e-02, -9.70238168e-03, 1.25592423e-03,
          9.19673406e-03, 7.19188107e-03, 2.27924413e-03,
          -1.29311262e-02, 1.34287681e-03, 4.16532792e-02,
          1.06780529e-02, -2.53819264e-02, 6.91685034e-03,
          1.35015640e-02, 1.06117614e-02, -2.73408135e-03,
          -1.54443970e-02, 1.10008391e-02, -1.61131825e-02,
          -3.39164063e-02, -4.25418653e-02, -1.72092505e-02,
          -1.40392845e-02, 1.80567056e-02, -5.82111925e-02,
          -2.09792145e-02, 2.25973167e-02, 3.74842510e-02,
          -2.80970540e-02, -3.99565464e-03, 3.47200930e-02,
          3.89987640e-02, -2.58000623e-02, -6.92781247e-03,
          -1.12527900e-03, 4.96573299e-02, 3.31447157e-03,
          -1.28702149e-02, -7.70827942e-03, 3.70533690e-02,
          6.40015081e-02, 1.42957103e-02, -3.80347529e-03,
          -2.36632042e-02, -5.89668471e-03, -1.18519394e-02,
          -1.41213629e-02, 8.57684202e-03, 3.35130841e-02,
          -1.77717011e-03, 6.71820156e-03, -3.33894230e-03,
          -4.86154221e-02, -2.03915406e-02, -8.26071016e-03,
          1.34335672e-02, -2.05021887e-03, -7.11128442e-03,
          -2.45656865e-03, -1.98374968e-02, -2.11888063e-03,
          -8.27263761e-03, 2.39271428e-02, 7.42198527e-03,
          9.34144668e-03, 2.41957977e-02, 4.27704006e-02, 2.64266655e-02,
          -3.03388480e-03, -1.03095509e-02, -5.29966541e-02,
          -3.45359300e-03, -1.66014535e-03, 5.56616019e-03,
          -3.55990231e-03, -9.92936548e-03, 3.78173077e-03,
          -2.33145170e-02, 1.79393543e-03, -4.24785204e-02,
          -1.68575421e-02, -6.53313007e-04, -7.10755412e-04,
          1.51156457e-02, 4.11878387e-03, -1.03298798e-02,
          2.50539742e-02, -3.65080424e-02, 2.69531575e-03,
          1.14002414e-02, 4.51293960e-03, -4.17609364e-02,
          -1.79261789e-02, 6.24860544e-03, -3.37715098e-03,
          -1.52307553e-02, 1.36515088e-02, -1.79109946e-02,
          1.00184670e-02, 2.65561398e-02, -5.17763244e-03,
          2.59726029e-02, 8.38718098e-03, -1.34149492e-02,
          -1.66461524e-02, -3.38438526e-02, 2.03832388e-02,
          2.34227777e-02, 6.25318103e-03, -3.06999106e-02,
          1.01640066e-02, 1.23730497e-02, -2.21098587e-02,
          -4.12033536e-02, 1.17570171e-02, -1.46761322e-02,
          -2.14055628e-02, -2.26336517e-04, -3.63745987e-02,
          -1.01637784e-02, 9.50233545e-03, -2.28600390e-02,
          -1.53957456e-02, -3.54324817e-03, -1.27804503e-02,
          -1.37504807e-03, 1.46317929e-02, -1.06707821e-02,
          2.85191857e-03, -1.57825034e-02, -4.21327539e-02,
          -2.15567220e-02, 1.00689894e-02, 1.06220134e-02,
          -2.89215203e-02, -2.25902488e-03, -4.15726518e-03,
          6.11525495e-03, 1.66456793e-02, -2.61411071e-02,
          2.78477534e-03, 3.94109003e-02, -8.89664143e-03,
          -3.70591395e-02, -5.26790181e-03, 4.28515859e-03,
          3.01883137e-03, -2.19028816e-02, -3.65087725e-02,
          3.16669717e-02, -2.83574443e-02, -1.69246532e-02,
          -9.97646712e-03, 4.49834671e-03, -2.46572704e-03,
          8.66195839e-03, 2.01685093e-02, -1.42047759e-02,
          -1.13401329e-02, -1.56354171e-03, 5.01209870e-03,
          -1.01792570e-02, -2.29654312e-02, 1.63999237e-02,
          7.28580216e-03, 4.83688265e-02, -6.63842726e-03,
          -2.74936184e-02, 1.68439385e-03, -1.62160359e-02,
          -1.99428312e-02, -4.95850528e-03, 2.89729424e-02,
          1.02239882e-03, 1.21125402e-02, 4.60461807e-03, 3.80848944e-02,
          -3.61220203e-02, 8.93212389e-03, -9.61156562e-03,
          -4.42689145e-03, 4.15679924e-02, 6.81330403e-03,
          1.60761103e-02, 3.50230485e-02, 1.96800679e-02, 5.19837998e-03,
          -4.91294777e-03, 1.17253093e-03, -7.05182506e-03,
          8.39278009e-03, -3.69390589e-03, -1.76274881e-03,
          -1.56737734e-02, -4.23739366e-02, 1.57965180e-02,
          9.91899986e-03, -9.23443865e-03, -1.27746044e-02,
          -4.23489325e-02, -3.15728933e-02, -5.74227460e-02,
          -5.79700395e-02, -1.10885920e-03, -4.12842445e-03,
          1.78307183e-02, 2.02216711e-02, 1.04114143e-02, 5.56049198e-02,
          4.88950424e-02, 2.23529525e-02, 1.74466372e-02, 1.34215411e-02,
          3.36997770e-02, 3.13422680e-02, 2.04812214e-02,
          -1.34273600e-02, -3.90501251e-03, 1.85751496e-03,
          5.16712153e-03, -2.85330322e-03, 2.20347457e-02,
          6.06671395e-03, 7.22884992e-03, -8.67440924e-03,
          7.67686591e-03, -2.65795123e-02, -1.75998863e-02,
          -1.46355079e-02, -4.05288227e-02, -5.98660531e-03,
          -2.40107290e-02, -2.45761182e-02, -1.40877729e-02,
          6.10402646e-03, -2.06896532e-02, 3.13938893e-02,
          3.47198918e-02, 2.39589047e-02, -5.14072739e-02,
          3.94042134e-02, -3.10425297e-03, -1.38535118e-02,
          -1.87758468e-02, -1.50087709e-02, -4.98336777e-02,
          7.91420607e-05, -1.47274807e-02, 1.89846344e-02,
          -3.75188775e-02, -4.55461927e-02, -3.26941535e-02,
          -1.60048883e-02, 3.58870998e-03, -8.00144160e-04,
          2.02813875e-02, 6.62011700e-03, -2.45129410e-02,
          1.16732400e-02, 1.85909979e-02, 9.80895106e-03,
          -1.07790129e-02, -4.70185559e-03, 1.31127741e-02,
          3.35823372e-02, 1.05652111e-02, -1.39217842e-02,
          -2.69397460e-02, 2.61419602e-02, 4.89949388e-03,
          2.16337183e-04, 9.02361050e-03, 1.24028197e-03,
          -3.08363792e-02, -2.40761302e-02, -4.24390994e-02,
          -4.64432035e-03, 1.59194618e-02, 1.02724535e-02,
          6.33694232e-03, -3.81070413e-02, -2.77252588e-02,
          -1.59466229e-02, -1.17189542e-03, -1.97279714e-02,
          -1.63588598e-02, 2.68596387e-03, 1.34909563e-02,
          6.01015706e-03, -2.97885742e-02, -1.17377685e-02,
          -2.15832181e-02, -2.49562273e-03, -6.49532012e-04,
          -2.63135824e-02, 3.50694731e-02, 2.70245448e-02,
          1.19208510e-03, 1.66907609e-02, -7.53963133e-03,
          -1.52538270e-02, 4.72122105e-04, -4.60519381e-02,
          -3.46443951e-02, 5.33768050e-02, 2.70301141e-02,
          2.62149442e-02, -1.83747318e-02, 1.01599395e-02,
          8.30807071e-03, 1.00096473e-02, -2.18458250e-02,
          -8.98253359e-03, 1.88887548e-02, 1.31918350e-02,
          8.25521071e-03, -2.88927951e-03, -3.33804153e-02,
          6.95734331e-03, -1.73334568e-03, -2.52502784e-02,
          -5.81358140e-03, 1.37220128e-02, 1.90648064e-02,
          2.11597439e-02, -6.12695664e-02, -5.24665862e-02,
          -1.91979867e-03, 2.63964627e-02, 2.30195783e-02,
          -4.21445891e-02, 3.93338427e-02, 2.57599689e-02,
          3.25076170e-02, -1.79508012e-02, 4.15078364e-02,
          1.38185313e-02, 3.17213200e-02, -2.40755137e-02,
          6.64507365e-03, 1.94049776e-02, 2.78923730e-03, 1.25741996e-02,
          -1.28896404e-02, 1.23645114e-02, 4.96510565e-02,
          5.47956862e-02, -1.03858402e-02, -2.74007656e-02,
          1.31678171e-02, 1.43486960e-02, 1.76996682e-02,
          -1.77373290e-02, 2.25589294e-02, 6.19233120e-03,
          -3.23305349e-03, -2.15938650e-02, 9.87346843e-03,
          2.38653850e-02, -1.74718034e-02, 2.17585708e-04,
          -7.92345684e-03, -2.39581559e-02, 1.02506410e-02,
          -7.65595818e-03, -1.68208443e-02, 6.91710366e-03,
          2.54828949e-02, -1.78019796e-02, -6.13286067e-03,
          1.57038383e-02, 2.23121550e-02, 3.40013742e-03, 9.76961665e-03,
          -2.51286533e-02, 6.21314421e-02, 8.93807504e-03,
          4.65872325e-02, 2.64116609e-03, 6.72877133e-02, 4.08246815e-02,
          1.87696647e-02, 2.26910766e-02, 1.29009495e-02,
          -4.09132335e-03, 1.11614810e-02, -3.60885635e-02,
          -1.54677667e-02, -1.61444885e-03, -3.07695791e-02,
          -1.43792732e-02, -3.94688472e-02, -6.37364239e-02,
          -1.60341915e-02, -8.05296469e-03, 1.71391629e-02,
          2.07622591e-02, 2.19481457e-02, 2.31098384e-02, 1.83426403e-02,
          -2.53786650e-02, -5.44249266e-02, 6.34076213e-03,
          -9.82164778e-03, 8.83794017e-03, -2.49256231e-02,
          5.82593940e-02, 7.88448937e-03, -2.42417585e-02,
          -1.87561859e-03, 1.22868232e-02, -4.01699021e-02,
          1.63491452e-04, 1.00085633e-02, 1.02123292e-02, 2.28139292e-02,
          -4.84174350e-03, -1.13076726e-02, 1.14229918e-02,
          2.65781339e-02, -2.48048734e-02, -3.30089442e-02,
          -7.66848819e-03, -8.43257271e-03, 3.76981534e-02,
          3.86077841e-03, -1.99691020e-03, -3.84420007e-02,
          -4.86398414e-02, -8.16740282e-03, -2.03677397e-02,
          -4.14867280e-03, 1.74093675e-02, 2.31508836e-02,
          3.51656154e-02, 1.58564858e-02, -3.76587212e-02,
          -2.95336004e-02, -1.70784649e-02, -4.53654639e-02,
          -2.26998627e-02, 1.06720608e-02, 3.35517153e-02,
          -2.08518244e-02, 1.29693840e-02, 3.20027880e-02,
          1.76766291e-02, 2.00426877e-02, -2.29393449e-02,
          -2.34648995e-02, 1.20524056e-02, 8.28218237e-02,
          1.47023490e-02, 1.34163012e-03, 7.88357388e-03, 2.96976394e-03,
          -4.85455105e-03, -2.43556872e-02, -3.87783572e-02,
          -2.09025089e-02, 2.57193800e-02, -4.17017983e-03,
          -2.47990880e-02, -4.15135510e-02, 6.67082192e-03,
          4.89890762e-03, -2.91254055e-02, -6.57775924e-02,
          -3.57019082e-02, -2.77427044e-02, -3.10942484e-03,
          -7.86291994e-03, -2.10542567e-02, -7.02416198e-03,
          1.03092818e-02, -1.63438618e-02, -5.93691207e-02,
          -3.06690228e-03, 2.33428851e-02, 3.17798518e-02,
          4.25894111e-02, 1.51032554e-02, 1.35087492e-02,
          -1.12940231e-02, -8.97780154e-03, -7.27126794e-03,
          3.71010974e-02, -1.74055677e-02, 2.25450918e-02,
          4.36793268e-02, -6.57738792e-03, 4.44078222e-02,
          -2.69660000e-02, -2.33974103e-02, -6.90502226e-02,
          -4.04868238e-02, -5.07508367e-02, -1.48268407e-02,
          2.90565006e-02, -1.51733216e-03, -3.14408429e-02,
          -1.23789534e-02, -3.24551426e-02, -1.46255149e-02,
          6.41960204e-02, -6.68372512e-02, -2.51289792e-02,
          1.63586326e-02, 1.22582885e-02, 1.50695955e-02, 3.98903247e-03,
          7.54995830e-03, 1.43142547e-02, 7.47284666e-02, 2.48086862e-02,
          1.08585544e-02, 6.61603315e-03, -6.91426918e-03,
          2.28335988e-03, 2.94615026e-03, -7.11427024e-03,
          2.01901346e-02, 5.39943278e-02, 1.73908845e-02,
          -1.00665558e-02, 9.35419463e-03, 6.04583696e-03,
          1.05559779e-02, -2.47298256e-02, 5.07262303e-03,
          -2.33632093e-03, 5.52005880e-02, 4.88053448e-03,
          4.33568889e-03, -5.05789882e-03, 1.62061695e-02,
          -1.04416432e-02, -9.08045005e-03, 1.20643573e-02,
          4.25485820e-02, 7.33714923e-02, 4.44042077e-03,
          -1.78203285e-02, 2.01494098e-02, -9.40307602e-03,
          -3.42897177e-02, 2.94624735e-03, -3.68812494e-03,
          2.29828712e-02, 1.89284666e-03, -6.20199367e-02,
          1.02413017e-02, 2.67648883e-02, -5.97649999e-03,
          -2.37564519e-02, 3.77298482e-02, 3.32605168e-02,
          2.36988533e-02, -3.59092690e-02, -4.33759093e-02,
          1.90670565e-02, 1.86500489e-03, -2.32552947e-03,
          2.45536352e-03, -4.82339505e-03, 3.41488346e-02,
          2.45844014e-02, -1.21711912e-02, -4.02995236e-02,
          -7.62289111e-03, 2.33992543e-02, -2.03086734e-02,
          -1.73254069e-02, 1.43014966e-02, 4.85602058e-02,
          1.40600502e-02, -2.93370280e-02, -7.67920166e-02,
          2.55332272e-02, -1.74844116e-02, -5.21728881e-02,
          -1.82222202e-02, 1.02323070e-02, 4.55679856e-02,
          2.00020056e-02, -1.32318959e-02, -1.65355317e-02,
          2.84992699e-02, 1.40241589e-02, 1.02443062e-02,
          -3.45781469e-03, -4.95418049e-02, -1.61690377e-02,
          5.63910836e-03, -1.95939355e-02, -5.28739318e-02,
          -4.02526632e-02, 7.33981887e-03, -2.82159075e-03,
          -3.77263874e-02, 6.21525152e-03, 5.13467528e-02,
          4.19820473e-02, 1.68667492e-02, -2.19458472e-02,
          4.26943861e-02, -7.71596050e-03, -1.83629561e-02,
          -2.30418779e-02, -2.80991588e-02, -2.59899925e-02,
          1.05222780e-02, -1.25100482e-02, -3.32200564e-02,
          -4.28045616e-02, -6.27029035e-03, -8.06898531e-03,
          -2.68917512e-02, -5.10821529e-02, 1.88967283e-03,
          -1.34112947e-02, 7.36460742e-03, 6.75397599e-03,
          1.26741258e-02, 2.76484042e-02, -1.03945630e-02,
          -3.23634073e-02, -5.10565452e-02, 1.72984563e-02,
          -2.35612541e-02, 5.68011496e-03, 1.22753093e-02,
          6.20004907e-03, 1.63375195e-02, -3.82982977e-02,
          -7.85988346e-02, -1.81253087e-02, -2.81719062e-02,
          2.37786258e-03, -3.64706218e-02, 8.51293933e-03,
          -2.11157296e-02, 7.63020013e-03, -1.14952801e-02,
          -2.46468224e-02, 5.43826073e-03, -4.09505842e-03,
          -3.58943013e-03, -6.64097548e-04, 5.91120496e-03,
          -2.52408590e-02, -2.22871695e-02, -4.72591557e-02,
          -4.76802029e-02, -5.26317199e-05, 2.70627942e-02,
          -3.27232704e-02, -7.50327902e-03, -3.26319896e-02,
          6.06392685e-04, 1.39562543e-02, -3.25501747e-02,
          -1.57706942e-02, 7.58370832e-02, -8.92470684e-03,
          -5.33173829e-02, -2.82145794e-02, -3.31419893e-02,
          -8.31463467e-03, -9.30594467e-03, -2.24590898e-04,
          2.13639941e-02, -3.94554529e-03, -1.52026433e-02,
          -5.00952676e-02, -5.17000724e-03, -2.00432688e-02,
          -1.15634715e-02, -3.92667204e-02, -3.63869816e-02,
          -2.11878289e-02, -1.44341560e-02, -3.31318080e-02,
          -5.17600514e-02, -4.69968244e-02, -2.64794454e-02,
          6.77794078e-03, 3.70300338e-02, 3.62667851e-02, 2.13879496e-02,
          1.21742180e-02, -2.74991915e-02, -2.34269761e-02,
          -2.39959341e-02, 1.95871084e-03, 4.96122800e-03,
          -7.21160276e-03, 1.57117750e-02, 3.40364352e-02,
          -8.11669568e-04, 1.64675340e-02, 3.89173739e-02,
          -1.79933198e-02, 2.68642642e-02, -2.16646641e-02,
          -6.23662863e-03, 6.74359314e-03, 9.26408917e-03,
          -1.81112066e-02, -2.50933934e-02, 1.02122938e-02,
          -3.32689434e-02, -3.00432313e-02, -5.77936228e-03,
          1.33775063e-02, -2.57094204e-03, -2.27405690e-02,
          1.14153028e-02, 5.25498297e-03, 4.42593694e-02, 1.74583253e-02,
          4.62239683e-02, -4.00894042e-03, 3.32843810e-02,
          1.08119557e-02, 1.17765190e-02, 8.51757172e-03, 3.17799151e-02,
          2.23523304e-02, 8.31994787e-03, 3.99876535e-02, 2.28426829e-02,
          1.30097857e-02, 7.53773609e-04, -1.18846418e-02,
          -8.30369536e-03, -3.93076278e-02, -3.87595370e-02,
          2.11424660e-02, 3.52191250e-03, -5.44681493e-03,
          9.72705986e-03, 2.54866686e-02, 1.94052085e-02,
          -9.79339331e-03, -6.96093170e-03, -3.87938246e-02,
          -4.95807268e-03, 4.67461087e-02, -1.27342967e-02,
          2.09068302e-02, 1.17114875e-02, 1.15754008e-02,
          -4.49331924e-02, -5.08213565e-02, -4.10677977e-02,
          1.92787102e-03, 1.26881003e-02, -2.06411630e-02,
          1.22900065e-02, 3.52255069e-02, 2.27005016e-02,
          -8.33486952e-03, -5.07881790e-02, -4.04420644e-02,
          -9.02283471e-03, -1.38945952e-02, -4.09630090e-02,
          2.19182633e-02, 6.07548952e-02, 5.00222929e-02,
          -3.57052237e-02, -1.01639703e-02, -7.66257197e-03,
          2.83041894e-02, 1.03125917e-02, -4.37009484e-02,
          -1.14116753e-02, 1.38074055e-03, -4.54072841e-03,
          -5.73820658e-02, -5.05831689e-02, -2.08141785e-02,
          -1.31301573e-02, -6.72645308e-03, -3.65822855e-03,
          3.65882516e-02, 6.11223131e-02, 4.56553139e-02,
          -3.38254422e-02, -3.02827321e-02, 2.74769180e-02,
          -1.84085593e-03, 1.55812623e-02, -3.22246132e-03,
          -1.02772564e-02, 1.79664399e-02, 3.79169770e-02,
          -1.04211159e-02, -2.64890771e-03, 1.20520769e-02,
          4.31128703e-02, -1.14609007e-04, -2.73156278e-02,
          -1.21025108e-02, 1.73613150e-02, -2.58090603e-03,
          3.47679318e-03, -1.85578261e-02, -8.12809169e-03,
          -3.40473503e-02, -1.38911558e-02, -1.45543059e-02,
          -1.56369507e-02, 9.62606072e-03, -1.04299663e-02,
          4.23319172e-03, -2.95553990e-02, 6.18188595e-03,
          1.23356022e-02, 4.12489846e-02, -1.92673691e-02,
          -2.15301402e-02, 1.40208025e-02, 4.84479181e-02,
          -3.29309003e-03, -2.52870694e-02, -3.36470045e-02,
          -5.10378070e-02, -1.76710002e-02, -1.77725721e-02,
          -1.84809975e-02, 4.82867844e-03, -1.33206639e-02,
          3.69916148e-02, 2.44249403e-02, 1.66957583e-02,
          -2.33419649e-02, 9.68953827e-05, -4.10325676e-02,
          6.99166348e-03, -1.58106908e-02, -4.04288433e-03,
          4.05634455e-02, -1.18935183e-02, 3.83708929e-03,
          -7.11327465e-03, -3.47849317e-02, -3.89113650e-02,
          -4.94125346e-03, -1.63299330e-02, -6.04291447e-03,
          -3.99066019e-04, 2.35226024e-02, 3.29305418e-03,
          -4.12943400e-02, 1.90609619e-02, -2.60388292e-02,
          -5.65547598e-05, -2.79878899e-02, -2.05844101e-02,
          -3.42986695e-02, 3.23749729e-03, -4.14841669e-03,
          -2.65152324e-02, 1.62025637e-04, 1.41159464e-02,
          -3.29928030e-03, -3.86862271e-02, 2.10055010e-03,
          2.10078042e-02, -1.88672654e-02, -5.03747910e-03,
          1.43904416e-02, 9.52431466e-03, 1.88373830e-02, 1.67354420e-02,
          -2.28176378e-02, -1.35719553e-02, 3.43344850e-03,
          -5.53950376e-04, -3.86115126e-02, -5.63272799e-04,
          -3.60024482e-04, -1.00268833e-02, -5.68697415e-03,
          3.86993081e-04, 5.85371442e-03, -2.96566244e-02,
          -1.15323616e-02, 1.78120472e-02, -7.19875796e-03,
          -9.52728651e-03, -2.70074396e-03, 1.71954855e-02,
          -2.83575412e-02, 5.01227565e-03, -5.73315285e-03,
          -1.12584280e-02, 2.23028306e-02, -6.57190895e-03,
          -9.96387564e-03, -3.68002430e-02, -1.11045511e-02,
          -3.32996175e-02, -3.12517993e-02, 5.95227024e-03,
          5.92995109e-03, -3.54277156e-02, -3.70153487e-02,
          -3.02137360e-02, -5.13830371e-02, -3.63767259e-02,
          -9.60264634e-03, 4.04809117e-02, -1.37317190e-02,
          1.40714813e-02, 6.17632922e-03, 5.77067211e-03,
          -2.78615132e-02, 1.62743460e-02, -2.39100028e-03,
          -1.08984094e-02, -1.40725626e-02, -1.35893456e-03,
          -1.18538663e-02, -1.58799849e-02, -3.18288989e-02,
          -2.09506452e-02, -2.25730184e-02, -1.36499386e-02,
          -1.58007536e-02, -7.08476407e-03, 1.04761636e-02,
          2.03900542e-02, 9.68642812e-03, 1.15151461e-02,
          -3.03641204e-02, 3.00154602e-03, -1.35349780e-02,
          2.90900357e-02, 4.94813845e-02, -3.12653035e-02,
          -2.58366554e-03, 1.99460667e-02, 7.10673071e-03,
          9.05390643e-03, 2.18637064e-02, 2.60467101e-02,
          -1.17130214e-02, -3.03685032e-02, 2.88860332e-02,
          -2.19886806e-02, 2.11903062e-02, 2.76482776e-02,
          2.02888083e-02, 3.14138271e-02, 4.56676111e-02, 7.88233802e-03,
          4.17426112e-04, -5.27055264e-02, -7.10382499e-03,
          2.30397321e-02, 5.32842474e-03, -2.72528399e-02,
          -1.07635111e-02, -3.18018980e-02, -9.94324218e-03,
          1.37132723e-02, -1.27184670e-02, -3.39628458e-02,
          2.05941517e-02, -2.79074125e-02, -1.19033707e-02,
          -2.98094433e-02, 3.38302855e-03, 3.83329988e-02,
          2.99954962e-04, 2.25730389e-02, -1.78025905e-02,
          1.34967081e-02, 7.34825758e-03, 4.28790562e-02, 9.24485549e-03,
          -1.02166168e-03, -1.26730176e-02, 2.25137770e-02,
          3.21558192e-02, 1.77619569e-02, -1.51032712e-02,
          -6.99478062e-03, 2.29122471e-02, 3.36146243e-02,
          3.04506384e-02, 2.46322737e-03, 2.59337388e-02,
          -3.66715789e-02, -3.52961831e-02, -1.04193343e-02,
          -1.86522529e-02, -1.76110547e-02, -4.41198424e-02,
          -2.96341181e-02, 3.02465390e-02, -6.50256593e-03,
          -5.28218001e-02, -2.87297536e-02, -6.65484071e-02,
          -5.74567541e-02, -4.56206314e-02, -2.86470540e-02,
          -7.89089501e-03, 4.99165356e-02, 1.05699087e-02,
          1.28103662e-02, -1.70661248e-02, -2.99678203e-02,
          1.49120775e-03, -2.15984583e-02, -1.29254973e-02,
          2.19708215e-02, 3.31720640e-03, -9.27433278e-03,
          -9.57169943e-03, -2.95815151e-02, -3.48749128e-03,
          7.66327903e-02, -1.57828256e-02, -2.97977794e-02,
          -2.39077304e-02, -1.59166809e-02, -1.19859760e-03,
          -4.60041277e-02, -4.47269231e-02, -6.49790391e-02,
          -4.31638248e-02, -6.08764961e-02, -5.86148389e-02,
          -6.74170069e-03, 2.60989144e-02, 2.36470699e-02,
          -1.18787922e-02, -1.05543975e-02, -3.63567658e-02,
          -1.80527288e-02, -7.40838945e-02, -8.15838575e-02,
          -5.37561364e-02, -3.80006409e-03, 6.01773895e-02,
          -1.92516092e-02, -2.74296920e-03, 9.35181789e-03,
          6.20113164e-02, 4.87865787e-03, 6.39028614e-03,
          -1.83501728e-02, 2.66701449e-03, -1.67980064e-02,
          -5.95284067e-03, 2.90049035e-02, 6.11730739e-02,
          6.91963956e-02, 3.30831781e-02, 1.72947887e-02, 2.58689504e-02,
          1.73974391e-02, -3.23533677e-02, 2.30997655e-04,
          -5.80386771e-03, -1.71597674e-03, -2.08708644e-02,
          -6.47351965e-02, -3.55056226e-02, -3.80908363e-02,
          -6.22448092e-03, 3.95160308e-03, -7.16508226e-03,
          2.83422377e-02, 3.47533971e-02, 4.98399604e-03, 2.79260110e-02,
          1.80350393e-02, -2.03881040e-02, -1.94041114e-02,
          -2.02905573e-02, -9.70822107e-03, 2.13683732e-02,
          2.50861011e-02, 1.32414345e-02, -3.41483541e-02,
          -3.73669493e-04, 3.16226035e-02, -2.48199073e-03,
          -8.38461914e-04, 1.52542004e-02, -1.54124489e-02,
          2.62774690e-03, 6.36414113e-03, -2.45793313e-02,
          2.50031445e-02, -4.36045742e-03, -1.80298798e-02,
          -9.24930719e-05, -1.39717627e-02, 1.03729498e-02,
          -1.45660741e-02, 1.03725139e-02, 8.20985064e-03,
          -1.28398547e-02, 3.26805823e-02, 8.57966952e-03,
          -2.18495727e-02, 1.03542116e-02, -1.96419209e-02,
          -4.23886962e-02, -1.14086643e-02, 2.04834789e-02,
          -7.76829850e-03, -4.25185114e-02, -9.90246795e-03,
          1.82255805e-02, 1.14600342e-02, -5.46105113e-03,
          3.12858447e-02, 1.35846706e-02, -1.71333663e-02,
          1.57896224e-02, -3.46466266e-02, -3.02758645e-02,
          -1.31581016e-02, -1.57926127e-03, -3.06124822e-03,
          7.70400977e-04, -3.82262617e-02, -5.13870642e-02,
          -4.69272062e-02, -5.56321032e-02, -1.13136647e-02,
          2.57110484e-02, 1.46222766e-02, -5.12446091e-03,
          -1.56403948e-02, 9.58103512e-04, 1.88933834e-02,
          -1.03382813e-02, -5.53039052e-02, -2.55740210e-02,
          3.68182710e-03, 3.74566689e-02, 2.54550446e-02, 1.19525772e-02,
          -4.98667397e-02, -2.30166949e-02, -5.64414193e-04,
          -4.46266942e-02, -1.42868869e-02, 3.11999936e-02,
          1.86280534e-02, -2.88810144e-04, 2.76151728e-02,
          -2.65270211e-02, -3.42700095e-03, -2.17477530e-02,
          -3.10004689e-02, -1.73446797e-02, 9.77518968e-03,
          3.38469259e-02, 9.40523110e-04, 3.53392065e-02,
          -1.40953567e-02, -7.19160028e-03, -2.38924120e-02,
          -4.28926498e-02, -5.47365472e-02, -5.37583083e-02,
          2.56067421e-02, 2.36855410e-02, 3.37327830e-02, 1.61982013e-03,
          1.11963078e-02, 8.29165895e-03, -3.79515416e-03,
          -1.04237031e-02, 1.69256218e-02, -1.20055713e-02,
          -8.42733309e-03, 5.02556786e-02, 8.20376445e-03,
          1.50480922e-02, 1.15300445e-02, 5.08003496e-03, 2.35715527e-02,
          1.12695741e-02, 3.57320867e-02, 1.73229538e-02,
          -4.18579765e-03, -2.38163024e-03, 1.13975015e-02,
          1.89186744e-02, -4.97328341e-02, -1.06879734e-02,
          -1.42733632e-02, 1.61384325e-02, -5.07639395e-03,
          -4.31596078e-02, -4.56823707e-02, 3.90819414e-03,
          1.98769700e-02, -1.84530448e-02, 3.69404703e-02,
          3.30718122e-02, 6.06104871e-03, -1.72398295e-02,
          -2.40754150e-02, -1.88284926e-02, 3.88925942e-03,
          -3.86109389e-03, -1.89113654e-02, 5.00784032e-02,
          2.89501119e-02, 1.30441505e-02, -3.88349518e-02,
          -3.30593064e-02, -4.18733135e-02, 1.63937006e-02,
          -9.04980872e-04, -6.13272935e-02, 2.24725623e-02,
          2.53751520e-02, 8.53469037e-03, 1.22734113e-02, 1.26621313e-02,
          -1.47041623e-02, 2.29483768e-02, 2.72854380e-02,
          -1.56406630e-02, 1.16336467e-02, -1.04854647e-02,
          2.11283378e-02, 1.95696410e-02, -8.47468909e-04,
          -6.69920491e-03, 6.10669814e-02, 2.83727255e-02,
          4.80819568e-02, 9.76121332e-03, 2.67237779e-02,
          -5.58376871e-02, -3.09693608e-02, -2.13525593e-02,
          -1.33252982e-02, 7.34865619e-03, 3.20232064e-02,
          -3.09378002e-02, -3.00545339e-02, -2.44831759e-02,
          -6.74425587e-02, -3.37730832e-02, -7.28689432e-02,
          -3.06996573e-02, 1.20909950e-02, 1.56885143e-02,
          1.41301192e-02, -2.77877636e-02, -5.13514131e-02,
          2.74692439e-02, -2.19613090e-02, -7.52014145e-02,
          -5.30554801e-02, 8.27164482e-03, 6.97378954e-03,
          4.25290950e-02, 3.02215945e-02, 2.64235139e-02, 2.73490530e-02,
          -1.83550958e-02, -5.58511391e-02, -7.99104571e-03,
          2.02747881e-02, 3.06549016e-03, 3.04274894e-02, 2.21758559e-02,
          3.49478051e-02, 7.55883800e-03, -4.40628491e-02,
          -8.90896022e-02, -5.78469299e-02, -2.62338463e-02,
          -3.89986038e-02, -1.63501687e-02, -2.30572335e-02,
          -6.30904548e-03, 3.42888385e-02, -2.97513325e-02,
          -5.14640138e-02, 1.85758865e-03, 2.09941086e-03,
          -2.99378857e-02, 9.82974935e-03, 2.10697819e-02,
          1.40213389e-02, -1.02495600e-03, -6.33398890e-02,
          -3.50904390e-02, -3.71113643e-02, -2.01200545e-02,
          6.64383126e-03, 5.79490233e-03, 1.09008118e-03,
          -2.47077383e-02, 1.03292158e-02, 5.08020958e-03,
          2.66212206e-02, -1.17535914e-04, 1.75459459e-02,
          -8.44370946e-03, -1.01638865e-02, -1.50201516e-02,
          -1.75624564e-02, 3.98915820e-03, -5.03953621e-02,
          -2.14905478e-02, -2.17276830e-02, -1.59503967e-02,
          -2.29858141e-02, 1.22155752e-02, -3.28893140e-02,
          -2.84623355e-02, -2.11429019e-02, 2.09650560e-03,
          -5.00098278e-04, 1.78111275e-03, 2.03892570e-02,
          -4.53853421e-03, 7.07377971e-04, -4.30463925e-02,
          -2.25282051e-02, 5.87310549e-03, -2.96476725e-02,
          1.77348386e-02, 2.21040071e-04, 2.31509898e-02,
          -1.09759532e-02, 9.13790334e-03, 1.50401182e-02,
          -1.64564755e-02, -3.97871956e-02, -4.94037978e-02,
          -6.14000903e-03, -2.54355632e-02, -2.14155130e-02,
          -1.42353075e-02, 8.29142053e-03, 1.79578215e-02,
          -3.24037708e-02, 3.09967971e-03, -2.82045593e-03,
          -7.60774780e-03, -1.44454027e-02, 1.69906393e-02,
          6.07162109e-03, 2.01225840e-02, -3.29360366e-02,
          8.24449933e-04, -3.20045725e-02, 2.38340851e-02,
          -5.99955721e-03, -5.90800820e-03, -2.54788976e-02,
          1.52271474e-02, 1.59298796e-02, -2.07848437e-02,
          -1.85940154e-02, -4.92120683e-02, -3.65056358e-02,
          1.49381477e-02, -5.98533126e-03, 2.44234991e-03,
          5.55675058e-03, 2.43571009e-02, -5.41681075e-04,
          -5.15332632e-02, -4.45367768e-02, -4.52402085e-02,
          9.17373400e-04, 5.68332477e-03, 4.05222178e-02, 4.75699864e-02,
          3.98484282e-02, 5.24626439e-03, 1.38638262e-03,
          -3.04360501e-02, 4.10862453e-03, 3.25025315e-03,
          -1.11633865e-02, -1.96208358e-02, 1.97419412e-02,
          2.35327403e-04, 1.58374626e-02, -2.30393149e-02,
          -7.35257715e-02, -5.10800816e-02, -3.98414815e-03,
          -2.52625961e-02, -1.51575524e-02, 2.47972887e-02,
          5.79702761e-03, 1.21140303e-02, -2.85710804e-02,
          -3.47468518e-02, -8.87367129e-03, 1.04885185e-02,
          1.28056491e-02, -1.60671510e-02, -4.40302398e-03,
          3.26715522e-02, 2.45300699e-02, -1.10885175e-02,
          -4.85614873e-03, -4.13286686e-03, 1.23769697e-02,
          -3.62384855e-03, -4.68531922e-02, -3.37603129e-02,
          2.36159507e-02, 8.06554966e-03, -3.35632935e-02,
          -4.38856520e-02, -1.03397928e-02, 1.62861049e-02,
          2.00703787e-03, 1.00751650e-02, 1.57751366e-02, 6.56725513e-03,
          7.12781632e-03, -1.62481833e-02, -2.59841681e-02,
          2.41187923e-02, 1.40971551e-02, 4.13476415e-02,
          -8.13665509e-04, -3.28421011e-03, 2.99426652e-02,
          -3.77367614e-05, -1.85886510e-02, 9.51060967e-04,
          -1.39183654e-02, 1.29746208e-02, 3.42517346e-03,
          1.37414234e-02, 1.81666308e-03, 2.63508540e-02,
          -2.46842601e-03, -2.07184684e-02, 9.30939452e-04,
          -1.23246219e-02, -9.62172076e-03, 2.08266489e-02,
          -5.13064396e-03, -6.32878218e-04, -1.56670716e-02,
          -1.49268396e-02, 1.21243922e-02, -1.33415302e-02,
          4.37133072e-04, -8.83437227e-03, -3.40972468e-03,
          -8.86729173e-03, 1.59704275e-02, 2.10690089e-02,
          -2.77604591e-02, -2.84008048e-02, -1.21681169e-02,
          -5.02504082e-03, 2.70522404e-02, 2.25196816e-02,
          -2.75840294e-02, -8.08083545e-03, -3.67121026e-03,
          -2.50142179e-02, -8.00945144e-03, -1.81251988e-02,
          -4.62721996e-02, -1.76271256e-02, 1.84746762e-03,
          1.92422625e-02, -1.18625117e-03, -1.45247690e-02,
          -1.13798464e-02, 6.69172127e-03, -2.47463142e-03,
          -5.94516061e-02, 9.50337015e-03, 4.96048899e-03,
          5.61541952e-02, 1.33329183e-02, 1.40269306e-02, 2.21046340e-02,
          -1.66814998e-02, -1.70000885e-02, -4.59464863e-02,
          -6.56454172e-03, 1.88147090e-02, -1.37550570e-02,
          -2.55985241e-02, -1.25933271e-02, -1.40420906e-02,
          -4.39967634e-03, -1.68122426e-02, -3.22349779e-02,
          -1.73139516e-02, 2.83069927e-02, 5.09070791e-02,
          -2.37356615e-03, -3.98909301e-03, 5.15073491e-03,
          -6.40852191e-03, -1.59185287e-02, -7.21446872e-02,
          -9.48870368e-03, 1.20876310e-03, 2.71448381e-02,
          -7.44124269e-03, -1.32491514e-02, 9.07578692e-03,
          -1.33346710e-02, -9.12737008e-03, 8.58642918e-04,
          -1.01148142e-02, -1.40175829e-02, 2.40055751e-03,
          -9.54347756e-03, -6.00562338e-03, 1.93613153e-02,
          -1.65656731e-02, -7.11008720e-03, -2.47531608e-02,
          -1.51720608e-03, 1.36066899e-02, 2.26925723e-02,
          -7.28850206e-03, -3.15705314e-02, -1.77445468e-02,
          8.59119184e-03, -2.38035005e-02, -1.40543794e-02,
          -9.78943706e-03, 2.03343108e-02, 3.07526197e-02,
          -1.21050607e-02, -7.54810544e-03, 2.24564224e-02,
          -3.85117792e-02, 6.17770618e-03, 4.39868541e-03,
          -3.27736847e-02, -2.36904863e-02, 2.00120453e-02,
          -1.66784285e-03, -4.70490614e-03, 1.45319402e-02,
          -1.06351469e-02, -9.61508136e-03, 1.97793674e-02,
          -1.44294882e-02, -5.14364690e-02, -6.83942139e-02,
          -6.33211713e-03, 6.20890735e-03, 2.99051050e-02,
          4.50922810e-02, -2.43881512e-02, -1.67538207e-02,
          -7.41019240e-03, 1.76071953e-02, 7.17039257e-02,
          7.86596723e-03, 4.53179050e-03, 1.85185671e-02,
          -1.91314202e-02, -3.96069139e-02, 1.02733709e-02,
          2.73017753e-02, -1.46738831e-02, 2.17982288e-02,
          3.70975137e-02, 2.42916699e-02, -1.73217412e-02,
          -1.63370389e-02, -2.02115648e-03, 4.07636305e-03,
          8.55124369e-03, -2.44108797e-03, 1.30662508e-02,
          1.78676844e-02, 1.28243901e-02, 3.63260098e-02, 2.22441033e-02,
          3.53507809e-02, -3.68997711e-03, 1.00558680e-02,
          2.95029059e-02, 4.23572622e-02, 5.04684933e-02, 3.23479772e-02,
          1.42751299e-02, 1.21872593e-02, -6.59155985e-03,
          -2.60284971e-02, 1.31324390e-02, -4.68515530e-02,
          -3.50689399e-04, 1.74874347e-02, -8.21931381e-03,
          -3.18434127e-02, -2.10615192e-02, 2.63227674e-04,
          -5.17156683e-02, -4.33400683e-02, -4.18621749e-02,
          -5.16527817e-02, -3.75890359e-02, -1.19087193e-02,
          1.18893653e-03, 1.12644816e-02, -3.07023767e-02,
          9.61390510e-03, -8.28409940e-03, -1.39639359e-02,
          3.48576233e-02, 2.11168174e-02, 3.62168364e-02, 9.00192559e-03,
          -4.75186333e-02, -2.66578933e-03, 7.81316124e-03,
          -4.78650965e-02, -7.50662014e-03, 4.00916450e-02,
          -3.93494219e-03, -6.01351587e-03, 2.64351498e-02,
          -3.50344777e-02, -3.03889196e-02, -3.66447959e-03,
          -4.90693375e-03, -2.97458358e-02, 1.63385905e-02,
          3.21441106e-02, 1.50422724e-02, -2.23780819e-03,
          -1.50781004e-02, -1.36360453e-04, -8.95803794e-03,
          -1.35421439e-03, -7.32881948e-03, 1.83232464e-02,
          2.33498774e-03, -5.01004094e-03, 4.35065106e-02,
          1.60017554e-02, -4.36447375e-03, 2.03294726e-03,
          -2.77516749e-02, 5.25668962e-03, -7.94434827e-03,
          -2.00614445e-02, -8.07455275e-03, 3.82688157e-02,
          -2.59933490e-02, -2.63532009e-02, 9.23480373e-03,
          8.38335417e-03, -2.28027143e-02, -3.86395752e-02,
          -3.69874313e-02, 2.00555082e-02, 9.61179659e-03,
          -4.63829488e-02, -3.47256996e-02, 1.50210718e-02,
          1.74628571e-02, 8.84425361e-03, 1.14271911e-02,
          -1.34871164e-02, -4.56102053e-03, 5.60794622e-02,
          -1.30733363e-02, -4.54120189e-02, -3.14242556e-03,
          -1.05940748e-03, 1.13048181e-02, -2.51228027e-02,
          -4.08169515e-02, 1.69667334e-03, 3.96563895e-02,
          -6.50506932e-03, -4.31356765e-02, 3.34176682e-02,
          1.50838336e-02, 1.17555447e-02, -1.96561199e-02,
          -9.69127472e-03, -4.39621741e-03, -3.12376232e-03,
          -5.77467419e-02, -5.10068350e-02, 2.63964124e-02,
          3.30363214e-02, -2.57907039e-03, 4.42828139e-04,
          5.78489015e-03, -1.06279347e-02, 2.61644963e-02,
          -2.50658318e-02, -3.35710794e-02, 6.75330311e-02,
          3.08103599e-02, 3.25587019e-02, 1.37861660e-02,
          -1.01987571e-02, 1.80130173e-02, 4.40678746e-02,
          -2.07298137e-02, -3.18516009e-02, 5.75220510e-02,
          3.09494566e-02, 1.42147369e-03, -1.10304942e-02,
          -2.74189003e-02, 1.96686685e-02, 3.82753611e-02,
          9.15555563e-03, -1.53388618e-03, 8.48762412e-03,
          -5.67887677e-03, -1.23422667e-02, -1.83888320e-02,
          6.80101663e-03, 1.23950755e-02, 3.07855085e-02,
          -1.05993068e-02, 2.31108889e-02, -3.68694365e-02,
          -3.87992524e-02, -2.25902256e-02, 1.93958897e-02,
          -1.68498438e-02, -4.18187752e-02, -1.27196303e-02,
          -1.01311337e-02, 2.64495350e-02, 3.14282328e-02,
          -4.78835893e-04, -1.19729247e-02, -2.81156041e-02,
          -3.81378978e-02, 2.79878285e-02, 3.53538878e-02,
          2.23977659e-02, 2.95399688e-02, 4.96670778e-04,
          -1.93524640e-02, -3.19822617e-02, -2.15383843e-02,
          -3.11376024e-02, 1.21872937e-02, -2.16271114e-02,
          -6.15587365e-03, -2.41566282e-02, -1.93632897e-02,
          6.44547539e-03, 1.78963970e-02, 1.80641077e-02, 9.70082358e-03,
          2.14634696e-03, -2.69848369e-02, -2.00227667e-02,
          -3.63260917e-02, -1.62985809e-02, -3.92421372e-02,
          2.42617019e-02, 4.56624813e-02, 5.82680013e-03,
          -2.14532912e-02, -4.20218781e-02, -3.16500291e-02,
          -3.06954850e-02, -1.78842712e-02, 1.19138286e-02,
          1.04932804e-02, 4.73585501e-02, -1.44682629e-02,
          -5.01585007e-03, -6.04554340e-02, -5.31671531e-02,
          -3.17897685e-02, -4.53968346e-03, 2.84897746e-03,
          1.87399872e-02, 1.28485141e-02, 1.67436199e-03,
          -2.33278722e-02, -2.28523798e-02, -2.30707228e-02,
          2.00576521e-02, -1.60027239e-02, -3.13018076e-02,
          -4.47104266e-03, 7.06624589e-04, -5.53961210e-02,
          -1.97901558e-02, 5.39509580e-03, 2.57771043e-03,
          8.90753977e-03, -2.70823073e-02, 2.25935318e-02,
          6.09971136e-02, 3.51337832e-03, -3.60724777e-02,
          2.87641473e-02, 3.28553021e-02, 3.66800167e-02, 2.10080147e-02,
          -1.55892670e-02, -4.40386869e-02, -1.86640713e-02,
          -1.40532106e-02, -3.11863702e-02, -2.69341264e-02,
          -1.50907747e-02, 2.02708505e-02, 3.61524569e-03,
          5.05111413e-03, 3.87812108e-02, 4.69603874e-02, 2.67793015e-02,
          8.16996116e-03, 5.49209192e-02, 6.91449968e-03, 4.99183964e-03,
          -3.40137049e-03, -7.31511712e-02, 2.88081001e-02,
          4.16614152e-02, 8.10744427e-03, -4.05401625e-02,
          2.69386992e-02, 2.72504650e-02, 4.03243899e-02, 1.10301841e-02,
          -1.11208484e-02, -1.66715346e-02, -2.26939470e-03,
          4.01589386e-02, 1.87076174e-03, 1.99697241e-02,
          -2.08732858e-03, 4.08920692e-03, -1.66023150e-02,
          -3.01246457e-02, 2.46176627e-02, 8.50503240e-03,
          3.14268516e-03, -7.79421721e-03, 1.37144774e-02,
          1.37669053e-02, -1.67951696e-02, 1.52642680e-02,
          -8.55023228e-03, -1.61813553e-02, 4.06328365e-02,
          2.01868042e-02, 2.88495626e-02, 4.90749776e-02, 3.61448596e-03,
          6.29058015e-03, 8.21822137e-03, -4.63837199e-03,
          -4.08859029e-02, -5.76886116e-04, 2.80339476e-02,
          1.13352900e-02, 6.64891629e-03, -3.81932482e-02,
          -2.03256793e-02, 6.10315800e-03, 2.70812344e-02,
          -4.27855030e-02, -3.01630460e-02, 1.73247587e-02,
          3.53318714e-02, 2.06825994e-02, -7.57951522e-04,
          9.00587998e-03, -4.31102375e-03, 1.52822351e-02,
          -1.63105279e-02, 4.23565023e-02, 2.28162687e-02,
          2.14268509e-02, 4.37524170e-03, -2.31499076e-02,
          -2.16081440e-02, -2.11085249e-02, -7.33008143e-04,
          -1.39294947e-02, -4.21136729e-02, 4.11428092e-03,
          6.28978163e-02, -2.89457210e-04, -3.46961245e-03,
          -2.22180802e-02, 1.21200699e-02, 1.83617119e-02,
          -6.19851798e-03, -1.93129922e-03, 1.04528945e-02,
          5.16031496e-02, 1.31911226e-02, 2.63357814e-02, 2.12782044e-02,
          1.17555009e-02, 5.69842197e-03, 1.32548083e-02,
          -2.49841772e-02, -5.53045832e-02, -3.97949293e-03,
          3.88625613e-03, 1.58178934e-03, -1.21688447e-03,
          -5.84375858e-03, -3.62752471e-03, 1.21503770e-04,
          -2.81977444e-03, -9.73511487e-03, 5.52416928e-02,
          5.18738404e-02, 1.08972630e-02, -2.53430232e-02,
          1.91698875e-02, 2.86563076e-02, 3.61726917e-02,
          -6.00002985e-03, -7.82416016e-02, -4.76527773e-02,
          1.14975283e-02, -3.01960353e-02, -3.70171368e-02,
          2.03965474e-02, -7.75487861e-04, 8.54618568e-03,
          -5.40531194e-03, -3.59577164e-02, -8.23109969e-03,
          1.58042405e-02, -7.67059438e-03, 2.93298550e-02,
          9.44674294e-03, 1.28299920e-02, 9.77132097e-03, 1.35823386e-02,
          2.95733241e-03, 1.65849123e-02, 9.04334243e-03,
          -1.69145428e-02, 2.22902891e-04, 5.34345396e-02,
          -5.61952591e-04, -1.05625987e-02, 6.37305528e-03,
          -3.00580170e-02, -6.02110196e-03, 2.63551846e-02,
          -1.76842175e-02, 3.53422239e-02, 1.96992718e-02,
          3.00556119e-03, -1.60598233e-02, -1.28258737e-02,
          -2.82475748e-03, 5.29826134e-02, 3.73917893e-02,
          3.61715886e-03, 3.37801613e-02, 2.64922418e-02, 2.79266969e-03,
          -1.30526703e-02, -2.30806898e-02, -3.30610536e-02,
          9.17878933e-03, 1.49536319e-02, -4.04876247e-02,
          -1.25860106e-02, 7.37793650e-03, 9.09135584e-03,
          4.76691537e-02, 2.31470484e-02, -4.51525487e-02,
          -4.89398697e-03, 3.67284263e-03, -3.54019068e-02,
          -2.21866067e-03, 1.35719292e-02, -1.63559616e-02,
          -1.51797328e-02, -5.08466549e-02, -1.07975369e-02,
          3.76999117e-02, 1.66078359e-02, -6.84698578e-03,
          4.58417162e-02, 3.16447876e-02, -2.65965220e-02,
          1.48188518e-02, 5.73226344e-03, -3.67451273e-02,
          2.66360901e-02, 1.45077491e-02, -5.92679949e-03,
          2.79038791e-02, -9.10146162e-03, -1.58327539e-02,
          4.75460254e-02, 2.99219508e-02, -1.86367333e-02,
          -2.84406282e-02, 1.23628946e-02, 1.23035749e-02,
          -4.51513985e-03, 4.39979415e-03, -1.77521948e-02,
          -5.40181715e-03, 3.51513140e-02, 1.66388340e-02,
          -4.27056178e-02, -2.81123891e-02, 4.97496454e-04,
          -3.55289280e-02, -4.23528603e-04, -1.04997233e-02,
          6.29061237e-02, 2.53400002e-02, 7.68784247e-03, 6.29606517e-03,
          3.11297900e-03, -1.37749957e-02, -1.91708189e-02,
          5.49698286e-02, -1.40191312e-03, 3.85053568e-02,
          2.09808312e-02, 2.07739342e-02, -4.07287963e-02,
          -4.23554182e-02, -2.94557475e-02, -7.93472771e-03,
          1.17856860e-02, -1.74896792e-02, -1.32037676e-03,
          2.51046312e-03, -5.77755645e-03, -1.28792636e-02,
          -2.23903004e-02, -1.65467057e-02, -9.55145108e-04,
          -6.95567671e-03, -4.72884327e-02, 8.55842140e-03,
          -1.20777888e-02, -2.77809072e-02, -1.24169877e-02,
          -3.16124153e-03, 2.08875202e-02, 6.79137930e-03,
          2.32635643e-02, -1.07225345e-03, 3.98852788e-02,
          -3.73941381e-04, -4.02684696e-02, -3.57433185e-02,
          -2.65244320e-02, -3.74325141e-02, -1.06856395e-02,
          1.59304170e-03, 1.26454430e-02, 3.25545222e-02,
          -3.13945897e-02, -3.83245237e-02, -2.69469600e-02,
          1.22920657e-02, -3.67851295e-02, -1.30155692e-02,
          -2.85794605e-02, -2.01479979e-02, 1.82175692e-02,
          1.05260508e-02, 2.10784487e-02, -8.30807164e-03,
          6.35943795e-03, 5.94745390e-02, 6.12757867e-03,
          -3.80318798e-02, -1.05360115e-03, 2.83595081e-02,
          1.47739369e-02, 2.02877894e-02, 2.08574925e-02, 3.19896862e-02,
          1.43704275e-02, -1.83214974e-02, -4.27000597e-02,
          2.91751628e-03, 1.28981965e-02, -1.34763373e-02,
          1.78970769e-02, 1.42498559e-03, 1.52139245e-02, 6.61833864e-03,
          1.73711441e-02, -6.92116693e-02, -2.00627819e-02,
          1.98274571e-02, 3.76427509e-02, 1.76914632e-02, 2.51643956e-02,
          3.26212980e-02, 2.49341484e-02, -3.25327553e-02,
          2.98569351e-02, -1.01895314e-02, 1.05802556e-02,
          -1.94398202e-02, -1.86842103e-02, 1.39594218e-02,
          1.22607574e-02, 1.64194405e-03, -8.42547044e-03,
          2.76147947e-02, -1.79703180e-02, -2.16710120e-02,
          -7.01398030e-02, -8.26206207e-02, -3.81748751e-02,
          -1.87660418e-02, -2.47151405e-03, 4.66200188e-02,
          -1.57686265e-03, -3.89236119e-03, 4.24691010e-03,
          -6.33564219e-03, -4.49026600e-02, -7.19202682e-03,
          3.72689664e-02, 5.74713526e-03, -1.89238880e-02,
          1.16091920e-02, 5.23501216e-03, -1.70209073e-02,
          -6.60744607e-02, -7.64939412e-02, -3.12222857e-02,
          -8.46179761e-03, 1.11831240e-02, 5.28401509e-02,
          -2.41206847e-02, -1.88306272e-02, -1.19931973e-03,
          -2.45303009e-02, -1.40298409e-02, -3.24310549e-02,
          9.52978909e-04, -1.46343431e-03, -2.93940515e-03,
          -4.05357964e-02, -3.45019735e-02, -7.65093695e-03,
          -1.91267077e-02, -1.86006129e-02, -3.12329531e-02,
          4.33344254e-03, 2.30476912e-03, 1.24155460e-02, 4.29789210e-03,
          7.68665166e-04, -5.95108699e-03, -4.14620414e-02,
          -2.40240879e-02, -4.29171622e-02, -1.41020035e-02,
          2.82403920e-03, 1.18166627e-03, 6.08889200e-03, 7.23967608e-03,
          1.04764262e-02, 3.36877741e-02, 4.78946604e-03,
          -4.34658863e-02, -1.18815517e-02, -2.15220673e-04,
          9.56246257e-03, -2.40410343e-02, -6.34686369e-03,
          2.33390555e-02, 2.12554932e-02, 4.60770633e-03, 2.14908179e-02,
          -2.12164177e-03, 2.79262997e-02, 1.83682796e-03,
          3.10926978e-03, 8.24493822e-03, 1.32029122e-02, 1.71575472e-02,
          -3.67863402e-02, -2.46541519e-02, -1.98840275e-02,
          3.33080292e-02, -1.33491540e-03, -5.93823893e-03,
          9.58990480e-04, 4.28584926e-02, 3.58929932e-02, 6.84066210e-04,
          8.04378942e-04, 1.02583226e-02, -1.48509657e-02,
          -1.83136426e-02, -7.65601220e-03, -1.44878617e-02,
          4.27611582e-02, -1.69354060e-03, -4.01084125e-02,
          -3.13206203e-02, -2.95044668e-03, -2.72999071e-02,
          -6.99641034e-02, 2.05615181e-02, 4.62889075e-02,
          9.88160539e-03, 3.46854664e-02, -6.22785930e-03,
          -1.69344936e-02, -4.86791460e-03, 4.09302190e-02,
          2.83418745e-02, -3.35448310e-02, 3.36925648e-02,
          6.70536375e-03, 1.64467990e-02, -1.04309358e-02,
          -4.10513692e-02, -1.02884984e-02, 4.14725067e-03,
          4.04323973e-02, 2.06905603e-02, -3.29921418e-03,
          -2.16383431e-02, 8.57331045e-03, -7.63205811e-03,
          -4.96285670e-02, -3.70142190e-03, -8.93227290e-03,
          -1.39047101e-03, 4.89670856e-05, 1.36769819e-03,
          -4.69204895e-02, 1.68446125e-03, -1.30618853e-03,
          -3.24781425e-02, -7.88840186e-03, -1.27920872e-02,
          1.02902018e-02, 1.23070991e-02, 3.74114215e-02, 2.52665486e-02,
          1.99780557e-02, -1.57154836e-02, -4.92392704e-02,
          -3.17444950e-02, -1.38035230e-02, 3.28233652e-02,
          6.90105779e-04, -1.23609463e-02, 1.35725867e-02,
          -1.85466409e-02, -8.80627241e-03, -1.05463890e-02,
          -7.60955829e-03, -4.13320176e-02, -1.43779779e-03,
          2.72512753e-02, 5.98257221e-02, 3.36827636e-02, 3.38855037e-03,
          1.58708189e-02, -1.15242461e-02, 9.01028921e-04,
          3.17282346e-03, 2.64640544e-02, 1.13696139e-02,
          -2.90554162e-04, 3.81482467e-02, -1.24640875e-02,
          6.29456639e-02, -5.73222805e-03, 5.87541470e-03,
          -3.42259854e-02, -1.65023506e-02, -1.82153713e-02,
          -6.71579782e-03, 1.16006965e-02, 2.94065103e-03,
          3.58047001e-02, 5.17240399e-03, 2.37561595e-02,
          -5.16210981e-02, -3.90792042e-02, -1.38039989e-02,
          -1.39357429e-02, 1.76800054e-03, -3.41462530e-02,
          -3.29699554e-02, -2.24382021e-02, 5.53116156e-03,
          -7.17197778e-03, 1.08445436e-02, -3.89920175e-02,
          -2.47366875e-02, 9.47348680e-03, -7.83846900e-03,
          7.28603154e-02, 1.22065181e-02, 2.62653753e-02, 4.49730130e-03,
          -1.11587001e-02, -3.27669177e-03, -2.14390811e-02,
          -1.26532726e-02, -1.65190101e-02, 3.05557828e-02,
          1.61102018e-03, 2.56545693e-02, 4.84148450e-02, 5.58941588e-02,
          1.83584709e-02, -2.73441966e-03, -3.48348543e-03,
          -5.30563183e-02, -7.08484054e-02, -4.63902354e-02,
          -3.71353477e-02, -8.83487239e-03, 2.54342016e-02,
          3.05794384e-02, 4.84365188e-02, 1.67047568e-02,
          -6.03524549e-03, -2.40471098e-03, 1.92646291e-02,
          3.21714506e-02, -3.24803516e-02, -1.44866798e-02,
          -5.94361359e-03, -4.84837824e-03, 1.33815007e-02,
          -1.40159698e-02, 1.54018654e-02, -3.23058218e-02,
          -3.66889946e-02, 7.14835897e-03, 5.48286848e-02,
          1.75190307e-02, 6.40645102e-02, 2.50549298e-02, 2.94328597e-03,
          5.54015785e-02, -4.37745498e-03, -1.58448834e-02,
          7.15862028e-03, 2.28979606e-02, 1.87747236e-02,
          -2.72426032e-03, 1.42146333e-03, -2.55794311e-03,
          2.04926333e-03, 1.36635713e-02, 1.61919184e-02,
          -3.04533285e-03, -1.62269194e-02, 4.01514061e-02,
          -2.80738827e-02, -1.60729559e-03, 3.98428664e-02,
          -1.19937807e-02, 1.35944309e-02, 1.40354270e-02,
          -7.90997222e-03, 2.03970000e-02, -1.80697150e-03,
          1.46912904e-02, 1.59796700e-02, -1.48514509e-02,
          3.75788175e-02, -1.81285031e-02, -5.69327734e-03,
          7.03835860e-03, 2.98825814e-03, -1.87340775e-03,
          -7.05257952e-02, -1.51595185e-02, 8.72203091e-04,
          3.85507941e-02, 1.00965705e-02, 5.47413994e-03,
          -1.57965422e-02, -1.77859571e-02, 2.51316484e-02,
          1.89286366e-03, -1.83229018e-02, 2.75357459e-02,
          -4.86325764e-04, 1.45329293e-02, 1.93370599e-02,
          1.48100115e-03, 2.32929420e-02, -1.45963475e-03,
          1.87568143e-02, -6.28028763e-03, -5.23219258e-02,
          -3.24137881e-02, 1.86210088e-02, -5.59300045e-03,
          -1.83580369e-02, -2.17727735e-03, -5.08652553e-02,
          -6.10501096e-02, -2.45423652e-02, -1.27245877e-02,
          4.27616350e-02, 7.31557468e-03, 1.51219377e-02,
          -4.28813249e-02, -4.52595465e-02, -5.69491498e-02,
          -2.64264196e-02, -3.57011184e-02, -4.98462394e-02,
          1.15122851e-02, -1.19066769e-02, -3.67183908e-04,
          -6.44863099e-02, -4.35395315e-02, 2.42714714e-02,
          3.44107971e-02, 1.83982793e-02, -3.12193222e-02,
          -2.93213427e-02, 2.67512314e-02, 3.03577036e-02,
          -9.79408994e-03, 3.36636789e-03, 1.89915933e-02,
          2.80742589e-02, 5.73250651e-02, 2.10093260e-02,
          -7.43000135e-02, -2.05206275e-02, 1.39526287e-02,
          4.47548693e-03, 1.77729223e-02, -5.03886379e-02,
          -5.35883615e-03, -6.67264732e-03, -3.79916094e-02,
          1.98397301e-02, 2.66763736e-02, 3.38981040e-02,
          -2.13932004e-02, -4.09870893e-02, -3.24534066e-02,
          3.62054474e-04, 4.35636267e-02, -5.27139148e-03,
          -1.03389313e-02, 1.57338455e-02, 9.76680033e-03,
          -1.24646695e-02, -1.31372949e-02, 1.47306742e-02,
          1.49003346e-03, -5.30754542e-03, -3.73806641e-03,
          -3.64683270e-02, 1.58449952e-02, 1.28864013e-02,
          -4.41869535e-03, 2.28787307e-02, 2.29696091e-02,
          1.19179972e-02, 7.49411294e-03, 5.53477230e-03,
          -2.85289921e-02, 4.20839079e-02, 3.78874168e-02,
          -1.80913182e-03, 4.20439467e-02, -2.29801442e-02,
          -2.24343943e-03, -6.44857856e-03, -1.48292976e-02,
          1.09672761e-02, 3.52030881e-02, 7.50577822e-03,
          -6.33055810e-03, 4.42378083e-03, -5.92491729e-03,
          1.24082221e-02, -6.41807215e-03, -1.71728116e-02,
          1.22670652e-02, 3.49456556e-02, 5.75044714e-02, 1.99362286e-03,
          -2.12825313e-02, 1.12221520e-02, -1.98474899e-02,
          2.72879284e-02, -2.30936185e-02, -4.03972156e-02,
          1.63907483e-02, -1.50742885e-02, -3.83733250e-02,
          2.89013609e-02, 2.73771733e-02, -4.02435325e-02,
          2.04077177e-02, -5.93523262e-03, -2.73622740e-02,
          1.67455021e-02, -7.75686605e-03, -1.22856190e-02,
          3.94390747e-02, 4.85363929e-03, -4.57846634e-02,
          -1.78394988e-02, -4.95901443e-02, -4.80469642e-03,
          -2.02772231e-03, -6.91316044e-03, -1.70755181e-02,
          6.18932489e-03, 7.86539447e-03, 2.91643990e-03, 2.22005490e-02,
          5.97914262e-03, 4.16353494e-02, 1.28515074e-02,
          -3.97388525e-02, -1.65794473e-02, 1.60868056e-02,
          -9.54824965e-03, -3.65169048e-02, 3.84355597e-02,
          3.65410112e-02, 4.64849100e-02, 3.50064971e-02, 3.38038579e-02,
          2.05335151e-02, -3.33316857e-03, 1.46991462e-02,
          -3.28813642e-02, 3.67604345e-02, 8.56643543e-03,
          -2.30899709e-03, -4.64884518e-03, -1.07192053e-02,
          -1.83094013e-02, 1.71546973e-02, 1.19142765e-02,
          1.76214017e-02, -3.14707239e-03, -6.05019927e-03,
          4.54113185e-02, 8.50222446e-03, 2.41731643e-03,
          -2.74753734e-03, 4.03510928e-02, 1.01534128e-02,
          3.24666873e-03, -1.84046775e-02, -2.68145613e-02,
          1.92376524e-02, 2.51699723e-02, 8.91850330e-03, 2.13194154e-02,
          2.15732083e-02, -4.43113036e-04, -2.14699768e-02,
          4.34987731e-02, 2.28766743e-02, -5.04060797e-02,
          -1.52381668e-02, -2.04230240e-03, -2.97691263e-02,
          1.23132467e-02, -1.93709452e-02, -1.86353773e-02,
          5.14363982e-02, 1.24425683e-02, -2.67075859e-02,
          -1.70412380e-02, 4.73506525e-02, -1.98982265e-02,
          5.45602152e-03, 2.00587455e-02, 4.10545198e-03,
          -1.74325344e-03, -1.57902241e-02, -2.07908358e-02,
          7.23948330e-03, 2.45467611e-02, -1.67118963e-02,
          -1.26133729e-02, 1.11618545e-02, 1.19911786e-02,
          3.88741679e-02, 1.33842127e-02, -2.79952604e-02,
          -2.51396429e-02, 3.44076119e-02, 1.90144479e-02,
          1.42205982e-02, -2.29778215e-02, -3.57410014e-02,
          3.41039337e-02, 2.80021038e-03, 2.56916620e-02, 2.93256948e-03,
          1.60003279e-03, -4.13824767e-02, -4.39119199e-03,
          -4.34310623e-02, -3.73571888e-02, 3.11714709e-02,
          5.89414686e-02, 2.78177112e-02, 4.28892905e-03,
          -3.32768867e-03, -3.76939066e-02, -4.11398821e-02,
          1.55368107e-04, 1.25448797e-02, 5.09987250e-02, 4.13925648e-02,
          1.70324054e-02, -4.51757461e-02, -2.55206488e-02,
          -1.70184392e-02, 1.64503921e-02, -8.27675499e-03,
          1.18087232e-02, 2.80737262e-02, 2.61413138e-02, 6.88899681e-02,
          2.70346034e-04, 4.82694991e-03, -1.10172376e-03,
          7.71912700e-03, 1.48679246e-03, -2.42751017e-02,
          2.12792996e-02, 5.18136211e-02, -3.99549678e-02,
          -3.02566029e-02, 7.99480639e-03, 4.31274995e-03,
          -4.34602462e-02, 7.98122305e-03, -1.72637182e-03,
          -1.14456955e-02, -5.85227199e-02, -5.68750091e-02,
          -5.09115085e-02, -3.62178423e-02, 1.74780954e-02,
          -2.11192644e-03, -2.26158816e-02, 6.40678219e-03,
          1.32827125e-02, 3.86020355e-02, 5.06388657e-02,
          -1.29803605e-02, 4.54636349e-04, 2.18467452e-02,
          1.78421102e-02, -6.43970538e-03, 3.90725695e-02,
          6.89935731e-03, -3.24474722e-02, -8.54587834e-03,
          -4.04843129e-02, -2.72933710e-02, 2.40480751e-02,
          -7.24578835e-03 ]
   decision_functions:
      -
         sv_count: 1
         rho: -9.7974873664955286e-01
         alpha: [ 1. ]
         index: [ 0 ]
